Bias:
[0. 0.]
Weights:
[[ 0.0920986   0.02531305]
 [-0.05117627 -0.01086282]
 [-0.05378541 -0.08075888]
 [-0.03580673 -0.03440916]
 [ 0.0769886   0.00019249]
 [ 0.02552157 -0.0110364 ]
 [-0.07374304  0.03323741]
 [-0.02803091  0.041202  ]
 [ 0.02798093  0.00215962]
 [-0.0113421  -0.05449135]
 [ 0.01694774 -0.02007613]
 [ 0.05143622 -0.00588465]
 [ 0.01126901  0.04427009]
 [-0.00372837 -0.0526834 ]
 [-0.04927583 -0.09016751]
 [-0.0048192  -0.04050809]
 [ 0.0606825   0.06898063]
 [-0.01787661 -0.08080516]
 [-0.02091225  0.00462928]
 [ 0.0260016  -0.02988597]
 [-0.08540893 -0.02393107]
 [ 0.04314108  0.01542982]
 [ 0.00028118 -0.03776592]
 [-0.0537815   0.07717665]
 [-0.00263388 -0.05529722]
 [ 0.06445955 -0.07165038]
 [-0.00759476  0.01644424]
 [-0.05773568  0.03021956]
 [ 0.00388413 -0.08314755]
 [ 0.06147531 -0.07523729]
 [-0.06037397 -0.04018523]
 [-0.00644445 -0.01026614]
 [ 0.03951552 -0.00056449]
 [ 0.05050465  0.00877064]
 [-0.09476748  0.04796014]
 [-0.0210763  -0.01805642]
 [ 0.00555791  0.00990655]
 [-0.01725776 -0.08703788]
 [-0.02704277 -0.05248071]
 [ 0.0484167  -0.01244748]
 [ 0.00215486 -0.02078107]
 [ 0.02730151  0.01153362]
 [-0.0091214  -0.00354676]
 [ 0.0198752   0.04211392]
 [ 0.05247698  0.07830936]
 [-0.05793542 -0.04575507]
 [-0.00643933  0.04841821]
 [-0.00496254  0.02021949]
 [-0.01436738 -0.02623213]
 [-0.03693393 -0.01830344]
 [-0.03878435 -0.00324119]
 [ 0.02872993 -0.00562629]
 [ 0.09254166  0.00077795]
 [-0.0157975   0.00977967]
 [-0.00417942  0.03170958]
 [-0.01682405 -0.00940957]
 [-0.01965911 -0.00973859]
 [-0.0243748   0.03854759]
 [ 0.0132389   0.02245729]
 [-0.05001991 -0.03390684]
 [-0.03498079 -0.05400868]
 [ 0.01636003  0.04066956]
 [-0.06694417 -0.01495335]
 [-0.06916865  0.0071198 ]
 [ 0.01915909 -0.00638719]
 [ 0.05170868 -0.03378507]
 [ 0.01000552  0.02639337]
 [ 0.05328686  0.07354065]
 [ 0.04487836 -0.06068134]
 [-0.0387471   0.02726421]
 [-0.02102631 -0.00036498]
 [ 0.02708355  0.07696231]
 [-0.04018152  0.029575  ]
 [ 0.09287892  0.01845561]
 [-0.0252553  -0.02863457]
 [-0.03798488 -0.02988302]
 [ 0.04299412 -0.08084487]
 [-0.04685357  0.00513893]
 [ 0.00012266 -0.00841925]
 [ 0.03388606 -0.04247588]
 [-0.05898282 -0.01200132]
 [ 0.09333663  0.06512802]
 [ 0.01670104 -0.07285005]
 [-0.02372776  0.05476484]
 [-0.01285685  0.03425462]
 [ 0.00250565 -0.01186539]
 [-0.05194917  0.0830754 ]
 [-0.03161196  0.0370676 ]
 [ 0.04004005  0.00256334]
 [ 0.0256514  -0.04752545]
 [ 0.03435643  0.0915378 ]
 [-0.01185126 -0.02716255]
 [-0.04055964 -0.02381884]
 [ 0.08907877  0.00576662]
 [-0.05977783 -0.02746377]
 [ 0.06136519 -0.02279335]
 [ 0.03894326 -0.00324322]
 [-0.05493326  0.02878118]
 [ 0.06791011  0.08775651]
 [-0.00838242  0.06841758]
 [ 0.01987041  0.04514876]
 [ 0.05200816 -0.07201049]
 [-0.07603651 -0.07173686]
 [-0.02480099 -0.0577643 ]
 [-0.01134312 -0.02810248]
 [ 0.02314487  0.03491094]
 [ 0.07107206 -0.03891791]
 [ 0.06518199  0.038686  ]
 [ 0.02781196  0.02505155]
 [ 0.09170725 -0.09051462]
 [ 0.00701277  0.00292712]
 [ 0.00931018 -0.01648267]
 [ 0.00481043  0.00821997]
 [ 0.06163213 -0.05003592]
 [-0.03981503  0.0779212 ]
 [-0.02165049  0.00498983]
 [-0.08231787 -0.0500744 ]
 [-0.06119801 -0.01726776]
 [-0.00766283 -0.07963608]
 [-0.00123325  0.01396974]
 [-0.04672135  0.03259031]
 [ 0.06769463 -0.03012522]
 [ 0.03745999 -0.05803392]
 [-0.04308172 -0.0776544 ]
 [-0.08392949  0.05944456]
 [ 0.03140791  0.00623705]
 [-0.03852123 -0.01859464]
 [-0.0521643  -0.02103162]
 [-0.00650588 -0.01542942]
 [-0.00917814 -0.05264726]
 [-0.05736249 -0.01133111]
 [-0.02954933  0.05510237]
 [ 0.00025079  0.02894936]
 [-0.03645773 -0.01041527]
 [-0.03247412 -0.03395113]
 [-0.06455746 -0.02827848]
 [ 0.05498517  0.00449183]
 [ 0.00543355  0.02219474]
 [-0.01720701 -0.01355343]
 [ 0.07164709  0.06920484]
 [ 0.02831409  0.02580828]
 [-0.01771602 -0.06505664]
 [ 0.01189245  0.06306043]
 [-0.04332448 -0.00705708]
 [ 0.05789803 -0.07530615]
 [ 0.08229023 -0.02299794]
 [ 0.09426842 -0.07561355]
 [-0.04896734  0.07536352]
 [-0.01780282 -0.00981409]
 [ 0.05286714 -0.00736307]
 [-0.06025225 -0.02695123]
 [ 0.01148522 -0.01430252]
 [-0.04770019 -0.03857216]
 [ 0.01714154 -0.06609846]
 [ 0.01455655 -0.0354673 ]
 [-0.05804305  0.01309845]
 [ 0.06171047  0.01676896]
 [ 0.01739127 -0.03956775]
 [ 0.09397524 -0.09764788]
 [ 0.01191928  0.0345538 ]
 [-0.0171578   0.06242227]
 [ 0.00646184 -0.08157247]
 [ 0.02521444  0.05969664]
 [-0.02720922  0.01763026]
 [-0.09007622 -0.05746953]
 [ 0.08415287  0.09559275]
 [ 0.02768286 -0.00100932]
 [-0.06780688  0.05842428]
 [-0.07247957  0.01671901]
 [-0.00855403 -0.05980022]
 [-0.02485145  0.05374794]
 [-0.01755616  0.00329056]
 [ 0.07923629 -0.0517851 ]
 [-0.0249337  -0.01021611]
 [-0.00326872 -0.01029567]
 [ 0.02445459 -0.03746557]
 [ 0.00635606  0.00860893]
 [-0.02726226 -0.06271745]
 [ 0.06849928  0.06955632]
 [-0.05459908  0.02267544]
 [-0.08009798 -0.06718498]
 [-0.09499595 -0.01520905]
 [-0.09089459  0.08239211]
 [-0.03749922  0.01604203]
 [-0.05113403  0.002847  ]
 [ 0.06972479 -0.01626962]
 [ 0.02941989  0.08819657]
 [ 0.01227865 -0.07084546]
 [ 0.01815663  0.02730014]
 [-0.00111715  0.09340738]
 [-0.05343012  0.02205464]
 [ 0.00619346 -0.00053395]
 [ 0.05333439 -0.02774669]
 [-0.01151366  0.07504385]
 [-0.0408273  -0.0135929 ]
 [-0.02326715 -0.07313588]
 [-0.0673264   0.03623594]
 [-0.03556628 -0.00966209]
 [ 0.00556093 -0.03125533]
 [ 0.03151716  0.00449484]
 [ 0.01219055  0.05688782]
 [-0.02448652  0.06021727]
 [-0.02584951  0.0250383 ]
 [ 0.04106844 -0.01623893]
 [-0.02473123  0.03877353]
 [ 0.05786973  0.00295075]
 [-0.04525487  0.0326862 ]
 [-0.00339129 -0.08472675]
 [ 0.08562975  0.07436102]
 [ 0.05092042 -0.03195208]
 [ 0.05894974  0.04265341]
 [ 0.08643185  0.02711068]
 [ 0.02733335  0.05871829]
 [-0.051329   -0.04849529]
 [-0.0444561   0.02288693]
 [-0.0696963  -0.0199044 ]
 [ 0.03923398  0.03676957]
 [-0.07717149  0.00908203]
 [-0.03981696 -0.02725356]
 [-0.00182158  0.06049628]
 [-0.01998857 -0.08261878]
 [-0.00024373 -0.01481965]
 [ 0.0105851  -0.02761372]
 [ 0.03573455  0.02206942]
 [ 0.08980055 -0.06269784]
 [-0.09120721  0.03823075]
 [-0.02203568  0.09909482]
 [ 0.01175471  0.07542399]
 [ 0.02228081  0.07520175]
 [ 0.00615049  0.02673935]
 [ 0.00486687  0.04141477]
 [ 0.05096707 -0.05509472]
 [ 0.0713278   0.09180378]
 [ 0.08446985  0.02308978]
 [ 0.03697787 -0.01354907]
 [-0.00710016 -0.01741965]
 [-0.00854021 -0.03278424]
 [-0.02776973  0.02099097]
 [-0.00496839  0.07444789]
 [ 0.04381016  0.01686119]
 [ 0.07287902  0.00133236]
 [-0.02623804  0.0177527 ]
 [-0.03676937  0.01743324]
 [ 0.02598128 -0.02543128]
 [ 0.07118366  0.03003054]
 [ 0.02278359 -0.00146875]
 [ 0.05464886  0.00272543]
 [-0.00035619  0.0800051 ]
 [-0.00626515 -0.05690446]
 [ 0.00452897  0.06624869]
 [-0.03747708 -0.04732382]
 [-0.01179438  0.05245385]
 [ 0.08084304  0.07596295]
 [-0.0626467  -0.03587474]
 [-0.03587555  0.03791317]
 [ 0.0010058  -0.04745958]
 [-0.0084788   0.06976312]
 [-0.02592444  0.08975034]
 [-0.01033491  0.02851313]
 [-0.03100232  0.00365457]
 [ 0.01312029 -0.00501993]
 [-0.03483915  0.00239401]
 [ 0.00344542 -0.02028721]
 [-0.04857121 -0.04649801]
 [-0.00851484 -0.00405422]
 [ 0.02066252  0.01452581]
 [-0.01836988 -0.02405454]
 [ 0.0484758   0.04891451]
 [ 0.00798855 -0.05578376]
 [-0.05878061  0.01444059]
 [ 0.09843082 -0.02920362]
 [-0.08825347 -0.02040144]
 [ 0.02181397 -0.06184251]
 [-0.01617076  0.04427715]
 [ 0.01567864 -0.03115665]
 [-0.03637397  0.06818289]
 [ 0.00565422 -0.0131509 ]
 [-0.01087364  0.02123212]
 [-0.01215931  0.04187478]
 [-0.06572115 -0.09855302]
 [ 0.04893753 -0.06576568]
 [-0.01830406 -0.03046283]
 [ 0.00686158  0.07283136]
 [-0.01757221 -0.01495024]
 [-0.03903056 -0.02502031]
 [ 0.04765459  0.05405074]
 [-0.0228124  -0.00586085]
 [-0.00442841 -0.02263161]
 [ 0.00359365 -0.04782916]
 [-0.02238205 -0.04452892]
 [ 0.01465688  0.00172695]
 [-0.09162968 -0.04753366]
 [ 0.07603621  0.03903175]
 [-0.03993781  0.01982427]
 [-0.05440521  0.06652033]
 [ 0.03291091 -0.06707585]
 [-0.00933273  0.01908855]
 [-0.01389688 -0.09840151]
 [-0.02931282 -0.03014895]
 [-0.05743786 -0.05269626]
 [ 0.02255256  0.07639682]
 [ 0.05931104 -0.019322  ]
 [-0.05235455  0.03784026]
 [ 0.02233754  0.00605971]
 [-0.04281525 -0.02898878]
 [ 0.05018361 -0.03962391]
 [ 0.00144398 -0.04320621]
 [ 0.0364262  -0.00863651]
 [-0.03241954 -0.00859316]
 [-0.00206172 -0.07447773]
 [-0.00013515  0.05523105]
 [-0.02067525 -0.02833799]
 [-0.00820619 -0.00084577]
 [-0.0266938   0.0022016 ]
 [-0.01425379 -0.08202952]
 [-0.01814768 -0.02100821]
 [ 0.05625729  0.0902971 ]
 [-0.05794165 -0.00539006]
 [ 0.0413551  -0.0575471 ]
 [ 0.02856051 -0.05570886]
 [ 0.05972588 -0.02527462]
 [-0.04003574 -0.0040453 ]
 [ 0.04242099  0.059657  ]
 [ 0.00928599  0.05755758]
 [-0.00148588 -0.04146391]
 [ 0.00870767  0.00713744]
 [ 0.00025622 -0.04479098]
 [-0.01821631  0.03100633]
 [ 0.01265108 -0.08603065]
 [ 0.04068581 -0.0642645 ]
 [ 0.02489145  0.02272862]
 [-0.03514089 -0.06026892]
 [ 0.08004463  0.00609997]
 [ 0.05409718  0.02438261]
 [ 0.07992949  0.01696775]
 [-0.06984017 -0.04940062]
 [-0.00882868  0.01753905]
 [-0.02849445 -0.05007903]
 [-0.01992678 -0.01240615]
 [ 0.05010211  0.04908627]
 [-0.01628544 -0.04918873]
 [-0.02486984  0.00050589]
 [ 0.04317746  0.03822682]
 [ 0.0657381   0.00456856]
 [-0.03285966 -0.02598662]
 [-0.00205558  0.06432436]
 [-0.09321921  0.00526679]
 [-0.04884374  0.00728701]
 [ 0.05350213 -0.03253574]
 [-0.06666626 -0.01941517]
 [ 0.02940905 -0.01486059]
 [-0.06155825 -0.05015467]
 [ 0.00913827 -0.09812472]
 [-0.06026449  0.0023731 ]
 [-0.05147478 -0.03042068]
 [-0.04897181 -0.00797419]
 [ 0.00696262 -0.03357837]
 [-0.09234743  0.0703397 ]
 [-0.02096547  0.07933811]
 [-0.00079708 -0.01912643]
 [-0.01107684 -0.04144352]
 [-0.04157334 -0.06454638]
 [-0.04463219  0.03890487]
 [ 0.02680876 -0.00072297]
 [ 0.03465446 -0.04294068]
 [ 0.04947537 -0.01962798]
 [-0.04353046  0.00777569]
 [ 0.01562623  0.05013686]
 [ 0.0089796  -0.02222215]
 [ 0.01893053 -0.03449664]
 [-0.03432031  0.05912795]
 [-0.00094612 -0.06410565]
 [ 0.02187333 -0.09629771]
 [-0.00170028 -0.08328936]
 [-0.05280836  0.00725524]
 [ 0.02049291  0.03260045]
 [ 0.00100395  0.03569246]
 [ 0.07670709 -0.02304829]
 [ 0.01218063 -0.00738892]
 [-0.00503025  0.01135093]
 [ 0.02740872  0.03807158]
 [-0.02274946  0.00310203]
 [-0.05306675 -0.00552036]
 [-0.05422306 -0.01558646]
 [ 0.00465378  0.05391446]
 [-0.03257717 -0.01157712]
 [-0.06502199  0.01463207]
 [-0.0607789  -0.03345672]
 [ 0.03366245  0.01270013]
 [ 0.07404386 -0.0410161 ]
 [-0.02091212 -0.07090087]
 [-0.02100694  0.01082063]
 [-0.02468889 -0.07076341]
 [ 0.05559706  0.01052182]
 [ 0.05571378  0.09700666]
 [ 0.03310537  0.01358855]
 [ 0.0085248  -0.03878285]
 [-0.0577228  -0.07983261]
 [ 0.00859252 -0.02205455]
 [ 0.02615318 -0.05459074]]
Bias:
[0.]
Weights:
[[-0.00759299]
 [-0.00375623]]