Bias:
[0. 0.]
Weights:
[[-0.02342232  0.05695185]
 [ 0.08575042 -0.01944111]
 [ 0.00107475  0.03557213]
 [ 0.05188129  0.05255859]
 [ 0.05176687 -0.02137166]
 [-0.02567114 -0.08761972]
 [ 0.05611435 -0.02384699]
 [-0.06121786 -0.04782371]
 [-0.02241142  0.04217547]
 [-0.09492745 -0.00284167]
 [-0.06033393  0.01445013]
 [-0.03936452 -0.06071225]
 [ 0.04501997 -0.08085041]
 [-0.00523014 -0.01752832]
 [ 0.0429804   0.02473601]
 [ 0.00513094 -0.02248728]
 [-0.03196013  0.05412588]
 [-0.03529415 -0.01091473]
 [-0.00756583 -0.04510138]
 [ 0.07025764 -0.00068261]
 [-0.02510196  0.03823282]
 [ 0.00710793 -0.01895421]
 [ 0.09886336 -0.00183304]
 [-0.04705203 -0.00623822]
 [ 0.01146662 -0.0354769 ]
 [-0.08235022 -0.0030473 ]
 [ 0.01484486 -0.07480848]
 [-0.00234721  0.00393222]
 [ 0.02393155 -0.0461526 ]
 [ 0.00448571 -0.01499793]
 [ 0.02522113 -0.02639298]
 [ 0.05461396  0.07287373]
 [ 0.00000213  0.05569981]
 [-0.00404651  0.04218073]
 [-0.00534939  0.01870477]
 [-0.06144669  0.0184531 ]
 [-0.02834324  0.05722114]
 [ 0.05922593  0.07133038]
 [-0.01836645  0.03932584]
 [-0.08087849  0.00258325]
 [ 0.07160985  0.01287295]
 [ 0.03139074  0.01488249]
 [-0.02670415  0.01969314]
 [-0.00218635 -0.09679831]
 [ 0.02360402  0.07638734]
 [ 0.08033798  0.00371527]
 [-0.0116988   0.03882286]
 [-0.05506443  0.00140186]
 [-0.01417742 -0.02210415]
 [ 0.01600919 -0.03765723]
 [ 0.00112681  0.0100183 ]
 [ 0.05711319 -0.01714859]
 [-0.03193444  0.0210813 ]
 [ 0.04997999 -0.09549953]
 [ 0.08053913  0.01339156]
 [ 0.01676734 -0.06277159]
 [-0.01551876  0.08620012]
 [-0.01294976  0.02211915]
 [-0.02069692 -0.05240807]
 [-0.01033874 -0.05846359]
 [ 0.00125463 -0.00540155]
 [ 0.08167572 -0.04186145]
 [ 0.00929848 -0.05410215]
 [ 0.03867702 -0.04393689]
 [ 0.04461756  0.02409587]
 [-0.01178877 -0.02753169]
 [ 0.07946854 -0.08301326]
 [-0.03532626 -0.03517681]
 [-0.06978762  0.02159606]
 [ 0.0324099   0.01234946]
 [-0.06263414 -0.0222807 ]
 [ 0.00873518 -0.05047994]
 [ 0.02653247 -0.03769966]
 [-0.06663285 -0.06626318]
 [-0.00888388  0.01116023]
 [ 0.03245503  0.07482909]
 [-0.00520732  0.08265062]
 [-0.01873039 -0.00760178]
 [-0.03139052  0.00936031]
 [ 0.08338857 -0.00258214]
 [ 0.01715514 -0.02805769]
 [ 0.08948883  0.03639354]
 [ 0.03586244 -0.00691955]
 [ 0.04474069  0.00549232]
 [-0.02017496  0.02017045]
 [ 0.07707623  0.00011252]
 [ 0.02839017  0.01631346]
 [-0.03322393  0.02918891]
 [-0.0155857  -0.04332835]
 [ 0.00310282  0.03399746]
 [ 0.04557773  0.00748262]
 [ 0.01691881  0.0428223 ]
 [-0.05745791 -0.01056839]
 [-0.05452504  0.00811805]
 [-0.09716831  0.07911211]
 [ 0.01815724 -0.01587651]
 [-0.02114384  0.00438372]
 [-0.02394322 -0.03697338]
 [-0.03301255  0.04813338]
 [-0.08808013  0.0166147 ]
 [-0.00443552 -0.08032316]
 [ 0.00298282 -0.00561788]
 [ 0.02309608 -0.00829222]
 [ 0.02089701  0.04111   ]
 [ 0.01117758 -0.03703098]
 [-0.03548589 -0.00983904]
 [ 0.02571895 -0.06107838]
 [ 0.03383277  0.05935257]
 [ 0.01536839 -0.00114664]
 [ 0.06490949  0.05822935]
 [ 0.02325893 -0.03262895]
 [-0.04003081 -0.01866955]
 [-0.04095222 -0.00138687]
 [ 0.05717677  0.02426516]
 [ 0.04513558  0.02983215]
 [ 0.01095397  0.07822391]
 [ 0.03350851 -0.01132331]
 [-0.04074616 -0.02892903]
 [-0.08639313  0.00053514]
 [ 0.00380553 -0.02903182]
 [ 0.03062457 -0.01953312]
 [-0.02017635  0.08014738]
 [-0.01376065 -0.02267159]
 [-0.06743447  0.06406979]
 [-0.0071539   0.06794412]
 [ 0.02478261 -0.06528665]
 [-0.00681422 -0.02388272]
 [ 0.00290902 -0.03680801]
 [ 0.01859533  0.01171023]
 [ 0.09649709 -0.02323992]
 [-0.03392681 -0.01084684]
 [ 0.0281477   0.03569581]
 [ 0.08623367  0.01129593]
 [ 0.03243845  0.02452026]
 [-0.01123573 -0.02980633]
 [ 0.01325238 -0.00968468]
 [-0.05411508 -0.01893885]
 [-0.07837056 -0.02283917]
 [-0.02954707 -0.04627666]
 [ 0.04998995 -0.07722418]
 [-0.0221046  -0.04488728]
 [ 0.07918923 -0.05721074]
 [-0.09148615  0.0652408 ]
 [ 0.03542469 -0.05614965]
 [ 0.00935689 -0.05297365]
 [ 0.08791743 -0.05264037]
 [-0.0414899   0.02369092]
 [-0.01729285  0.03070113]
 [ 0.04018446 -0.03334632]
 [ 0.08634412  0.07160225]
 [-0.0038066  -0.08866575]
 [ 0.009993    0.02749274]
 [-0.0212023  -0.00493755]
 [ 0.02181169 -0.0784505 ]
 [ 0.02124162  0.035562  ]
 [-0.06891704 -0.05752627]
 [ 0.00918864  0.06263407]
 [-0.07626972  0.03071861]
 [-0.07772614  0.02192069]
 [ 0.00275082  0.07898086]
 [ 0.00701073 -0.05835157]
 [-0.04858814 -0.01444637]
 [ 0.0407695  -0.02119046]
 [-0.00306094 -0.05608922]
 [ 0.0308197  -0.03398152]
 [ 0.03001383  0.0427017 ]
 [-0.04128711  0.08640607]
 [ 0.05908929  0.03674302]
 [-0.03339035  0.02230555]
 [-0.00857646  0.01840691]
 [-0.01380463 -0.03373369]
 [-0.03076234 -0.09470654]
 [ 0.08418174 -0.0185313 ]
 [-0.03329382 -0.02268054]
 [ 0.06056237 -0.00626539]
 [-0.02991992 -0.02394499]
 [-0.00663999 -0.02824231]
 [ 0.04690636 -0.05226349]
 [-0.00521203  0.04874026]
 [ 0.02830966 -0.05592484]
 [ 0.03221151  0.00872622]
 [ 0.01053221  0.05499337]
 [ 0.06965023 -0.01769257]
 [-0.04911284 -0.04367959]
 [ 0.00043053 -0.07239094]
 [-0.01692095  0.00001903]
 [-0.04315597 -0.00954429]
 [-0.00811853 -0.00090536]
 [-0.01103127 -0.00808909]
 [ 0.02334642  0.02506546]
 [-0.04569736  0.04210105]
 [ 0.04422327 -0.00074917]
 [-0.0718309  -0.00923499]
 [-0.04120164  0.05980523]
 [ 0.01886563 -0.06627878]
 [-0.02034763  0.06289909]
 [-0.03050014 -0.01443718]
 [-0.00925799  0.01260039]
 [-0.06304929  0.00172419]
 [ 0.02622749  0.05981141]
 [ 0.05357306 -0.02620581]
 [ 0.03667164  0.05151851]
 [-0.03970091  0.00886697]
 [ 0.02703559 -0.03843449]
 [ 0.01897933 -0.07016736]
 [ 0.07673093 -0.00944402]
 [ 0.01193038  0.01433221]
 [ 0.03971861  0.08689903]
 [ 0.00738828 -0.01732371]
 [ 0.02425276 -0.06349974]
 [-0.06958172 -0.01819112]
 [ 0.06076936 -0.0200718 ]
 [ 0.03644826 -0.03423674]
 [ 0.00567244 -0.07238194]
 [ 0.06856395 -0.01881219]
 [-0.03416629 -0.00475004]
 [ 0.00467733 -0.02517945]
 [-0.07638758 -0.00858579]
 [-0.03984071 -0.00039013]
 [-0.02071541 -0.05872012]
 [ 0.05587482 -0.05470854]
 [ 0.05369116 -0.03539094]
 [-0.04970562  0.04003031]
 [ 0.09681959 -0.06368694]
 [ 0.01698562 -0.00876665]
 [ 0.00733531 -0.02641048]
 [-0.05948494  0.01220865]
 [-0.00034066 -0.0965205 ]
 [ 0.05261946 -0.01397934]
 [ 0.05595659  0.09989598]
 [-0.02277895  0.02790982]
 [ 0.03150669 -0.00689865]
 [ 0.0376395   0.02658278]
 [ 0.01571018  0.0259023 ]
 [ 0.08357375  0.01001734]
 [-0.06476191 -0.03260041]
 [ 0.03856249 -0.06187747]
 [-0.00853332 -0.00441945]
 [-0.00142129 -0.07435772]
 [ 0.00052874 -0.01058189]
 [-0.05807605 -0.09797564]
 [-0.01489267  0.05027312]
 [ 0.0166488   0.03800751]
 [-0.06235608  0.001114  ]
 [ 0.00085181 -0.03295898]
 [ 0.06852082  0.0603806 ]
 [-0.03322968 -0.00658903]
 [ 0.01853835  0.03924625]
 [-0.05879657  0.01244532]
 [ 0.06176639 -0.03735955]
 [ 0.02635253  0.01037185]
 [-0.04676325  0.06669889]
 [-0.0156546   0.03989437]
 [ 0.08777171 -0.05613501]
 [ 0.06918955  0.03520759]
 [-0.06293651 -0.03271731]
 [-0.01015325 -0.00158177]
 [ 0.00872852 -0.01484379]
 [-0.00747196  0.04086537]
 [ 0.05357091  0.05611913]
 [-0.04199437 -0.02225176]
 [-0.01618028  0.05233305]
 [ 0.04325843 -0.01928088]
 [-0.08225801 -0.0829213 ]
 [-0.02911386 -0.03841443]
 [-0.0197685   0.06794979]
 [ 0.03324402 -0.01169383]
 [ 0.01898686  0.02366739]
 [-0.00992016 -0.00792526]
 [-0.09118049 -0.02230336]
 [ 0.01053023 -0.03191818]
 [ 0.03309345  0.02840161]
 [-0.02879412 -0.00063351]
 [-0.03611407 -0.03103201]
 [-0.00434238  0.02024331]
 [-0.01051606  0.01916708]
 [-0.0453888   0.05852773]
 [-0.04780838 -0.04962265]
 [-0.01355422 -0.02226901]
 [ 0.0083539  -0.06938227]
 [ 0.08674815  0.04559604]
 [-0.01349298 -0.02806534]
 [ 0.0572874  -0.01989103]
 [ 0.05202193  0.02157964]
 [-0.04083337  0.03086423]
 [-0.0295758   0.03767054]
 [-0.09882214 -0.05493149]
 [ 0.05048832 -0.01381798]
 [ 0.02330574 -0.01891277]
 [ 0.02638518 -0.0110888 ]
 [-0.01027319 -0.07875112]
 [-0.05167267  0.03574815]
 [ 0.05700945 -0.01872342]
 [ 0.06623358  0.02215085]
 [ 0.04266194  0.08678735]
 [ 0.0095513   0.01961909]
 [-0.01109355  0.00074375]
 [-0.05441112 -0.01466902]
 [ 0.05003075 -0.03853413]
 [-0.03198444 -0.02344876]
 [ 0.05767608 -0.00764086]
 [-0.03238651 -0.01455841]
 [-0.05015944  0.00003506]
 [ 0.00293941  0.00947687]
 [-0.07548279 -0.01506401]
 [ 0.03589977  0.05165256]
 [ 0.04024513  0.00229567]
 [ 0.00747016 -0.02374227]
 [-0.05544127 -0.00654824]
 [ 0.07092752  0.06464392]
 [ 0.05485032  0.03603932]
 [-0.03493313  0.01655833]
 [-0.06462847 -0.06594702]
 [ 0.05845311  0.07898552]
 [ 0.04905926  0.00956328]
 [ 0.07067904 -0.02516546]
 [ 0.04889892  0.01017784]
 [ 0.02639091  0.07029609]
 [-0.02574527 -0.00403123]
 [ 0.04096458 -0.07346138]
 [ 0.08105911  0.03747477]
 [-0.01614397  0.07731649]
 [-0.03295992  0.00525792]
 [ 0.04391504  0.07153966]
 [ 0.06297696  0.06034657]
 [ 0.02157527  0.04011636]
 [-0.0938535  -0.04318777]
 [ 0.07474561 -0.07029443]
 [-0.04690377 -0.08328784]
 [ 0.05340258  0.02940111]
 [ 0.03321119  0.07445996]
 [ 0.08467253  0.03327578]
 [ 0.0745689  -0.03935299]
 [-0.05984161 -0.0342872 ]
 [ 0.0267179  -0.04413974]
 [-0.03441797  0.05256584]
 [-0.01405692  0.00945608]
 [ 0.00246399  0.06281433]
 [ 0.05129524 -0.06551725]
 [ 0.00307056 -0.01265814]
 [-0.0281447   0.05147164]
 [-0.06248352 -0.05838377]
 [ 0.00070766  0.03328905]
 [ 0.03933852 -0.03139311]
 [-0.03164445 -0.01928438]
 [ 0.0015442   0.03568594]
 [-0.05868128  0.01428482]
 [ 0.0073732  -0.02730082]
 [-0.04041526 -0.03535696]
 [ 0.06632539  0.01063551]
 [ 0.06740465 -0.04605516]
 [ 0.01536766 -0.07369982]
 [-0.04722515  0.00509073]
 [-0.05332721  0.01372372]
 [-0.05014538 -0.01741955]
 [-0.01503673  0.06158075]
 [-0.03562851  0.00025931]
 [ 0.02518103  0.04184955]
 [-0.022722   -0.02694778]
 [ 0.03240942  0.02604355]
 [ 0.00843066  0.057181  ]
 [ 0.01503742  0.03227136]
 [-0.03299407  0.04444684]
 [ 0.00321822 -0.04764681]
 [ 0.03439515  0.04946369]
 [ 0.04785942 -0.06120964]
 [-0.07058578 -0.00775776]
 [ 0.02731585  0.02510976]
 [ 0.03431801 -0.00747471]
 [ 0.05006617 -0.04043234]
 [-0.03183367 -0.07072511]
 [-0.01028571  0.04000018]
 [ 0.06997503  0.01454281]
 [ 0.05389977 -0.02668332]
 [-0.04455726 -0.01104334]
 [ 0.00232097 -0.04026018]
 [-0.04696892  0.01596512]
 [ 0.05620988  0.03810772]
 [ 0.04769235 -0.00945348]
 [ 0.01123428  0.06626382]
 [ 0.00300597  0.02293827]
 [-0.0181843   0.04498185]
 [ 0.01528429  0.00549285]
 [-0.02098241  0.03716868]
 [ 0.06538334  0.05864578]
 [-0.01656786 -0.02309863]
 [-0.06015069  0.06055381]
 [ 0.05692269 -0.0078818 ]
 [-0.09005355 -0.08653167]
 [-0.09080013 -0.08594994]
 [ 0.01176175 -0.05756924]
 [ 0.02096493 -0.04922443]
 [ 0.09757719  0.02895768]
 [-0.04716528 -0.00400992]
 [-0.00210586  0.02024689]
 [-0.01777085 -0.01910589]
 [-0.02275657  0.07720798]
 [ 0.02108094  0.00453079]
 [-0.06205551  0.04022696]
 [-0.00813905  0.00848639]]
Bias:
[0.]
Weights:
[[ 0.06465103]
 [-0.0299664 ]]