Bias:
[-5.8436017 -5.884705 ]
Weights:
[[-0.00362201  0.02727893]
 [-0.0312991   0.02486618]
 [-0.03499467  0.04086354]
 [-0.06608708  0.04682073]
 [-0.05072518  0.01658022]
 [-0.00567639 -0.01898921]
 [-0.03172892  0.05451123]
 [-0.01962099  0.04200647]
 [ 0.0064563   0.03650073]
 [-0.05151956 -0.00155048]
 [-0.00377679  0.03193208]
 [-0.02854398  0.0610019 ]
 [-0.06554826  0.03852472]
 [-0.05103927 -0.00500917]
 [-0.0556802   0.04511732]
 [-0.00512653  0.04985383]
 [-0.03409582  0.0197403 ]
 [-0.05633872  0.05503675]
 [-0.03955859  0.08020551]
 [-0.03659073  0.05072468]
 [-0.00062142  0.01315386]
 [ 0.01287556  0.04002394]
 [-0.04668172  0.0447787 ]
 [-0.01003906 -0.00688769]
 [-0.04604889  0.03471691]
 [-0.06694105  0.03106695]
 [-0.0684614   0.03175103]
 [-0.03363736  0.02527361]
 [-0.02476707  0.01840087]
 [-0.03004159  0.01029732]
 [-0.03935582  0.04865499]
 [-0.07406063  0.00947535]
 [-0.05959319  0.02840876]
 [-0.01993535  0.05877976]
 [-0.06810529  0.03306342]
 [-0.02506226  0.01708583]
 [-0.01074896  0.03411345]
 [-0.03353807  0.03561634]
 [ 0.00954751  0.00535469]
 [-0.04307948  0.01170587]
 [-0.04467567  0.00857375]
 [-0.03022803  0.01537371]
 [-0.01202011  0.05722939]
 [-0.00582457  0.01767836]
 [-0.0308612   0.01794891]
 [-0.01824137  0.07326695]
 [-0.03652382  0.00042008]
 [-0.00663037  0.01914362]
 [ 0.00928767  0.01953244]
 [-0.04620881 -0.00234999]
 [-0.01193276  0.05050665]
 [-0.02954264 -0.01916131]
 [-0.02303812  0.03146689]
 [-0.04006759  0.00411835]
 [ 0.00049899  0.03222216]
 [-0.04358279  0.03499459]
 [-0.02031689  0.0310389 ]
 [-0.04229448 -0.00565156]
 [-0.01063228  0.00759626]
 [-0.05907205  0.00494869]
 [-0.02626586  0.03410215]
 [-0.08497908  0.04211685]
 [-0.00851025 -0.00505552]
 [-0.02046057  0.04622525]
 [-0.02249004  0.02526207]
 [-0.09837686  0.00058509]
 [-0.06487737  0.02491863]
 [ 0.02387288  0.03903873]
 [-0.01034855  0.00669521]
 [ 0.01430176  0.04507922]
 [-0.04777107  0.00946343]
 [-0.02513796  0.03482415]
 [ 0.00202406  0.0002691 ]
 [-0.04643331  0.02925693]
 [-0.0352233   0.00995466]
 [-0.0174988   0.02992646]
 [-0.02906468  0.05460528]
 [-0.03254165  0.0251207 ]
 [-0.01001403  0.01452857]
 [-0.01571251  0.05168129]
 [ 0.01043305  0.04143509]
 [-0.00365904 -0.02794755]
 [-0.04479936  0.0391767 ]
 [-0.01177689  0.0031789 ]
 [-0.00581678  0.02023904]
 [-0.03133498  0.02877118]
 [-0.03250098  0.04756239]
 [-0.00641243 -0.00225857]
 [-0.03047161  0.02523828]
 [ 0.00142949  0.00093076]
 [-0.02981268  0.0056355 ]
 [-0.00109978  0.0189568 ]
 [-0.01146088 -0.0196173 ]
 [-0.06549852  0.00552966]
 [-0.01713989  0.06522231]
 [ 0.00298784 -0.01170611]
 [-0.06842653 -0.02053284]
 [ 0.01005252  0.02325257]
 [-0.01225325  0.06102127]
 [ 0.0341006   0.00177542]
 [-0.04733348  0.00135037]
 [-0.02660622  0.02788848]
 [-0.04847754  0.00889637]
 [-0.00790943  0.05646131]
 [-0.03542839  0.0191421 ]
 [-0.01045626  0.04526671]
 [ 0.02075047 -0.00429759]
 [-0.02276118  0.04676497]
 [-0.03686277  0.01911989]
 [-0.03311612  0.03351074]
 [-0.0173249   0.06911784]
 [ 0.03346777 -0.01140652]
 [-0.03092723  0.05052842]
 [-0.01844053  0.05101701]
 [-0.0303661   0.00807667]
 [-0.02609867  0.02093022]
 [ 0.0042732   0.0285236 ]
 [-0.02282067  0.03717056]
 [-0.00233563  0.04729829]
 [-0.05853718  0.01070884]
 [-0.04574225  0.00508691]
 [-0.0285601   0.02323261]
 [-0.01015946  0.03725407]
 [-0.06053438  0.03710615]
 [ 0.00067364  0.00649025]
 [-0.0190324  -0.0050302 ]
 [-0.03225471  0.02090356]
 [-0.03025487  0.04096128]
 [-0.05719852  0.05410509]
 [-0.02062632 -0.00696932]
 [-0.01391985  0.03918303]
 [-0.02379781  0.01089488]
 [-0.02430119  0.02176086]
 [-0.01579429  0.02441795]
 [-0.0203259   0.00841669]
 [-0.01114849  0.03699798]
 [-0.00421496 -0.01207456]
 [-0.0693173   0.04262125]
 [-0.0012416   0.01327048]
 [ 0.01702916 -0.01086044]
 [-0.01837592  0.04499022]
 [-0.01313777 -0.00923205]
 [-0.01972651  0.01777157]
 [-0.0043521   0.00950263]
 [ 0.00129162  0.05901144]
 [-0.02999794  0.03174119]
 [-0.05117667  0.02031579]
 [-0.04213649 -0.00865067]
 [-0.03536109  0.0516961 ]
 [-0.03372077  0.05978167]
 [-0.00262821  0.00285003]
 [-0.03873025  0.02206871]
 [-0.03799558  0.03820148]
 [-0.0020724   0.00703016]
 [-0.051853    0.05052998]
 [-0.05229545 -0.01496687]
 [-0.02139653  0.03974864]
 [-0.01839113  0.06450476]
 [-0.02618461  0.04852464]
 [-0.04083767  0.0330066 ]
 [-0.04905143  0.02205554]
 [-0.03365251  0.04120964]
 [-0.00120397  0.01954257]
 [-0.01112903  0.00189408]
 [-0.05047971  0.01254443]
 [ 0.02041256  0.01024933]
 [-0.0367029   0.01725093]
 [-0.07795472  0.01957187]
 [-0.03705911  0.02904532]
 [-0.01740799  0.06842318]
 [-0.06469132 -0.00340704]
 [ 0.00386025  0.02945782]
 [-0.0349965   0.00650239]
 [-0.01663871  0.02111978]
 [-0.02796718  0.05780922]
 [-0.04263821  0.02942861]
 [-0.03629982  0.01494011]
 [-0.06454248  0.06307162]
 [-0.01503211  0.04442647]
 [-0.02763145  0.01963119]
 [-0.07914508  0.05630741]
 [-0.01369932  0.03802986]
 [-0.02141362  0.07134173]
 [-0.04069327  0.0521524 ]
 [-0.04324298  0.00756429]
 [-0.03487223  0.02041316]
 [-0.00297901  0.02932864]
 [-0.0496203   0.00867924]
 [-0.01969339  0.01704311]
 [-0.0690103   0.02352205]
 [-0.01306223  0.02803812]
 [-0.00619256  0.04010013]
 [-0.03084068  0.06657293]
 [-0.04469621  0.02267298]
 [-0.06275157  0.00128372]
 [-0.02231316  0.02687468]
 [-0.02659266  0.01346746]
 [-0.01242188  0.00647667]
 [-0.00500402  0.00669645]
 [-0.00003727 -0.0118231 ]
 [-0.02628317  0.02368882]
 [-0.00016847  0.04963461]
 [-0.00847674  0.06010029]
 [-0.05124854  0.00891206]
 [-0.00646978  0.04032901]
 [-0.02630793  0.02783271]
 [ 0.07120202  0.03813188]
 [-0.08658423  0.02823376]
 [-0.05743969  0.05020253]
 [-0.00698346  0.03178739]
 [-0.05748292 -0.00972458]
 [-0.07186142  0.02097899]
 [-0.02954108  0.06643435]
 [-0.04537878  0.01947007]
 [-0.05629924  0.02547577]
 [-0.01558566  0.02003391]
 [-0.03399834  0.02386934]
 [ 0.01714612 -0.00527373]
 [-0.06874182 -0.00233003]
 [-0.01502504  0.06327301]
 [-0.05184482  0.05427271]
 [-0.05839217  0.01480176]
 [-0.02505512  0.08582435]
 [ 0.0004794  -0.00363089]
 [-0.02144378  0.01387216]
 [-0.05039609  0.05071519]
 [-0.05443804 -0.00825734]
 [-0.07779456  0.02171116]
 [-0.03431928  0.02089703]
 [-0.05058372  0.00271488]
 [-0.04472845  0.05591862]
 [-0.05448783  0.034024  ]
 [ 0.00093129 -0.01827362]
 [-0.04389165  0.06265519]
 [-0.0476726   0.07318649]
 [-0.0106833   0.05689621]
 [-0.04243823  0.02803738]
 [-0.07205611  0.03820537]
 [-0.02611727  0.02743945]
 [-0.04156537  0.04345722]
 [-0.03230967  0.03854325]
 [-0.02908538  0.02819205]
 [-0.05016569  0.02675223]
 [-0.0185728   0.04674499]
 [-0.03524766  0.06986684]
 [-0.03354954  0.02126266]
 [-0.07622188  0.07557271]
 [-0.03032172 -0.00067484]
 [-0.03203141  0.04712536]
 [-0.05594036  0.07500228]
 [-0.0336515   0.02792118]
 [-0.04920317  0.03993854]
 [-0.08280124  0.04557077]
 [-0.0230608   0.0935664 ]
 [-0.07654056  0.05973436]
 [-0.06191821  0.07749557]
 [-0.03075196  0.05415425]
 [-0.05544457  0.0368382 ]
 [-0.02889355  0.0340397 ]
 [-0.04686784  0.05297976]
 [-0.02662271  0.03465811]
 [-0.03620227  0.05890812]
 [-0.0251028   0.04108875]
 [-0.00833465  0.02106039]
 [-0.00466571  0.05508246]
 [-0.06603229  0.0684643 ]
 [-0.04767846  0.06423836]
 [-0.05567459  0.06520487]
 [-0.0828891   0.02991926]
 [-0.03440772  0.03619479]
 [-0.05166784  0.07044954]
 [-0.04121097  0.05956657]
 [-0.03914707  0.04358675]
 [-0.05374876  0.05285826]
 [-0.07841939  0.07314346]
 [-0.04170201  0.0486522 ]
 [-0.03857269  0.03636986]
 [-0.04124286  0.05240366]
 [-0.02673539  0.0304455 ]
 [-0.03343424  0.01620507]
 [-0.05548139  0.06162686]
 [-0.04757323  0.06239551]
 [-0.02468683  0.03356885]
 [-0.03133174  0.0274785 ]
 [-0.05911379  0.05079429]
 [-0.06553972  0.0032483 ]
 [-0.05662685  0.04730079]
 [-0.04856949  0.07733358]
 [-0.03158287  0.03446085]
 [-0.0840617   0.05878147]
 [-0.06958154  0.10164627]
 [ 0.00171569  0.03164949]
 [-0.03690256  0.02687479]
 [-0.05994742  0.08811674]
 [-0.06514761  0.07809673]
 [-0.06352388  0.01183555]
 [-0.01421999  0.0316481 ]
 [-0.07086228  0.0481489 ]
 [-0.03149805  0.02547728]
 [-0.05058835  0.02676329]
 [-0.07612799  0.05880671]
 [-0.05443064  0.0563074 ]
 [-0.07444855  0.04405066]
 [-0.06992934  0.07660231]
 [-0.07064606  0.06722225]
 [-0.06112732  0.08512434]
 [-0.06369074  0.06236757]
 [-0.0230422   0.08174158]
 [-0.03918     0.03101514]
 [-0.05039373  0.07284114]
 [-0.06164055  0.05465371]
 [-0.05180093  0.0684668 ]
 [-0.01184827  0.06838933]
 [-0.05419221  0.06271866]
 [-0.07734849  0.04207834]
 [-0.03580115  0.09764908]
 [-0.05284137  0.05211137]
 [-0.05606108  0.04321665]
 [-0.06287909  0.06315035]
 [-0.06142375  0.06263087]
 [-0.03829347  0.03538445]
 [-0.04355051  0.04317521]
 [-0.03851883  0.06595118]
 [-0.0257726   0.06212981]
 [-0.04673704  0.08279458]
 [-0.02637429  0.05947431]
 [-0.05233986  0.05580035]
 [-0.01318468  0.02975542]
 [-0.07673213  0.02494381]
 [-0.06656161  0.06667924]
 [-0.06788454  0.0410833 ]
 [-0.04574502  0.03839541]
 [-0.05359375  0.07280841]
 [-0.03335281  0.05393495]
 [-0.04831722  0.08505481]
 [-0.09164302  0.05868154]
 [-0.02428642  0.06205281]
 [-0.01079093  0.0455193 ]
 [-0.06503891  0.02885303]
 [-0.03909596  0.01451442]
 [-0.01825162  0.04491534]
 [-0.06418133  0.05482837]
 [-0.07036927  0.04000621]
 [-0.05077752  0.07197198]
 [-0.05934982  0.06453819]
 [-0.05380747  0.07148881]
 [-0.05004228  0.03602827]
 [-0.04487793  0.03699427]
 [-0.05840497  0.03494592]
 [-0.07715822 -0.00291181]
 [-0.02984842  0.06230512]
 [-0.06445374  0.05084866]
 [-0.05861912  0.05232493]
 [-0.0939268   0.04284722]
 [-0.07105966  0.04211937]
 [-0.05385708  0.04973668]
 [-0.05385054  0.01122602]
 [-0.04059148  0.05930578]
 [-0.03180198  0.0572768 ]
 [-0.0598154   0.02746692]
 [-0.04694313  0.04982304]
 [-0.03281904  0.03635276]
 [-0.03256999  0.01847305]
 [-0.02142481  0.0448296 ]
 [-0.01073666  0.04112499]
 [-0.05862842  0.03719782]
 [-0.06875793  0.03400576]
 [-0.02672106  0.03533659]
 [-0.06840026  0.0431683 ]
 [-0.04907314  0.08497491]
 [-0.05926269  0.02416013]
 [-0.10259033  0.04679202]
 [-0.06380183  0.0229589 ]
 [-0.02946397  0.06676813]
 [-0.02204171  0.0407054 ]
 [-0.07408833  0.04053599]
 [-0.05938711  0.04146195]
 [-0.04605512  0.02218724]
 [-0.04047953  0.06290889]
 [-0.03017469  0.04914284]
 [-0.08403458  0.02683136]
 [ 0.0119164   0.04505439]
 [-0.05586018  0.03870605]
 [-0.03252233  0.02301537]
 [-0.01436289  0.00894645]
 [-0.0303268   0.04519641]
 [-0.08099669  0.02176763]
 [-0.02488386  0.06685656]
 [-0.02971121  0.05454484]
 [-0.04007828  0.04031682]
 [ 0.0093842   0.00816614]
 [-0.01899194  0.04084946]
 [-0.08062508  0.07409602]
 [-0.04814746  0.0285068 ]
 [-0.06098682  0.07302678]
 [-0.05960469  0.02403101]
 [ 0.02307333  0.05907064]
 [-0.05134844  0.0131422 ]
 [-0.08515305  0.06218461]
 [-0.04536393  0.01170121]]
Bias:
[-1.9658083]
Weights:
[[5.0411835]
 [5.0291004]]