Bias:
[ 2.1388602  -1.1574644   1.9679643  -1.3047075  -1.1165428  -1.2360234
 -1.1196169  -2.511101   -1.4698925  -1.3109965   2.1431236  -1.1175843
 -1.3657932  -1.1997397  -1.0646396   2.2301104  -1.1987184   1.0364249
 -1.399799   -1.1415082  -1.4684033  -1.1895245  -1.1408794  -2.4239292
 -1.2764626  -2.4202757   0.7100211  -1.1481378  -2.357667    2.0739713
  0.66794705 -1.122217    1.9729317  -1.1848582  -1.1431996  -1.0665277
 -1.2550225  -1.289391    1.9712114  -1.2951471  -1.0696448  -1.2792183
  2.0331433  -2.4230006  -1.2813756   1.3946885   2.3305197   2.062534
 -1.1279521  -1.1555247  -2.43636    -2.4933884  -1.189791   -2.4935682
 -1.3643126  -2.3994842  -1.0563048  -1.334257   -1.1055195  -1.3838024
 -1.3180454  -2.3564138   0.6980698  -1.145088   -2.487119    2.2167253
  2.3075268  -1.1297959  -1.3061651  -1.4074849  -2.479144   -1.2772549
  2.1862137  -1.4429022  -1.121102   -1.1393381  -1.3542155  -1.0867766
  0.88775843  2.082954   -2.5496957  -1.1744884  -1.1161659  -1.3320392
 -1.295815    1.9467503  -1.4025241  -1.275613   -1.0845802   2.0181284
  2.1252296  -2.4506812  -1.1804637  -1.3504059   1.6026827  -1.2880739
 -1.405307   -1.3723041  -2.4304974  -1.2204459  -1.2870545  -1.1118258
 -1.3888224  -1.1830304  -1.1363231  -2.4765103  -1.3800408  -1.2355821
 -1.3243582  -2.4007862  -1.1300793  -1.1692085  -1.4662566  -1.1016518
 -1.1134491  -2.3857234  -2.3624387  -1.0569779  -1.3705757  -1.2963735
 -1.3222538  -1.4326183  -2.4131868  -1.1570969  -1.1557918   2.349344
 -1.3329537  -2.417679   -2.3084996  -2.444638   -1.1787026  -2.4402611
 -1.1174264  -1.1970628  -1.2692248  -1.3423308  -1.1468873   1.4009213
 -1.2717564  -1.135344   -2.3071582  -2.362505   -1.1208594   1.912085
 -1.2323655  -1.2719734  -2.4982154  -1.4107112  -1.1624234  -1.457439
  2.1209302  -1.1224059  -2.2830079  -2.4262998  -1.17821    -1.1177171
 -2.5325809  -2.4931793  -1.4326977  -1.270862   -1.0715591  -1.3373774
  2.068379   -1.4118166   1.9993573  -1.1352936  -1.3727465  -2.5433025
 -1.2622669  -1.155366   -1.1496392   1.4533845  -1.140389   -2.4367285
 -1.3010072  -1.2686008  -1.3578327   1.0064814  -1.1488838  -1.1355852
 -1.4171616  -2.3995616  -1.3439147  -1.3126516  -1.097477    1.8489714
 -1.2846719  -1.2368293  -1.3971585  -1.1994909  -1.2621846   1.866649
  1.8998432  -1.4319112  -1.1093835  -1.2715244  -1.1664174   0.8353956
 -1.2283515  -2.3366375  -2.4048438  -1.1138757   0.7212487  -1.2812886
 -1.2779064  -2.4921427   0.6000801   2.1659193  -1.2847145  -1.0911753
 -2.442861   -1.1826898   2.2358499  -1.3311266  -1.2956536   1.5747963
 -1.2031331  -2.488564   -1.1066953  -1.1167382  -1.1126064  -1.148575
 -1.3098477  -1.1289704  -2.4215596  -1.314191   -1.1725248  -2.5004954
 -1.1528072   1.8995825   1.1594639  -1.454373   -1.1427152  -1.2826941
 -2.465354    2.25883    -2.4889133  -1.3989129   2.16674    -2.4861088
  0.86108285 -1.2944428  -1.2982433  -1.1192966  -1.2115453  -1.3217229
 -1.3854166  -1.2753212  -2.4839954  -1.2831738   0.58497506 -1.1761144
 -1.0598598  -1.4064348  -2.3547692  -1.3805568  -1.1659025  -2.4748726
 -1.4742112  -1.1375031  -1.0806444  -2.388282   -1.2620206   2.1187475
 -1.2795328   0.58763903 -2.3508725  -2.5138197  -1.1764382  -1.0752031
 -1.2026995  -1.2615476   1.4552798  -2.378887   -1.1172707   0.7631623
 -2.4495146   1.5805914  -1.3690754  -1.4000211  -1.392219    2.2331128
 -2.4552107  -1.4199122  -1.0862668  -1.2782506  -1.0816114  -2.4296954
 -2.4285412  -1.2975342   1.9595149  -1.0841244  -1.1428168  -1.3935394
 -1.3735814  -2.3410454  -1.3993855  -1.1540582  -1.4475464  -1.4232639 ]
Weights:
[[-0.00733227  0.00037942 -0.00654334  0.00037485  0.00046792  0.0003789
   0.00037163  0.01570725  0.00034606  0.00037433  0.00790486  0.00028568
   0.00036868  0.00038016  0.0002913  -0.01140197  0.00038047  0.00023425
   0.00036318  0.00037542  0.00034543  0.00038047  0.00037612  0.00827328
   0.00037698 -0.02636488  0.00066939  0.00037668 -0.00340654 -0.00869229
   0.0006364   0.0002713   0.00869102  0.00037797  0.00037687  0.00033588
   0.00037767  0.0003763  -0.00660626  0.00037527  0.0003118   0.00037637
   0.00887892 -0.0062738   0.00037657 -0.00015226  0.01114467 -0.00645743
   0.00036104  0.00037507  0.00271224  0.03654005  0.00037925 -0.03011901
   0.00036894 -0.07899007  0.00031649  0.00037203  0.00036549  0.00036292
   0.00037371 -0.02997527  0.00063788  0.00037605  0.00559666 -0.00744475
   0.01025233  0.0002675   0.00037456  0.0003613   0.05788149  0.00037589
  -0.00412534  0.00035475  0.00036955  0.00037536  0.00037006  0.00035433
   0.00082349 -0.00897407  0.00384069  0.00038015  0.00037074  0.00037233
   0.00037514  0.00758031  0.00036297  0.00037693  0.00035024  0.01067539
  -0.01286024  0.00314206  0.00037666  0.00036714 -0.00013675  0.00037607
   0.0003621   0.00036788 -0.02769679  0.00037928  0.00037614  0.00038089
   0.00036253 -0.00029015  0.00037528  0.00320921  0.000366    0.00037898
   0.00037252  0.01270035  0.0003748   0.00038001  0.00034452  0.0003342
   0.00036828 -0.01885894  0.00014377  0.00031159  0.00036734  0.00037374
   0.00037296  0.00035553  0.00439259  0.0003757   0.00003867  0.00598543
   0.00037206 -0.00836752 -0.00929797 -0.00002099 -0.00037458  0.00701716
   0.00036973  0.00038033  0.00037734  0.00037104  0.00025076 -0.00015819
   0.00037712  0.00051783 -0.00625645 -0.00040552  0.00045191  0.00046557
   0.00037807  0.00037714  0.01054663  0.00035907  0.00037938  0.00034659
  -0.00297256  0.0003809  -0.00382772 -0.00083554  0.00038002  0.00037232
   0.00416222  0.00083454  0.00035592  0.0003773   0.00033362  0.00037174
   0.00124912  0.00036178 -0.00694235  0.000375    0.00036767 -0.01578578
   0.00037772  0.00037238  0.00036649 -0.00015758  0.00037614  0.03957438
   0.00037567  0.0003773   0.00036973  0.00029636  0.00037712  0.00020116
   0.00035965  0.00083253  0.00037085  0.00037344  0.00036055 -0.00021728
   0.00037661 -0.00029691  0.00036456  0.00037951  0.00037775 -0.00020167
   0.00056456  0.00035683  0.00040256  0.00037727  0.00037937  0.00085965
   0.00037903 -0.05686869  0.00177788  0.00036521  0.00071264  0.00037654
   0.00037684  0.01057295  0.00051914  0.00804213  0.00037656  0.0003067
  -0.0029501   0.00038066 -0.00644556  0.00037231  0.00037598 -0.0001345
   0.00037893 -0.00289325  0.00036647  0.0003707   0.00036914  0.00037756
   0.00037415  0.00033079 -0.0125756   0.00037387  0.0003803   0.00392861
   0.00037837  0.00088947 -0.00000244  0.00034982  0.00037552  0.00037671
  -0.01604155 -0.02056941 -0.01219962  0.0003634  -0.00468694 -0.01168313
   0.00085621  0.00037408  0.00037587  0.00029773  0.00037919  0.0003712
   0.00036594  0.00037704 -0.00934292  0.00037643  0.00050865  0.00038003
   0.0003185   0.00036231 -0.01389166  0.00036653  0.00037937 -0.01369862
   0.00034469  0.00037442  0.00034827  0.02883959  0.00037769  0.0078551
   0.00037648  0.00051576 -0.0139512  -0.01390976  0.00037547  0.00032004
  -0.00028583  0.00037754 -0.00013037  0.01243276  0.0003686   0.00079034
  -0.00216743 -0.00012065  0.00036791  0.00036299  0.00036511 -0.02002979
  -0.00977768  0.00035976  0.00034313  0.00037689  0.00031995  0.03986725
   0.03937424  0.00037528 -0.0062889   0.00034895  0.0003767   0.00036462
   0.00036762 -0.02290509  0.00036335  0.00037613  0.00035073  0.00035846]
 [-0.00292866  0.00062777 -0.00364046  0.00058395  0.00074491  0.00060694
   0.0006287   0.01883855  0.00050791  0.00058166  0.00077384  0.00052282
   0.00056051  0.0006179   0.00057452 -0.00891501  0.00061866  0.00047781
   0.0005452   0.00062695  0.00050757  0.00062097  0.00062798  0.01472617
   0.00059401 -0.03205308  0.00112247  0.00062669  0.00266205 -0.00479855
   0.00109386  0.00051203  0.0070933   0.00061849  0.00062828  0.00061394
   0.00060038  0.00058977 -0.00365789  0.00058696  0.00058859  0.00059248
   0.00561382 -0.00422824  0.0005922   0.00026848 -0.00063717 -0.00237624
   0.00061565  0.00062268  0.00901082  0.03835148  0.00061901 -0.02957802
   0.0005612  -0.07725837  0.00059741  0.00057276  0.00062638  0.00054896
   0.00057905 -0.02666309  0.00108994  0.00062674  0.01121153 -0.01227372
  -0.00027713  0.00050756  0.0005832   0.00054104  0.05124987  0.0005923
  -0.00943178  0.00052446  0.00062609  0.00062748  0.00056517  0.00062831
   0.00115078 -0.00511876 -0.00786452  0.00062433  0.00062873  0.0005737
   0.00058661  0.00680813  0.00054425  0.00059415  0.00061765  0.008049
  -0.01007191  0.00270917  0.00061792  0.00056251  0.00018099  0.00058982
   0.00054252  0.00055785 -0.02175028  0.00061136  0.00059017  0.00064211
   0.00054723  0.00024287  0.00062821  0.00024651  0.00055362  0.00060717
   0.00057592  0.01791282  0.00062937  0.0006255   0.00050707  0.00059827
   0.00062695 -0.01481971  0.01205471  0.00059308  0.00055766  0.00058457
   0.00057702  0.00052796  0.01821137  0.00062302  0.00042985  0.00558604
   0.00057313 -0.00359399 -0.0068123   0.00103704  0.00015122  0.01312205
   0.00062731  0.00061886  0.00059634  0.00056945  0.00049267  0.00026939
   0.00059541  0.00080053  0.00495887 -0.00532011  0.00072525  0.00075018
   0.00060653  0.00059538  0.01345888  0.0005376   0.0006264   0.00051157
  -0.00936808  0.00063926  0.00689192 -0.00616626  0.00062316  0.00063
  -0.00793486 -0.01384583  0.0005284   0.00059587  0.00060977  0.00057159
  -0.00484071  0.00054047 -0.00358558  0.00062817  0.00055749 -0.02366685
   0.00059864  0.00061954  0.00061485  0.00025071  0.00062814  0.04927805
   0.00058596  0.00059644  0.00056383  0.00047285  0.00062704  0.00046911
   0.00053664 -0.00708007  0.0005688   0.0005801   0.00062383  0.00013145
   0.00059141  0.00025151  0.0005475   0.00061693  0.00059871  0.00016409
   0.00087394  0.00052963  0.0006736   0.00059567  0.00062532  0.00129709
   0.00060904 -0.04118199 -0.0062072   0.00062374  0.00116827  0.00059218
   0.00059345  0.01646529  0.00097576 -0.00071361  0.00059133  0.00057961
  -0.00316052  0.000623   -0.00089484  0.00057392  0.00058775  0.00019855
   0.00061512 -0.00325117  0.00062703  0.00062852  0.00062807  0.00062769
   0.00058173  0.00055431 -0.00629341  0.00058024  0.00062507 -0.0075969
   0.00062761  0.00135005  0.00041422  0.000516    0.00062674  0.00059204
  -0.02357901 -0.02726008 -0.00827825  0.00054569 -0.01137094 -0.00806555
   0.00128794  0.00058552  0.00058693  0.00053089  0.00061342  0.00057488
   0.00055215  0.00059438 -0.01427312  0.00059155  0.000966    0.00062372
   0.00059816  0.00054247 -0.01154444  0.00055412  0.00062547  0.00171782
   0.00050531  0.00062687  0.00061692  0.0396085   0.00059867  0.00439046
   0.00059256  0.00097419 -0.01162985 -0.02132589  0.00061748  0.00059369
   0.0002446   0.00059857  0.00026019  0.01801788  0.00062619  0.00124508
  -0.01038292  0.00019064  0.00055872  0.00054492  0.00054942 -0.02585208
  -0.01139929  0.00053607  0.0006106   0.00059343  0.00059181  0.05153672
   0.04863697  0.00058635 -0.0035571   0.00061657  0.00062816  0.00054851
   0.00055721 -0.01896424  0.00054551  0.00062439  0.00051873  0.00053371]
 [-0.00203547  0.00066535 -0.00431076  0.00060685  0.00075217  0.00063599
   0.00067365  0.0112996   0.00052402  0.00060405  0.00395678  0.00060777
   0.00057893  0.00065051  0.00066077 -0.00446128  0.00065127  0.0007274
   0.00056201  0.0006679   0.00052412  0.00065459  0.00066871  0.00485986
   0.00061926 -0.0426784   0.00105382  0.00066639 -0.00896577 -0.00666896
   0.00104637  0.00060295  0.01184022  0.00065358  0.00066845  0.00068072
   0.00062777  0.00061384 -0.00435267  0.00061076  0.00066514  0.00061765
   0.0120096  -0.01055003  0.00061706  0.00056985  0.00270842 -0.00317168
   0.00066415  0.0006622  -0.00330118  0.0312395   0.00065306 -0.03947244
   0.00057969 -0.09361266  0.0006731   0.00059342  0.00067548  0.00056766
   0.00060088 -0.03541174  0.00103935  0.00066703  0.00360718 -0.00819828
   0.00272331  0.0005994   0.00060604  0.00055774  0.04923506  0.00061788
  -0.00122104  0.0005399   0.00067174  0.00066869  0.00058436  0.00068528
   0.00100722 -0.00707886 -0.01061783  0.00065973  0.00067443  0.0005945
   0.00061039  0.01041287  0.00056083  0.00061952  0.00067562  0.01387174
  -0.0115419   0.0039252   0.00065401  0.00058326  0.00037824  0.00061412
   0.00055915  0.00057587 -0.02786731  0.000642    0.00061456  0.00068417
   0.00056552  0.00061935  0.00066979 -0.01529214  0.00057151  0.00063623
   0.00059751  0.01051995  0.00067184  0.00066155  0.00052424  0.00066137
   0.00067398 -0.02104622  0.00463361  0.0006709   0.00057608  0.00060882
   0.00059867  0.00054423  0.01763727  0.00066212  0.00060496  0.00921888
   0.00059393 -0.01442867 -0.01876148 -0.00312428  0.00054622  0.00456197
   0.00067329  0.0006517   0.00062227  0.00058959  0.00059033  0.00057953
   0.00062113  0.00078656 -0.00021005 -0.01245279  0.00073835  0.00225556
   0.00063627  0.00062107  0.0057422   0.00055486  0.00066344  0.00052883
  -0.00545821  0.00068015 -0.00168499 -0.00572633  0.0006582   0.00067486
  -0.01069785 -0.01454029  0.00054449  0.00062163  0.00067667  0.00059201
  -0.00034649  0.0005565  -0.00445508  0.00066998  0.00057553 -0.0312943
   0.0006252   0.00066019  0.0006586   0.000541    0.00066892  0.05342005
   0.00060895  0.00062246  0.00058274  0.00066627  0.00066648  0.00059079
   0.00055293 -0.00959851  0.00058884  0.00060264  0.00067592  0.00073537
   0.00061588  0.00064896  0.00056404  0.0006498   0.00062527  0.00087597
   0.00238259  0.00054544  0.00070782  0.00062136  0.00066192  0.00111611
   0.00063889 -0.0403128  -0.0086151   0.00067203  0.00107447  0.00061706
   0.00061859  0.0154394   0.000994    0.00271837  0.00061582  0.00065588
  -0.005669    0.00065731  0.0013955   0.00059482  0.00061123  0.00040801
   0.0006478  -0.00623098  0.00067559  0.00067418  0.00067483  0.00066699
   0.00060431  0.0006176  -0.01714676  0.00060245  0.00066064 -0.01037661
   0.00066611  0.00286481  0.00077082  0.00053223  0.00066751  0.0006167
  -0.03070658 -0.02457604 -0.01443275  0.0005625  -0.00791424 -0.01395512
   0.00110675  0.00060986  0.00061016  0.00061023  0.00064506  0.00059727
   0.00056947  0.00061974 -0.01746093  0.00061626  0.00099059  0.00065899
   0.00067258  0.00055889 -0.00709443  0.00057174  0.00066212 -0.00701723
   0.00052153  0.00066867  0.00067617  0.03717983  0.00062527  0.00769899
   0.00061765  0.00099501 -0.00735184 -0.02833779  0.00065449  0.00066596
   0.00062023  0.00062528  0.00051496  0.00464333  0.00067267  0.00110374
  -0.00738898  0.00037153  0.00057709  0.00056178  0.00056629 -0.02332013
  -0.01531952  0.00055201  0.00067148  0.00061851  0.00066342  0.06134766
   0.05168786  0.00060988 -0.00413926  0.00067515  0.00066845  0.00056543
   0.00057518 -0.03599029  0.00056229  0.00066365  0.00053534  0.0005498 ]
 [-0.00747711  0.00014663 -0.01094788  0.00013078  0.00015131  0.00013834
   0.00015072  0.01669876  0.00011327  0.00013008 -0.00109232  0.00015581
   0.00012396  0.00014223  0.00016455 -0.00972955  0.00014237  0.00073986
   0.00012024  0.00014828  0.00011347  0.00014332  0.00014835 -0.00127367
   0.00013393 -0.03290893  0.00006258  0.00014757 -0.01181984 -0.01595451
   0.00008255  0.00015793  0.01164984  0.00014366  0.0001481   0.00015972
   0.00013625  0.0001325  -0.01105295  0.00013183  0.00016132  0.0001336
   0.0115916  -0.00067017  0.00013338  0.00026828 -0.00449141 -0.01063422
   0.00015037  0.00014677 -0.01131488  0.0344918   0.0001432  -0.02894716
   0.00012413 -0.08271746  0.00016227  0.00012748  0.00015253  0.000122
   0.00012929 -0.0294759   0.00008213  0.00014789  0.00224684 -0.00914381
  -0.00365485  0.00015789  0.00013061  0.00011942  0.05603796  0.00013379
   0.0018495   0.00011573  0.00015064  0.00014851  0.00012525  0.00015673
   0.00006718 -0.01662699 -0.00911535  0.00014487  0.00015112  0.00012773
   0.00013176  0.00991079  0.00011994  0.00013401  0.00015583  0.01351899
  -0.02209646  0.02368539  0.00014409  0.00012564  0.00005575  0.00013263
   0.00011965  0.00012324 -0.01984132  0.00014     0.00013275  0.00015149
   0.00012146  0.00033029  0.00014884 -0.00419314  0.00012239  0.0001384
   0.00012857  0.00655054  0.00014951  0.00014542  0.00011376  0.00015542
   0.00015153 -0.00239312  0.01047975  0.00016276  0.00012344  0.00013164
   0.00012881  0.00011683  0.019237    0.0001466   0.00016518  0.00497251
   0.00012762 -0.01765956 -0.01958301 -0.00238809  0.00029663  0.00112083
   0.00015103  0.00014253  0.00013472  0.00012657  0.00015945  0.00028669
   0.00013444  0.00014819  0.00571052 -0.00613469  0.00015112  0.00108118
   0.00013865  0.00013442  0.01208519  0.00011912  0.00014611  0.00011457
  -0.00826126  0.00015039  0.00070136  0.00368456  0.00014447  0.0001509
  -0.00958367 -0.01309019  0.0001168   0.00013454  0.00015923  0.00012713
  -0.0036692   0.00011893 -0.01165682  0.00014895  0.00012319 -0.02131987
   0.00013549  0.00014682  0.00014767  0.00024765  0.0001484   0.054439
   0.00013121  0.00013479  0.00012485  0.00050869  0.00014749  0.00017082
   0.00011839 -0.0030805   0.0001264   0.00012987  0.00015371  0.00082392
   0.00013302  0.00033542  0.00012051  0.0001422   0.0001355   0.00091667
   0.00102132  0.00011686  0.0001528   0.00013447  0.00014568 -0.00004335
   0.00013916 -0.02506402 -0.00291371  0.00015165  0.00003186  0.00013339
   0.00013376  0.01689804  0.00014338 -0.00346727  0.00013302  0.00015976
   0.00864169  0.00014405 -0.00220826  0.00012783  0.0001318   0.00007948
   0.00014177  0.00779498  0.00015235  0.00015106  0.00015158  0.00014753
   0.0001302   0.0001476  -0.0191549   0.00012972  0.00014509 -0.00878266
   0.0001471   0.00093849  0.00062392  0.00011472  0.00014815  0.00013324
  -0.02043872 -0.02845947 -0.00118938  0.00012033 -0.01038141 -0.00059788
  -0.00003887  0.00013186  0.00013152  0.00015359  0.00014091  0.00012882
   0.0001218   0.00013405 -0.00707852  0.00013318  0.00014855  0.00014469
   0.00016168  0.00011952  0.01504534  0.00012233  0.00014574  0.00631298
   0.0001129   0.00014872  0.00015641  0.03761362  0.00013551  0.00427009
   0.00013357  0.00014497  0.01452028 -0.01865918  0.00014451  0.00015976
   0.00032956  0.00013555  0.00019929  0.008609    0.0001511  -0.00002756
   0.00057688  0.00002751  0.0001236   0.00012022  0.00012105 -0.0276654
   0.0007906   0.00011809  0.00015624  0.00013373  0.00015909  0.06346591
   0.05258819  0.00013158 -0.01053703  0.00015599  0.00014814  0.00012091
   0.0001231  -0.03913227  0.00012028  0.00014693  0.00011541  0.00011775]
 [-0.00521553 -0.00026208 -0.00567011 -0.00027245 -0.0002067  -0.0002665
  -0.0002628   0.00662072 -0.00029055 -0.00027306  0.01275793 -0.00028333
  -0.00027859 -0.00026384 -0.00025771 -0.0056796  -0.00026346  0.0003571
  -0.00028247 -0.00026323 -0.00029068 -0.00026306 -0.00026284 -0.00663658
  -0.00026975 -0.04684772 -0.00016526 -0.00026312 -0.01629695 -0.00965104
  -0.00016549 -0.00027922  0.02035637 -0.00026494 -0.00026263 -0.00025647
  -0.00026831 -0.00027082 -0.00575502 -0.00027174 -0.00026127 -0.0002703
   0.02256868 -0.01036515 -0.00027026 -0.00002763  0.00987909 -0.00607425
  -0.00026557 -0.00026451 -0.01265834  0.01695787 -0.00026424 -0.0394439
  -0.0002784  -0.08625759 -0.00025937 -0.00027545 -0.00026283 -0.00028196
  -0.00027376 -0.03952903 -0.00016962 -0.00026321 -0.00954465  0.00521963
   0.01036731 -0.00027842 -0.0002727  -0.00028352  0.03413477 -0.00027057
   0.00926702 -0.00028719 -0.00026347 -0.00026309 -0.00027739 -0.00025212
  -0.00034693 -0.0101157  -0.00748277 -0.00026258 -0.00026273 -0.00027518
  -0.00027186  0.01753902 -0.00028267 -0.00026974 -0.00026282  0.02351276
  -0.0138982   0.00869427 -0.0002655  -0.00027875  0.00005897 -0.0002709
  -0.00028313 -0.00027926 -0.02848276 -0.00026557 -0.00027081 -0.00025765
  -0.00028231  0.00006551 -0.00026288 -0.01513552 -0.00028043 -0.00026641
  -0.00027472 -0.00038897 -0.00026257 -0.00026239 -0.00029088 -0.00026512
  -0.00026304 -0.0179554   0.00193241 -0.0002592  -0.00027942 -0.00027284
  -0.00027437 -0.00028656 -0.00215278 -0.00026432 -0.00003455  0.01660284
  -0.00027537 -0.02089379 -0.03378049 -0.01601326  0.00008329 -0.00747472
  -0.00026309 -0.00026354 -0.00026916 -0.00027634 -0.00027346 -0.0000102
  -0.00026943 -0.00017462 -0.00499449 -0.00678737 -0.00021589  0.00225704
  -0.00026721 -0.00026942  0.00435053 -0.00028451 -0.00026244 -0.0002901
   0.00713395 -0.00025845 -0.00847052 -0.00033494 -0.00026292 -0.00026242
  -0.00792036 -0.01305865 -0.00028643 -0.00026927 -0.00025828 -0.00027575
   0.01133779 -0.00028352 -0.00630845 -0.00026292 -0.00027937 -0.03474252
  -0.00026857 -0.00026565 -0.00026673 -0.00002734 -0.00026279  0.04504542
  -0.00027179 -0.00026916 -0.00027772  0.00000019 -0.00026293 -0.0002519
  -0.00028453 -0.00507255 -0.00027651 -0.00027366 -0.00026283  0.00060852
  -0.00027039  0.00010157 -0.0002818  -0.0002645  -0.00026853  0.00071776
   0.00252068 -0.0002861  -0.00023763 -0.00026931 -0.00026272 -0.00018294
  -0.00026609 -0.02681145 -0.00401677 -0.00026364 -0.00015911 -0.00027027
  -0.00026991 -0.00576431 -0.000185    0.01150132 -0.00027042 -0.00026155
  -0.0030345  -0.00026254 -0.00205054 -0.00027515 -0.00027133  0.00005322
  -0.00026521 -0.00357996 -0.00026276 -0.00026279 -0.00026278 -0.00026265
  -0.00027311 -0.0002939  -0.02533953 -0.00027348 -0.00026233 -0.00723351
  -0.00026247  0.00364585  0.00033318 -0.00028907 -0.00026328 -0.00027023
  -0.03235513 -0.01612287 -0.01352478 -0.00028234  0.00536205 -0.01287986
  -0.00018702 -0.00027253 -0.00027153 -0.0002867  -0.00026533 -0.0002754
  -0.0002807  -0.00026965 -0.01658861 -0.00027043 -0.0001872  -0.00026278
  -0.00025969 -0.00028309 -0.00812357 -0.00028023 -0.00026268 -0.00834178
  -0.00029102 -0.00026335 -0.00026265  0.02210515 -0.00026857  0.01661884
  -0.00027023 -0.00018401 -0.00820177 -0.03049201 -0.00026589 -0.00026244
   0.00006803 -0.00026867 -0.00001771 -0.00981839 -0.00026333 -0.00015761
  -0.00302997  0.00005949 -0.00027909 -0.00028255 -0.00028136 -0.01590972
  -0.0150383  -0.0002846  -0.0002635  -0.00026989 -0.00026298  0.05724847
   0.04248564 -0.00027185 -0.0053531  -0.0002629  -0.0002627  -0.00028161
  -0.00027943 -0.05738418 -0.00028238 -0.00026387 -0.0002886  -0.0002852 ]
 [-0.00253098  0.000108   -0.00530349  0.00007674  0.00021604  0.00009397
   0.00010641  0.0137566   0.00001639  0.00007498  0.00218478  0.00000973
   0.00005858  0.00010186  0.00007529 -0.00730085  0.00010265  0.00026407
   0.00004639  0.00010574  0.0000159   0.00010411  0.00010674  0.01042095
   0.00008445 -0.05467229  0.0003877   0.00010595  0.00012441 -0.0067839
   0.00037835  0.00000642  0.0119991   0.00010055  0.00010722  0.00010182
   0.00008892  0.00008131 -0.00532448  0.0000789   0.00008099  0.00008308
   0.01283627 -0.01033654  0.00008303  0.00012603 -0.00122778 -0.00356039
   0.00009595  0.00010238 -0.00136567  0.02577554  0.00010176 -0.04702771
   0.00005914 -0.07503282  0.00008792  0.00006804  0.00010449  0.00004852
   0.00007295 -0.04122628  0.00037282  0.00010577  0.00631928 -0.00880831
  -0.00034641  0.00000445  0.00007609  0.00004295  0.0328187   0.00008262
  -0.0043722   0.00002993  0.0001042   0.00010612  0.00006221  0.00011557
   0.00030468 -0.00719674 -0.0149008   0.00010605  0.00010638  0.00006881
   0.0000786   0.01044082  0.0000457   0.00008451  0.00009844  0.01450761
  -0.01288946  0.00156789  0.00009946  0.00005893  0.00016091  0.00008121
   0.00004423  0.00005651 -0.03204802  0.00009698  0.00008148  0.00011938
   0.00004729  0.00027049  0.00010666 -0.00702042  0.00005296  0.00009418
   0.00007031  0.01605271  0.00010744  0.00010676  0.00001518  0.00008448
   0.00010488 -0.02122278  0.01690753  0.00008536  0.00005613  0.00007637
   0.00007126  0.00003238  0.01186233  0.00010285  0.00019542  0.00994161
   0.0000683  -0.00489481 -0.02746329 -0.00795674  0.00023694  0.00874554
   0.00010519  0.00010263  0.00008617  0.00006542  0.0000001   0.00014356
   0.00008544  0.00026465  0.00782383 -0.00699454  0.00019936  0.00159776
   0.00009287  0.00008543  0.0100648   0.0000398   0.00010699  0.00001866
  -0.00580649  0.00011725  0.00766035 -0.00590393  0.00010515  0.00010751
  -0.01501713 -0.0189273   0.00003282  0.00008585  0.00009749  0.00006715
  -0.00085201  0.00004282 -0.0052207   0.00010656  0.00005618 -0.04051061
   0.00008789  0.0000993   0.00009507  0.00012416  0.00010686  0.05830212
   0.00007848  0.00008621  0.00006119 -0.00008288  0.00010638  0.00000904
   0.0000395  -0.00760138  0.00006492  0.00007347  0.00010268  0.00057345
   0.00008255  0.00031686  0.00004845  0.00010062  0.00008796  0.00068744
   0.00166032  0.00003397  0.00015481  0.0000857   0.00010621  0.00043319
   0.00009535 -0.02357758 -0.00761416  0.00010235  0.0004078   0.00008301
   0.000084    0.01148978  0.00031839  0.00005965  0.00008248  0.00007543
  -0.00436524  0.00010559  0.00160862  0.00006893  0.00007982  0.000166
   0.00009894 -0.00434022  0.00010499  0.00010621  0.00010579  0.00010704
   0.00007492  0.00002379 -0.00713063  0.00007381  0.00010668 -0.01422087
   0.00010734  0.00196915  0.00043057  0.00002273  0.00010561  0.00008302
  -0.03623889 -0.02704425 -0.01455999  0.00004679 -0.00791468 -0.01385656
   0.00042683  0.00007719  0.00007923  0.00001242  0.00009812  0.00006885
   0.00005201  0.00008473 -0.01455386  0.00008254  0.00031303  0.00010554
   0.0000882   0.0000443  -0.00887641  0.00005352  0.00010632  0.00517027
   0.0000143   0.00010541  0.00009803  0.0370949   0.00008789  0.00780466
   0.00008321  0.00031882 -0.00905527 -0.03347247  0.00009863  0.00008329
   0.00027512  0.00008772  0.00012934  0.00159497  0.00010427  0.00043231
  -0.01073855  0.00016164  0.00005708  0.00004613  0.0000499  -0.02611159
  -0.01691175  0.0000392   0.00009341  0.00008402  0.00008176  0.06953704
   0.05597718  0.00007851 -0.00520385  0.00009768  0.00010707  0.00004911
   0.00005598 -0.03479442  0.00004666  0.00010402  0.00002472  0.00003717]
 [-0.00406348 -0.00045226 -0.00508427 -0.00046165 -0.00033754 -0.00045437
  -0.00045948  0.02295665 -0.00049439 -0.00046249  0.0077547  -0.00055297
  -0.00047068 -0.00045182 -0.00047907 -0.00967481 -0.00045102 -0.00041774
  -0.0004774  -0.00045734 -0.00049502 -0.00045103 -0.00045636  0.00468864
  -0.000458   -0.05453624 -0.00016426 -0.00045612 -0.00149146 -0.00821678
  -0.00018519 -0.00055149  0.01656505 -0.00045619 -0.00045549 -0.00045925
  -0.00045676 -0.00045926 -0.00515482 -0.00046091 -0.00047897 -0.00045905
   0.01747173 -0.00437397 -0.00045872 -0.00033165  0.00360185 -0.00478262
  -0.00046746 -0.00045887  0.00202837  0.02205825 -0.00045387 -0.05277709
  -0.00047035 -0.06605601 -0.00047349 -0.000466   -0.0004624  -0.00047777
  -0.00046349 -0.05323279 -0.00019067 -0.00045678  0.00322493 -0.00403847
   0.00489112 -0.00055108 -0.0004621  -0.00047951  0.01304636 -0.00045992
   0.00156693 -0.00048634 -0.00046133 -0.00045725 -0.00046883 -0.00044256
  -0.00039885 -0.00867211 -0.01047434 -0.00045153 -0.00045988 -0.00046557
  -0.00046113  0.01479094 -0.00047766 -0.00045808 -0.0004684   0.01918159
  -0.01376456  0.00147925 -0.00045817 -0.00047277 -0.00002693 -0.00045959
  -0.00047863 -0.00047173 -0.04778292 -0.00045376 -0.00045947 -0.00044659
  -0.00047819 -0.00022312 -0.00045711 -0.00485008 -0.00047403 -0.0004542
  -0.00046523  0.00517129 -0.00045717 -0.00045164 -0.00049596 -0.00047692
  -0.00046143 -0.01273335  0.00542308 -0.0004749  -0.00047236 -0.0004635
  -0.00046458 -0.00048561  0.00634666 -0.00045813 -0.00008172  0.0181187
  -0.00046594 -0.00234528 -0.04805883 -0.01813548 -0.00018862  0.00240772
  -0.00046081 -0.00045138 -0.00045733 -0.00046741 -0.00054787 -0.00032381
  -0.00045771 -0.00027819 -0.00540542 -0.00020624 -0.00035497  0.00254038
  -0.00045644 -0.00045768  0.02272712 -0.00048198 -0.00045258 -0.00049423
  -0.00165249 -0.00044733 -0.002912    0.00135454 -0.00045193 -0.00045866
  -0.00976002 -0.01295771 -0.00048519 -0.00045741 -0.00046346 -0.00046643
   0.00357177 -0.00047902 -0.00552482 -0.00045736 -0.00047199 -0.04307408
  -0.00045662 -0.00046206 -0.00046653 -0.00030507 -0.00045631  0.05529317
  -0.00046039 -0.0004574  -0.00046929 -0.00073785 -0.00045553 -0.00052777
  -0.00048132 -0.00410433 -0.00046768 -0.00046382 -0.00046441  0.00059521
  -0.00045869 -0.00017117 -0.00047584 -0.00045342 -0.00045655  0.00072846
   0.00278703 -0.00048426 -0.00040146 -0.00045746 -0.0004528  -0.00005791
  -0.00045419 -0.02803258 -0.0059852  -0.00046348 -0.00012422 -0.00045876
  -0.00045824  0.00146309 -0.00028561  0.00477544 -0.00045877 -0.00047908
   0.00058599 -0.00045051 -0.00023085 -0.00046558 -0.00045983 -0.00004473
  -0.00045476  0.00178347 -0.00046191 -0.00045997 -0.00046073 -0.00045484
  -0.00046274 -0.00054986 -0.00389281 -0.00046321 -0.00045112 -0.00983911
  -0.00045382  0.00376946 -0.00018125 -0.00049108 -0.0004573  -0.00045851
  -0.03886576 -0.02477256 -0.00563492 -0.00047715 -0.00383678 -0.00520215
  -0.00006894 -0.00046293 -0.00046005 -0.00055338 -0.00045413 -0.00046723
  -0.00047416 -0.00045788 -0.02094687 -0.00045896 -0.00029616 -0.00045184
  -0.00047316 -0.00047841 -0.01576859 -0.00047341 -0.00045277  0.00256569
  -0.00049556 -0.00045825 -0.00046894  0.03252577 -0.00045666  0.01441298
  -0.00045885 -0.00028558 -0.01561315 -0.03695932 -0.00045972 -0.00047814
  -0.00021814 -0.00045695 -0.00024051 -0.00502958 -0.00046162 -0.00005673
  -0.00276068 -0.00000641 -0.00047166 -0.00047761 -0.00047518 -0.02438251
  -0.01667558 -0.00048121 -0.00047186 -0.00045816 -0.00047882  0.06556153
   0.05304609 -0.00046093 -0.00480965 -0.00046898 -0.00045571 -0.00047574
  -0.00047206 -0.03946366 -0.00047721 -0.00045732 -0.00049031 -0.00048258]
 [-0.00552726 -0.00065171 -0.0051389  -0.00065294 -0.00052905 -0.00064929
  -0.00066163  0.02153662 -0.00067786 -0.00065346  0.01142252 -0.00076498
  -0.00065881 -0.0006487  -0.00068155 -0.00531985 -0.00064785 -0.00083125
  -0.0006639  -0.00065824 -0.00067871 -0.00064843 -0.0006572   0.0020556
  -0.00065073 -0.04341261 -0.0004246  -0.00065655 -0.00307946 -0.00973919
  -0.00044333 -0.00076169  0.01633803 -0.00065457 -0.0006561  -0.00066165
  -0.00065077 -0.00065128 -0.00523925 -0.00065277 -0.00068256 -0.00065175
   0.01867232 -0.0054803  -0.00065122 -0.00042866  0.01115805 -0.00624493
  -0.00066954 -0.0006592   0.00014819  0.01961571 -0.00065166 -0.04581061
  -0.00065854 -0.05883764 -0.00067785 -0.0006558  -0.00066524 -0.00066553
  -0.00065409 -0.05167136 -0.00045054 -0.00065744 -0.00564085  0.00481934
   0.01048469 -0.00076054 -0.00065336 -0.00066571  0.01387731 -0.00065288
   0.0067076  -0.00067076 -0.00066352 -0.00065825 -0.00065756 -0.00064105
  -0.0007225  -0.01021673 -0.00275123 -0.0006499  -0.0006622  -0.00065546
  -0.00065297  0.01379361 -0.00066398 -0.00065088 -0.00067217  0.0193537
  -0.01392247  0.00343697 -0.00065705 -0.00066232 -0.00005941 -0.00065175
  -0.00066487 -0.00065952 -0.04735487 -0.00064961 -0.00065168 -0.00064779
  -0.00066562 -0.0003497  -0.00065825 -0.01295386 -0.00066156 -0.00064913
  -0.00065563  0.00435139 -0.00065862 -0.00065034 -0.00067997 -0.0006801
  -0.00066394 -0.01594082  0.00297676 -0.00067905 -0.00066036 -0.00065564
  -0.00065504 -0.00067072 -0.00614706 -0.0006583  -0.0002582   0.01305079
  -0.00065582 -0.00394305 -0.05433918 -0.01490194 -0.00019531 -0.00462642
  -0.00066313 -0.00064836 -0.00065046 -0.00065681 -0.00075427 -0.00044473
  -0.00065073 -0.00046821 -0.01052173 -0.00074866 -0.00054669  0.00213305
  -0.00065192 -0.00065067  0.02153439 -0.00066828 -0.0006518  -0.00067867
   0.00697677 -0.00064807 -0.00751196 -0.00075417 -0.00065014 -0.00066083
  -0.00274452 -0.00506763 -0.00067024 -0.00065044 -0.0006665  -0.00065606
   0.01006397 -0.00066482 -0.00597794 -0.00065858 -0.00065979 -0.02962052
  -0.00065012 -0.00066271 -0.00066774 -0.00037294 -0.00065716  0.04537234
  -0.00065177 -0.00065058 -0.00065782 -0.00116442 -0.00065585 -0.00072344
  -0.00066702  0.00219994 -0.00065701 -0.00065486 -0.00066759  0.00069556
  -0.00065096 -0.00032162 -0.00066233 -0.00065055 -0.00065004  0.00085289
   0.00228844 -0.00066924 -0.00059557 -0.00065045 -0.00065181 -0.00035321
  -0.00064959 -0.02574023  0.0016424  -0.00066603 -0.00038599 -0.00065128
  -0.00065091 -0.00643026 -0.00054066  0.01135733 -0.00065105 -0.00068185
   0.00052044 -0.00064825 -0.00281099 -0.00065554 -0.0006515  -0.00007411
  -0.00065186  0.00124953 -0.00066469 -0.00066227 -0.00066325 -0.0006551
  -0.00065383 -0.00076422 -0.00790273 -0.00065405 -0.00064956 -0.00256063
  -0.00065372  0.00300865 -0.00052388 -0.00067529 -0.00065814 -0.00065089
  -0.02604399 -0.01521848 -0.00809371 -0.00066368  0.00572589 -0.00746874
  -0.00036425 -0.00065512 -0.00065157 -0.00076639 -0.0006506  -0.00065809
  -0.0006613  -0.00065068 -0.00918987 -0.00065137 -0.00055049 -0.00065016
  -0.00067745 -0.00066454 -0.01083076 -0.00066082 -0.00065181 -0.01675451
  -0.00067888 -0.00065944 -0.00067288  0.02054311 -0.00065018  0.01369254
  -0.00065149 -0.00054039 -0.01067822 -0.02404938 -0.00065902 -0.00068191
  -0.0003481  -0.00065054 -0.00025802 -0.0132493  -0.00066398 -0.00032854
  -0.000817   -0.00004908 -0.00065968 -0.00066412 -0.00066194 -0.01538273
  -0.01127334 -0.00066668 -0.00067563 -0.0006508  -0.00068237  0.05617202
   0.0430492  -0.00065263 -0.00476273 -0.00067278 -0.00065637 -0.00066248
  -0.0006598  -0.04781056 -0.00066371 -0.00065757 -0.00067494 -0.00066799]
 [-0.00933261 -0.00082627 -0.01084563 -0.00079963 -0.0008222  -0.00081228
  -0.00083149  0.03542572 -0.00076028 -0.00079843  0.00247292 -0.00079825
  -0.00078738 -0.00081876 -0.00079956 -0.00943462 -0.00081882 -0.00034273
  -0.00077967 -0.00082885 -0.00076035 -0.00082052 -0.00082899  0.00448563
  -0.00080491 -0.03646493 -0.00092247 -0.00082789  0.00755574 -0.01501422
  -0.0009236  -0.00078591  0.0104348  -0.00082191 -0.00082866 -0.00082075
  -0.0008089  -0.00080252 -0.0109394  -0.00080144 -0.00081167 -0.00080442
   0.0124917   0.00426886 -0.00080401 -0.000368    0.00028311 -0.01132801
  -0.00082682 -0.00082666 -0.0036774   0.02940593 -0.00082086 -0.04786201
  -0.00078771 -0.03501004 -0.00081555 -0.00079385 -0.00083164 -0.00078279
  -0.00079706 -0.05313328 -0.00092758 -0.00082834 -0.00155776 -0.00255453
   0.0005641  -0.00078132 -0.00079935 -0.0007777   0.00990054 -0.00080483
   0.00130498 -0.00076879 -0.00083073 -0.00082917 -0.00078981 -0.00082122
  -0.00119493 -0.01548153 -0.00279125 -0.00082329 -0.00083176 -0.0007943
  -0.00080131  0.00809518 -0.00077909 -0.00080507 -0.00082879  0.01337679
  -0.0193373   0.00465495 -0.00082272 -0.00079018 -0.00010178 -0.00080276
  -0.00077833 -0.00078599 -0.05358865 -0.00081516 -0.00080295 -0.00083313
  -0.00078169 -0.0002026  -0.00082963 -0.0025223  -0.00078413 -0.00081234
  -0.00079578  0.00064568 -0.00083051 -0.00082422 -0.00076047 -0.00081897
  -0.00083144  0.0003206   0.00995066 -0.0008128  -0.00078622 -0.00080124
  -0.00079621 -0.0007711   0.00570835 -0.00082646 -0.00044622  0.00780048
  -0.0007941   0.00813449 -0.05767063 -0.00994252 -0.00015654 -0.00257284
  -0.00083131 -0.00081919 -0.00080624 -0.0007922  -0.0007641  -0.00035176
  -0.00080578 -0.00080523 -0.00274803  0.00410304 -0.00082374 -0.00077284
  -0.00081325 -0.00080574  0.03534403 -0.00077649 -0.00082546 -0.00076307
  -0.00183058 -0.00083153  0.00156576  0.00178522 -0.00082268 -0.00083192
  -0.00291183 -0.00333701 -0.0007712  -0.00080594 -0.00082002 -0.00079323
   0.00142811 -0.00077697 -0.01156566 -0.00082975 -0.00078586 -0.02266021
  -0.00080751 -0.00082634 -0.00082565 -0.00034089 -0.00082907  0.04592711
  -0.00080036 -0.00080636 -0.00078907 -0.00072924 -0.00082778 -0.0007242
  -0.00077536  0.00483878 -0.00079188 -0.00079807 -0.000831   -0.00049074
  -0.00080339 -0.00015956 -0.00078051 -0.00081904 -0.00080752 -0.00056042
  -0.00076645 -0.00077163 -0.00082528 -0.00080581 -0.00082481 -0.00093918
  -0.00081371 -0.02134844  0.00341454 -0.00083036 -0.00091178 -0.00080402
  -0.00080464  0.00427046 -0.00093653  0.00114166 -0.00080338 -0.00080469
   0.00524757 -0.00082168 -0.0052145  -0.00079448 -0.00080135 -0.00012902
  -0.00081855  0.0058982  -0.00083181 -0.00083167 -0.00083182 -0.00082783
  -0.00079863 -0.00082921  0.0047527  -0.0007978  -0.00082358 -0.00250318
  -0.00082712 -0.00066488 -0.00017346 -0.00076483 -0.00082867 -0.00080376
  -0.01892737 -0.02021411 -0.00013832 -0.00077989 -0.00317108  0.00014437
  -0.00094522 -0.0008016  -0.00080087 -0.00080723 -0.0008169  -0.00079622
  -0.00078308 -0.00080512 -0.00532056 -0.00080367 -0.0009386  -0.00082304
  -0.00081605 -0.00077816 -0.00414395 -0.00078414 -0.0008249  -0.00372638
  -0.00075887 -0.00082936 -0.00082854  0.02416158 -0.00080756  0.00653877
  -0.00080435 -0.00093538 -0.00390452 -0.01722311 -0.00082337 -0.00081553
  -0.00019611 -0.00080767 -0.00030902 -0.00374593 -0.000831   -0.00089689
   0.0011551  -0.00008544 -0.00078661 -0.00077958 -0.00078159 -0.02045016
  -0.00050951 -0.00077485 -0.00082548 -0.00080458 -0.00081451  0.05293563
   0.0443439  -0.00080099 -0.01049025 -0.00082832 -0.00082872 -0.00078122
  -0.00078569 -0.03409684 -0.00077979 -0.00082695 -0.00076654 -0.00077382]
 [-0.00685152 -0.00091703 -0.00794982 -0.00088041 -0.00096362 -0.00089817
  -0.00092218  0.03012875 -0.00082919 -0.00087872  0.0032069  -0.00087765
  -0.00086352 -0.00090725 -0.00088182 -0.01130793 -0.00090754 -0.00067973
  -0.0008532  -0.00091917 -0.00082928 -0.00090977 -0.0009196   0.00065229
  -0.00088788 -0.05076532 -0.00130239 -0.0009182   0.0050383  -0.00932814
  -0.00128023 -0.00086527  0.00978374 -0.0009103  -0.00091938 -0.00090927
  -0.00089326 -0.00088456 -0.00799491 -0.00088284 -0.00089547 -0.00088703
   0.01119574  0.00066857 -0.00088657 -0.0004532  -0.00061132 -0.00718744
  -0.0009144  -0.0009159  -0.00783585  0.02433264 -0.00090948 -0.06465749
  -0.00086397 -0.02890162 -0.00090095 -0.00087233 -0.00092178 -0.00085696
  -0.00087681 -0.05879229 -0.00128115 -0.00091863 -0.00230695 -0.00383288
   0.00023281 -0.00086064 -0.00087996 -0.0008506  -0.00261942 -0.00088737
   0.00048424 -0.00083938 -0.00092075 -0.00091963 -0.00086682 -0.00091361
  -0.00153361 -0.00957542 -0.00366802 -0.00091328 -0.00092246 -0.00087297
  -0.00088264  0.00804086 -0.00085246 -0.00088806 -0.00091719  0.01246242
  -0.0132104  -0.01065435 -0.00091088 -0.00086668 -0.00014046 -0.0008848
  -0.00085144 -0.00086165 -0.06129054 -0.00090207 -0.00088507 -0.00092778
  -0.00085559 -0.00033262 -0.00092026 -0.00288242 -0.00085906 -0.0008983
  -0.00087488 -0.00180231 -0.00092143 -0.00091448 -0.00082942 -0.00090361
  -0.00092169 -0.00117984  0.00292388 -0.00089754 -0.00086185 -0.00088208
  -0.00087554 -0.00084218  0.00450068 -0.00091581 -0.00051667  0.01010095
  -0.00087265  0.00735085 -0.05185644 -0.00947541 -0.00022477 -0.00356416
  -0.00092164 -0.00090793 -0.00088972 -0.00087003 -0.00084339 -0.00045017
  -0.00088905 -0.00098147 -0.00397422 -0.00126622 -0.00095502  0.00080278
  -0.00089895 -0.00088901  0.02988526 -0.00084892 -0.00091588 -0.00083245
  -0.00299217 -0.00092541  0.00055035 -0.00228519 -0.00091238 -0.00092295
  -0.00405705 -0.00517337 -0.00084232 -0.00088932 -0.00090749 -0.00087147
   0.00059632 -0.00084976 -0.00815024 -0.00092037 -0.00086146 -0.03567795
  -0.00089151 -0.00091475 -0.00091292 -0.00041375 -0.00091972  0.04919612
  -0.00088158 -0.00088986 -0.00086583 -0.00106889 -0.0009182  -0.00080264
  -0.0008476  -0.00057062 -0.00086958 -0.00087802 -0.0009206   0.00019909
  -0.00088579 -0.00028043 -0.00085439 -0.00090722 -0.00089154  0.00027288
   0.00076202 -0.00084289 -0.00093314 -0.00088915 -0.00091496 -0.00145773
  -0.00090008 -0.02463698  0.0001269  -0.00091983 -0.00133083 -0.00088658
  -0.00088748 -0.00012427 -0.00120351  0.00160165 -0.00088576 -0.00088698
  -0.00307857 -0.00091143 -0.00415164 -0.00087318 -0.00088296 -0.00017553
  -0.00090624 -0.00228047 -0.0009221  -0.00092231 -0.00092235 -0.00091844
  -0.00087893 -0.00090875  0.00832552 -0.00087779 -0.00091377 -0.00349231
  -0.00091776  0.00071109 -0.00035558 -0.00083454 -0.00091895 -0.00088629
  -0.03042779 -0.02601004 -0.00541395 -0.0008535  -0.00437718 -0.00544397
  -0.00145558 -0.00088265 -0.0008823  -0.00088662 -0.00090424 -0.00087508
  -0.00085775 -0.00088817 -0.01169453 -0.00088609 -0.00119776 -0.00091287
  -0.0009015  -0.00085126 -0.00289842 -0.00085915 -0.00091508  0.00100391
  -0.00082755 -0.00091962 -0.00091684  0.03277677 -0.00089156  0.0079528
  -0.00088698 -0.00120122 -0.00273462 -0.0275586  -0.00091136 -0.00089993
  -0.00032873 -0.00089164 -0.00036515  0.00318415 -0.00092105 -0.0013838
  -0.00378869 -0.0001299  -0.00086243 -0.00085307 -0.00085579 -0.02560153
  -0.00144905 -0.00084699 -0.00091249 -0.00088742 -0.00089852  0.05329151
   0.04819156 -0.00088227 -0.00776107 -0.00091651 -0.0009194  -0.00085528
  -0.00086124 -0.02006204 -0.00085337 -0.00091666 -0.00083658 -0.00084564]
 [-0.00543667 -0.00079902 -0.00670544 -0.00077511 -0.0008165  -0.00078691
  -0.00080149  0.03129215 -0.00073497 -0.00077395  0.00284365 -0.00075513
  -0.00076319 -0.00079279 -0.00075647 -0.01248973 -0.00079293 -0.00027181
  -0.00075533 -0.00080018 -0.00073489 -0.00079438 -0.00080048  0.00407318
  -0.00078013 -0.05328707 -0.00089923 -0.00079968  0.01069474 -0.00837404
  -0.00089806 -0.00074219  0.00975746 -0.00079489 -0.0008004  -0.00078412
  -0.00078371 -0.00077792 -0.00676176 -0.00077675 -0.00077102 -0.00077957
   0.00951417 -0.0007602  -0.00077926 -0.0003095   0.00005657 -0.0058598
  -0.00079493 -0.0007982  -0.00150941  0.02729797 -0.00079433 -0.07415032
  -0.00076352 -0.02170819 -0.00077532 -0.00076949 -0.00080014 -0.00075793
  -0.00077264 -0.06022817 -0.00090085 -0.0007999   0.00559161 -0.00906689
   0.00156277 -0.00073774 -0.00077479 -0.00075323 -0.0034102  -0.00077979
  -0.00216218 -0.00074414 -0.00080033 -0.00080044 -0.00076558 -0.00078914
  -0.00122125 -0.00867318 -0.00642361 -0.00079666 -0.00080152 -0.00076995
  -0.00077661  0.00894472 -0.00075479 -0.00078026 -0.0007941   0.01154373
  -0.01297714 -0.01324876 -0.00079523 -0.0007652  -0.00008593 -0.00077808
  -0.00075394 -0.00076181 -0.06578244 -0.00078948 -0.00077826 -0.00080538
  -0.00075691 -0.00020042 -0.00080081  0.00191446 -0.00075979 -0.00078699
  -0.00077125  0.00402554 -0.00080145 -0.00079742 -0.0007348  -0.00078209
  -0.00080063 -0.00366797  0.00182471 -0.00077193 -0.00076188 -0.0007762
  -0.00077173 -0.00074629  0.01188554 -0.00079819 -0.0003809   0.01321157
  -0.00076972  0.01573338 -0.0488844  -0.01171912 -0.00009587  0.00316788
  -0.00080087 -0.0007932  -0.00078136 -0.00076785 -0.00072047 -0.00030393
  -0.00078091 -0.00080996 -0.00237243 -0.00474111 -0.00081456  0.00201863
  -0.00078752 -0.00078088  0.03058563 -0.00075169 -0.00079832 -0.00073747
  -0.00783123 -0.00080398  0.00355456  0.00175258 -0.00079611 -0.00080204
  -0.00653793 -0.009649   -0.00074646 -0.00078109 -0.00078294 -0.00076889
  -0.00340848 -0.00075271 -0.00697547 -0.00080085 -0.00076165 -0.03840161
  -0.00078254 -0.00079724 -0.00079521 -0.00027932 -0.00080055  0.04774936
  -0.00077592 -0.00078145 -0.00076487 -0.00060775 -0.0007997  -0.00067748
  -0.00075085 -0.00307998 -0.00076753 -0.00077343 -0.00079841  0.00059166
  -0.00077875 -0.00016683 -0.00075637 -0.00079285 -0.00078256  0.00076694
   0.00202454 -0.00074703 -0.00080464 -0.00078098 -0.00079775 -0.00094443
  -0.00078817 -0.02766139 -0.00261841 -0.00079896 -0.00089247 -0.00077927
  -0.00077987  0.0090752  -0.00089559 -0.00040269 -0.00077873 -0.00076406
  -0.00283154 -0.00079543 -0.00226855 -0.00077009 -0.00077685 -0.00010637
  -0.00079227 -0.00145934 -0.00080052 -0.00080142 -0.00080117 -0.00079986
  -0.00077408 -0.00078975  0.01711624 -0.0007733  -0.00079695 -0.00619094
  -0.00079947  0.00206514 -0.00015449 -0.00073968 -0.00080005 -0.00077908
  -0.03310245 -0.02866351 -0.00535384 -0.00075558 -0.00958885 -0.00543353
  -0.00094814 -0.00077659 -0.00077641 -0.00076492 -0.00079093 -0.00077131
  -0.00075888 -0.00078033 -0.01638709 -0.00077894 -0.0008964  -0.00079641
  -0.00077618 -0.00075385 -0.0094287  -0.00075992 -0.00079783  0.00714013
  -0.00073346 -0.00080036 -0.00079342  0.03492849 -0.00078257  0.00882937
  -0.00077954 -0.00089427 -0.0092782  -0.03017468 -0.00079548 -0.00077607
  -0.000198   -0.00078263 -0.00024913  0.00936136 -0.00080033 -0.00088335
  -0.00201056 -0.00007291 -0.00076235 -0.00075522 -0.00075741 -0.02817259
  -0.0036702  -0.00075044 -0.00078964 -0.00077983 -0.00077519  0.04796698
   0.04747049 -0.00077637 -0.00646193 -0.00079339 -0.0008004  -0.00075699
  -0.0007615  -0.01084284 -0.00075548 -0.00079873 -0.00074134 -0.00074927]
 [-0.0103713  -0.00031415 -0.0118848  -0.00032682 -0.00029879 -0.00032087
  -0.00030951  0.05546766 -0.00033331 -0.00032734  0.00316942 -0.00028095
  -0.0003314  -0.0003177  -0.00026212 -0.01700398 -0.00031747  0.00003749
  -0.00033315 -0.00031262 -0.00033299 -0.00031676 -0.00031259 -0.00089904
  -0.00032439 -0.05056802 -0.00025638 -0.0003134   0.00021429 -0.01767808
  -0.00025161 -0.00026981  0.01515497 -0.00031707 -0.00031287 -0.00028399
  -0.00032262 -0.00032551 -0.01202623 -0.00032603 -0.00027576 -0.00032468
   0.0156929  -0.00310178 -0.00032483  0.0001534   0.0001934  -0.01250806
  -0.00030688 -0.00031413  0.00218962  0.04979819 -0.00031725 -0.07248628
  -0.00033131 -0.02256946 -0.00027633 -0.00032917 -0.00030589 -0.00033192
  -0.00032791 -0.06667096 -0.00025827 -0.00031305  0.00155775 -0.00759697
   0.00179009 -0.00026724 -0.00032695 -0.00033334  0.01687694 -0.0003246
   0.00383266 -0.00033427 -0.00030912 -0.00031238 -0.00033063 -0.00028941
  -0.00060903 -0.01842964 -0.00363344 -0.00031561 -0.00030887 -0.000329
  -0.00032609  0.01302223 -0.00033332 -0.00032433 -0.00029734  0.01777563
  -0.02511202  0.01271464 -0.00031676 -0.00033009  0.00012052 -0.00032542
  -0.00033334 -0.00033181 -0.07371596 -0.00031962 -0.00032533 -0.00030909
  -0.00033221  0.00031459 -0.00031204  0.01542615 -0.00033213 -0.00032081
  -0.00032839  0.002918   -0.00031129 -0.00031516 -0.00033255 -0.00029172
  -0.0003078   0.00316491 -0.00263884 -0.00027369 -0.00033159 -0.00032626
  -0.00032823 -0.00033375  0.01840401 -0.00031433  0.00002671  0.01607041
  -0.00032906  0.00029148 -0.06189142 -0.0164332   0.00036593 -0.00137226
  -0.00030873 -0.00031741 -0.00032377 -0.00032975 -0.00025461  0.00017293
  -0.000324   -0.00028787 -0.01443089 -0.00653252 -0.00030111  0.00102932
  -0.00032096 -0.00032401  0.0545552  -0.00033308 -0.00031465 -0.00033272
  -0.00745267 -0.00031022 -0.00662507  0.00932189 -0.00031599 -0.00030945
  -0.00365906 -0.0054199  -0.00033386 -0.0003239  -0.00028468 -0.0003294
  -0.00211517 -0.00033378 -0.01295819 -0.0003119  -0.00033181 -0.03645669
  -0.00032315 -0.00031378 -0.00031152  0.00015379 -0.00031254  0.05692149
  -0.00032651 -0.00032372 -0.00033088 -0.00013728 -0.00031347 -0.00021201
  -0.00033368 -0.00036109 -0.00032986 -0.00032747 -0.00030307  0.00010334
  -0.0003251   0.00031831 -0.00033322 -0.00031798 -0.00032314  0.00014703
   0.0011149  -0.00033405 -0.00029927 -0.00032396 -0.00031505 -0.00031927
  -0.00032027 -0.0357931  -0.00000683 -0.00030679 -0.00025093 -0.00032483
  -0.00032453  0.01545576 -0.00025705 -0.00108106 -0.00032511 -0.00027438
   0.01998253 -0.00031611 -0.0055605  -0.00032893 -0.00032605  0.00011779
  -0.00031848  0.02185671 -0.00030638 -0.00030893 -0.00030798 -0.00031343
  -0.00032725 -0.00031547 -0.00241269 -0.0003276  -0.00031537 -0.00341624
  -0.00031382  0.0014331   0.00017028 -0.00033356 -0.00031276 -0.00032493
  -0.03211795 -0.03731489  0.01591419 -0.00033312 -0.00973469  0.01614801
  -0.0003252  -0.00032608 -0.00032627 -0.00029045 -0.00031903 -0.00032819
  -0.00033254 -0.00032429 -0.01711693 -0.00032499 -0.00025786 -0.00031579
  -0.00027777 -0.00033348  0.00952332 -0.00033226 -0.000315    0.00478647
  -0.00033309 -0.00031208 -0.00029603  0.04460446 -0.00032314  0.01100475
  -0.00032469 -0.00025446  0.00934628 -0.02967197 -0.00031636 -0.00028118
   0.00031104 -0.00032313  0.0001006   0.02251192 -0.00030836 -0.00025054
   0.00582005  0.0001237  -0.00033155 -0.00033312 -0.00033293 -0.03650784
   0.00076565 -0.00033392 -0.00029435 -0.00032455 -0.00028182  0.05494403
   0.05697129 -0.00032623 -0.01132838 -0.00029672 -0.00031282 -0.00033295
  -0.00033187 -0.02205323 -0.00033315 -0.00031402 -0.00033339 -0.00033384]
 [-0.00668843 -0.00040094 -0.00948881 -0.00041652 -0.0002634  -0.00040632
  -0.00040701  0.04620143 -0.00045898 -0.00041765  0.00403226 -0.00050163
  -0.00042848 -0.00040225 -0.00043394 -0.01273784 -0.00040143 -0.00095879
  -0.00043712 -0.00040541 -0.00045964 -0.00040105 -0.0004044  -0.00610491
  -0.00041163 -0.05025124  0.00006118 -0.00040442 -0.0013504  -0.01319853
   0.00002031 -0.00050004  0.01416764 -0.0004059  -0.0004036  -0.00041289
  -0.00040951 -0.00041343 -0.00957162 -0.00041539 -0.00043149 -0.00041283
   0.01494079  0.0050803  -0.00041257 -0.00031215  0.00226043 -0.00905658
  -0.00041647 -0.00040744  0.00129719  0.04458524 -0.00040382 -0.0764476
  -0.00042806 -0.02782246 -0.0004265  -0.00042226 -0.00041021 -0.00043691
  -0.00041897 -0.06871067  0.00001425 -0.00040497 -0.00404623 -0.00120127
   0.00348889 -0.0005001  -0.00041706 -0.00043976  0.00804254 -0.00041365
   0.00718447 -0.00044876 -0.00040911 -0.00040524 -0.00042604 -0.000395
  -0.00018859 -0.01372806 -0.00334877 -0.0004009  -0.00040738 -0.00042171
  -0.00041564  0.0119043  -0.00043751 -0.00041168 -0.00041742  0.01658809
  -0.01842679  0.00015147 -0.00040769 -0.00043013 -0.00005937 -0.00041374
  -0.00043869 -0.00042986 -0.07957262 -0.00040504 -0.00041357 -0.00039369
  -0.00043757 -0.00026943 -0.000405    0.0016856  -0.00043268 -0.00040613
  -0.00042107 -0.00480646 -0.00040486 -0.0004008  -0.00046061 -0.00042803
  -0.00040913 -0.00084955 -0.0086928  -0.00042826 -0.00043049 -0.00041813
  -0.00042029 -0.00044753  0.00736353 -0.00040676 -0.00012805  0.01582574
  -0.00042215  0.00174493 -0.05942147 -0.01588186 -0.00013487 -0.00644509
  -0.00040846 -0.00040171 -0.00041066 -0.00042407 -0.00049772 -0.00032823
  -0.00041116 -0.00018482 -0.01654186  0.00176782 -0.00028626  0.00008063
  -0.0004082  -0.00041113  0.04422094 -0.00044262 -0.00040145 -0.00045825
  -0.00279578 -0.00039479 -0.00951147  0.00826278 -0.00040145 -0.00040607
  -0.00298946 -0.00502459 -0.00044707 -0.00041081 -0.00041695 -0.00042283
   0.00001924 -0.00043936 -0.01001689 -0.00040522 -0.00043016 -0.03618804
  -0.00040966 -0.00041072 -0.0004155  -0.00027062 -0.00040432  0.04671304
  -0.00041506 -0.00041071 -0.00042667 -0.00093483 -0.00040385 -0.00047764
  -0.00044213  0.00114817 -0.00042443 -0.00041913 -0.00041262 -0.00064481
  -0.00041267 -0.00032081 -0.00043529 -0.00040379 -0.00040958 -0.0006669
   0.00018102 -0.00044599 -0.00034592 -0.00041088 -0.00040182  0.00026574
  -0.0004058  -0.04618824 -0.00110559 -0.00041157  0.00013102 -0.00041262
  -0.00041194  0.00253055 -0.00014407  0.00035828 -0.00041275 -0.00043378
   0.01157777 -0.00040025 -0.00307916 -0.0004217  -0.00041426 -0.00007801
  -0.00040526  0.01328515 -0.00040963 -0.0004075  -0.0004083  -0.00040315
  -0.00041788 -0.00050017  0.0005275  -0.00041853 -0.00040043 -0.00321101
  -0.0004023   0.0005754  -0.00076661 -0.00045458 -0.00040542 -0.0004124
  -0.03222005 -0.03007993  0.01003278 -0.00043681 -0.00380359  0.01012941
   0.00025309 -0.00041746 -0.00041459 -0.00050252 -0.00040501 -0.00042307
  -0.000433   -0.00041147 -0.01715968 -0.00041289 -0.00015907 -0.00040127
  -0.00042615 -0.00043849  0.00288224 -0.00043201 -0.00040177 -0.00201305
  -0.00046051 -0.0004062  -0.00041806  0.03674558 -0.00040969  0.01070997
  -0.00041263 -0.00014512  0.00294622 -0.0295604  -0.00040908 -0.00042993
  -0.00027705 -0.00040997 -0.00021569  0.01200938 -0.00040939  0.0002496
   0.00526438 -0.00002819 -0.00042966 -0.00043737 -0.00043437 -0.02940487
  -0.00095778 -0.0004421  -0.00042166 -0.00041187 -0.00043079  0.04250637
   0.04721712 -0.0004155  -0.00915844 -0.00041813 -0.00040381 -0.00043504
  -0.00043027 -0.01960277 -0.00043689 -0.00040583 -0.00045343 -0.00044378]
 [-0.00903584 -0.00069076 -0.01024179 -0.00071597 -0.0006024  -0.00070196
  -0.00068945  0.03188822 -0.00076029 -0.00071739  0.00667968 -0.00073395
  -0.00073038 -0.00069563 -0.00065469 -0.01352632 -0.00069484 -0.0011833
  -0.00073957 -0.00069196 -0.00076053 -0.00069378 -0.00069127 -0.00864843
  -0.00070968 -0.0583107  -0.00049459 -0.00069218 -0.00249987 -0.01219709
  -0.00050004 -0.00072135  0.0161528  -0.00069728 -0.00069105 -0.00066529
  -0.00070614 -0.00071224 -0.01033565 -0.00071423 -0.00066817 -0.00071084
   0.01762824 -0.00111476 -0.00071084 -0.00010551  0.00319154 -0.01028606
  -0.00069267 -0.000695   -0.00689095  0.03398501 -0.00069612 -0.08950365
  -0.00072994 -0.0200408  -0.0006654  -0.00072294 -0.00068734 -0.00073786
  -0.00071902 -0.06644809 -0.00050993 -0.00069216 -0.00957985  0.00356643
   0.00463633 -0.00071921 -0.00071649 -0.00074206 -0.00056887 -0.00071131
   0.00862725 -0.00075137 -0.00069036 -0.00069157 -0.00072755 -0.00066118
  -0.00091606 -0.0123479  -0.00637612 -0.00069237 -0.00068896 -0.00072233
  -0.00071448  0.01362747 -0.0007401  -0.00070964 -0.0006824   0.01900098
  -0.01481061 -0.00848904 -0.00069813 -0.00073008  0.00014663 -0.00071234
  -0.00074115 -0.00073197 -0.07744321 -0.00069966 -0.00071211 -0.00068053
  -0.00073878  0.00008157 -0.00069103  0.00451527 -0.00073463 -0.00070177
  -0.00072113 -0.00856229 -0.00069009 -0.0006918  -0.00076093 -0.0006837
  -0.00068885 -0.00340065 -0.00858931 -0.00066366 -0.00073221 -0.00071643
  -0.00072037 -0.00074956 -0.00294958 -0.00069478 -0.00009026  0.01992763
  -0.00072273  0.0024329  -0.04461328 -0.01968339  0.00033    -0.01104186
  -0.00068949 -0.00069495 -0.00070827 -0.000725   -0.00070514 -0.00012283
  -0.00070888 -0.0005587  -0.01281223 -0.00245178 -0.00061518  0.00085808
  -0.00070328 -0.00070888  0.02896874 -0.00074425 -0.00069165 -0.00075866
   0.00171059 -0.00068248 -0.00714065 -0.00051079 -0.00069315 -0.00068878
  -0.00619429 -0.00823799 -0.00074928 -0.00070854 -0.00066857 -0.00072365
   0.00405721 -0.00074225 -0.01088447 -0.00069102 -0.00073222 -0.04544092
  -0.00070687 -0.00069679 -0.00069741 -0.00004396 -0.00069116  0.04135171
  -0.00071455 -0.00070826 -0.00072835 -0.00145515 -0.0006919  -0.00064132
  -0.00074457 -0.00199139 -0.00072541 -0.00071862 -0.00068567  0.00025106
  -0.00071122  0.00007083 -0.00073811 -0.00069693 -0.00070681  0.00028121
   0.00091138 -0.00074852 -0.00064356 -0.00070865 -0.00069234 -0.00050586
  -0.00070092 -0.04251429 -0.00219388 -0.00068927 -0.00047023 -0.00071087
  -0.00071004 -0.00960446 -0.00055005  0.00369618 -0.00071128 -0.00066885
   0.00104098 -0.00069254 -0.00446584 -0.00072223 -0.00071345  0.00013167
  -0.00069847  0.00187134 -0.00068753 -0.0006891  -0.00068852 -0.00069139
  -0.00071744 -0.00076842  0.00477555 -0.00071833 -0.0006918  -0.00595855
  -0.00069127  0.00122465 -0.00056125 -0.0007561  -0.00069212 -0.00071083
  -0.0406994  -0.03182119 -0.00047011 -0.00073928  0.00111325 -0.00049124
  -0.00051583 -0.00071574 -0.00071394 -0.00074457 -0.00069894 -0.00072236
  -0.0007354  -0.00070945 -0.02537054 -0.00071124 -0.00055431 -0.00069281
  -0.00066681 -0.00074114 -0.00047132 -0.00073424 -0.00069224 -0.00190217
  -0.00076162 -0.00069186 -0.00068136  0.03945514 -0.00070688  0.01354861
  -0.00071071 -0.00054712 -0.00051793 -0.0380288  -0.00069863 -0.00067314
   0.00007034 -0.00070706  0.000016    0.0199303  -0.00068967 -0.00044298
  -0.00426995  0.00015653 -0.00073151 -0.00073975 -0.000737   -0.03095561
  -0.0060432  -0.00074484 -0.000682   -0.00071003 -0.00067454  0.03429723
   0.04255307 -0.00071453 -0.00985735 -0.00068219 -0.00069114 -0.00073758
  -0.00073237 -0.00787891 -0.00073938 -0.00069382 -0.00075472 -0.00074624]
 [-0.01170518 -0.00075164 -0.01286114 -0.00073261 -0.00075357 -0.00074137
  -0.00075525  0.02721568 -0.00070728 -0.0007318   0.00456814 -0.00073208
  -0.00072453 -0.00074606 -0.00072319 -0.01139133 -0.00074608 -0.00060574
  -0.00071958 -0.00075352 -0.00070735 -0.00074735 -0.00075363 -0.01106601
  -0.00073619 -0.05372819 -0.00092641 -0.00075285 -0.00410908 -0.01495599
  -0.00092017 -0.0007207   0.01747605 -0.00074851 -0.00075341 -0.00074328
  -0.00073901 -0.00073455 -0.01297441 -0.00073385 -0.00073488 -0.00073589
   0.01942688  0.01031585 -0.00073558 -0.00029867 -0.00007547 -0.01353815
  -0.00075114 -0.00075194 -0.01142135  0.03711732 -0.00074768 -0.08360119
  -0.00072474 -0.03054786 -0.00073813 -0.00072877 -0.00075491 -0.00072169
  -0.00073089 -0.06180713 -0.00092138 -0.00075316 -0.01521426  0.0069059
   0.0009604  -0.00071689 -0.00073243 -0.00071835  0.01114058 -0.00073622
   0.0112173  -0.00071266 -0.00075458 -0.00075375 -0.00072611 -0.00074454
  -0.00115874 -0.01499756 -0.00534778 -0.00074942 -0.00075539 -0.00072906
  -0.00073377  0.01475163 -0.00071921 -0.00073631 -0.00075152  0.02028173
  -0.01595679 -0.00942606 -0.00074912 -0.00072652 -0.00021471 -0.00073473
  -0.00071873 -0.00072363 -0.07335558 -0.00074347 -0.00073486 -0.00075675
  -0.00072097 -0.00021857 -0.00075407  0.00334046 -0.00072246 -0.00074141
  -0.00073007 -0.01049274 -0.0007547  -0.00075012 -0.00070745 -0.00074292
  -0.00075499 -0.00041208 -0.00924539 -0.00073553 -0.0007238  -0.00073382
  -0.00073034 -0.00071416 -0.00127099 -0.0007518  -0.00040709  0.01391105
  -0.00072894  0.00040149 -0.03461626 -0.01025027 -0.00007104 -0.01492951
  -0.000755   -0.00074637 -0.00073712 -0.00072769 -0.0007016  -0.00030068
  -0.0007368  -0.00074591 -0.01028815  0.00832576 -0.00075317  0.00056349
  -0.00074218 -0.00073677  0.02306616 -0.00071762 -0.00075106 -0.00070913
   0.00509606 -0.00075554 -0.00726743 -0.00739702 -0.00074899 -0.0007556
  -0.00585817 -0.00894625 -0.00071422 -0.0007369  -0.0007428  -0.00072836
   0.00710911 -0.00071785 -0.01369395 -0.00075416 -0.00072355 -0.04246223
  -0.000738   -0.00075164 -0.0007508  -0.00026451 -0.00075369  0.04360584
  -0.00073307 -0.00073721 -0.00072562 -0.00086611 -0.00075277 -0.00066086
  -0.00071685  0.00566714 -0.00072748 -0.0007316  -0.00075404  0.00027042
  -0.00073515 -0.00022613 -0.0007201  -0.00074633 -0.000738    0.00023997
   0.00066015 -0.00071447 -0.0007507  -0.00073682 -0.00075058 -0.00099501
  -0.00074242 -0.05403624  0.0037153  -0.00075398 -0.00093238 -0.0007356
  -0.00073602 -0.00746877 -0.00090026  0.00288012 -0.00073514 -0.00072918
  -0.00104493 -0.0007482  -0.00651964 -0.00072918 -0.00073375 -0.00022782
  -0.00074601 -0.00079994 -0.00075511 -0.00075533 -0.00075533 -0.0007528
  -0.00073195 -0.00076119  0.00495827 -0.00073139 -0.00074963 -0.00502511
  -0.00075229  0.00110826 -0.00037777 -0.00071019 -0.00075339 -0.0007354
  -0.03844235 -0.03071547 -0.00257063 -0.00071973  0.00419836 -0.00267839
  -0.00099438 -0.00073405 -0.00073342 -0.0007406  -0.00074477 -0.00073046
  -0.00072176 -0.00073634 -0.02357932 -0.00073535 -0.00089913 -0.00074925
  -0.00073873 -0.00071861  0.00320477 -0.00072244 -0.00075064 -0.00112774
  -0.00070638 -0.00075385 -0.00075115  0.04072831 -0.00073804  0.01048254
  -0.00073583 -0.00089884  0.00318583 -0.03548453 -0.00074959 -0.00073873
  -0.00022205 -0.00073813 -0.00026527  0.02544327 -0.0007547  -0.00094774
  -0.01033754 -0.00021589 -0.00072404 -0.00071953 -0.00072079 -0.02979405
   0.00299657 -0.00071651 -0.00074846 -0.00073597 -0.00073801  0.03418473
   0.04525147 -0.00073353 -0.01241102 -0.00075105 -0.00075344 -0.00072057
  -0.00072344 -0.00316074 -0.00071966 -0.00075216 -0.0007113  -0.00071587]
 [-0.01444046 -0.00007201 -0.01575225 -0.00011501 -0.00002322 -0.00009336
  -0.00006377  0.04593108 -0.00017477 -0.00011709  0.00394977 -0.00009329
  -0.00013577 -0.00008277 -0.00002508 -0.01608346 -0.0000821  -0.00032297
  -0.00014813 -0.00006961 -0.00017459 -0.00007976 -0.00006912  0.00718336
  -0.00010573 -0.04441183 -0.00000728 -0.00007104  0.01069189 -0.01883697
   0.00001029 -0.00008585  0.01151384 -0.00008099 -0.00006945 -0.00003497
  -0.00009948 -0.00010978 -0.01586105 -0.00011209 -0.00003612 -0.00010696
   0.01338737  0.01321422 -0.00010738  0.00031593  0.00362132 -0.01581513
  -0.00006621 -0.00007403  0.00456697  0.05882168 -0.00008122 -0.07616898
  -0.00013522 -0.03665832 -0.00003235 -0.00012501 -0.00005927 -0.00014382
  -0.00011946 -0.06176038  0.00000289 -0.00007043 -0.00294089 -0.00400826
   0.00387039 -0.00008579 -0.0001156  -0.00015117  0.03519087 -0.00010685
  -0.00099003 -0.00016397 -0.0000644  -0.00006897 -0.00013176 -0.00003762
  -0.00024841 -0.01915132  0.00327634 -0.00007614 -0.00006276 -0.00012421
  -0.00011236  0.00882217 -0.000149   -0.00010554 -0.00005093  0.01483282
  -0.0229532  -0.00491475 -0.00008064 -0.00013246  0.00021969 -0.00010958
  -0.00015019 -0.00013804 -0.07548544 -0.00008905 -0.00010925 -0.0000576
  -0.00014538  0.00042367 -0.00006808  0.00867652 -0.00014117 -0.00009316
  -0.00012196  0.00433183 -0.00006633 -0.00007482 -0.00017437 -0.00005344
  -0.00006195 -0.00730437 -0.00041894 -0.000031   -0.00013781 -0.00011363
  -0.00012109 -0.00016075  0.00237799 -0.00007422  0.00024094  0.01120951
  -0.00012463  0.01286464 -0.03710841 -0.00677016  0.00059366 -0.00042012
  -0.00006321 -0.00008186 -0.00010349 -0.00012785 -0.00007952  0.00030072
  -0.00010435 -0.0000109  -0.01068036  0.01455237 -0.00002882 -0.00077366
  -0.00009349 -0.00010439  0.04081691 -0.0001531  -0.00007346 -0.00017121
  -0.00432989 -0.00006068 -0.00151615  0.00073834 -0.00007729 -0.00006308
   0.00378586  0.00140322 -0.00016061 -0.00010397 -0.00003791 -0.00012606
  -0.00053653 -0.00015219 -0.01648075 -0.00006787 -0.00013827 -0.03083435
  -0.00010131 -0.00007492 -0.00007372  0.00033964 -0.00006896  0.05044162
  -0.00011344 -0.00010336 -0.00013296 -0.00049938 -0.00007102 -0.00003378
  -0.00015464  0.00620522 -0.00012841 -0.00011814 -0.00005627  0.00056442
  -0.00010826  0.00038418 -0.00014674 -0.00008351 -0.00010126  0.0004963
  -0.0009731  -0.00016001 -0.00003684 -0.00010417 -0.00007461 -0.00010827
  -0.00009129 -0.06673444  0.00365283 -0.00006196 -0.00002123 -0.00010738
  -0.00010623 -0.00338232  0.00004537  0.00209495 -0.0001083  -0.00004002
   0.00250304 -0.00007775 -0.01069119 -0.00012397 -0.00011174  0.00024067
  -0.00008512  0.00360644 -0.00005971 -0.00006294 -0.00006168 -0.00007068
  -0.00011689 -0.00011793  0.01027007 -0.00011828 -0.00007544  0.00357206
  -0.00007143 -0.00150236  0.00003945 -0.00016909 -0.00006993 -0.00010764
  -0.0279926  -0.03139305 -0.00563676 -0.00014777 -0.0054978  -0.00535107
  -0.00011342 -0.00011284 -0.00011254 -0.00010055 -0.00008696 -0.00012216
  -0.00014273 -0.00010538 -0.01903695 -0.00010797  0.00004901 -0.0000767
  -0.00003402 -0.00015042 -0.00887659 -0.00014105 -0.00007446 -0.00759355
  -0.00017645 -0.00006875 -0.00004939  0.04116192 -0.00010127  0.0083909
  -0.00010695  0.00004903 -0.00885688 -0.02480902 -0.00008014 -0.0000409
   0.00040902 -0.00010128  0.00033553  0.02575866 -0.00006318 -0.00005602
  -0.00055806  0.00019815 -0.0001371  -0.00014828 -0.00014507 -0.03079445
  -0.00309574 -0.00015537 -0.00005035 -0.00010629 -0.00004292  0.04172351
   0.0518737  -0.00011274 -0.01531507 -0.0000506  -0.00006943 -0.00014568
  -0.00013853 -0.00552228 -0.00014793 -0.00007309 -0.00016686 -0.00015688]
 [-0.00968844 -0.00018798 -0.01294259 -0.0001874  -0.00021285 -0.0001879
  -0.00018574  0.05766454 -0.00018327 -0.00018734 -0.0028688  -0.00015711
  -0.0001867  -0.00018814 -0.00015587 -0.01220626 -0.00018819 -0.00024443
  -0.00018596 -0.00018692 -0.00018309 -0.0001882  -0.00018712  0.01137495
  -0.00018765 -0.03476592 -0.00038486 -0.00018728  0.00961281 -0.01751572
  -0.0003669  -0.00015076  0.01009515 -0.00018769 -0.00018733 -0.00017251
  -0.00018771 -0.00018759 -0.01303902 -0.00018742 -0.00016406 -0.00018755
   0.01005486  0.00447501 -0.0001876   0.00009216 -0.004643   -0.01248074
  -0.00018229 -0.00018687  0.01174198  0.07304095 -0.00018798 -0.06617948
  -0.00018673 -0.04722412 -0.00016573 -0.00018706 -0.00018369 -0.00018567
  -0.00018726 -0.05794397 -0.00036848 -0.00018711  0.00176365 -0.00759717
  -0.00438869 -0.0001492  -0.00018735 -0.00018566  0.05927705 -0.00018744
  -0.00317666 -0.00018477 -0.00018508 -0.0001869  -0.00018685 -0.00017846
  -0.00049144 -0.01814546 -0.00138576 -0.00018815 -0.00018545 -0.0001871
  -0.00018739  0.00823872 -0.00018595 -0.00018764 -0.00017838  0.01216386
  -0.024648    0.00329592 -0.00018737 -0.0001862   0.0000041  -0.00018753
  -0.0001858  -0.0001866  -0.07245996 -0.00018797 -0.00018754 -0.00018836
  -0.00018565  0.00012684 -0.00018687  0.00245397 -0.00018629 -0.00018791
  -0.00018707  0.01039721 -0.00018672 -0.00018812 -0.00018284 -0.00017269
  -0.00018464 -0.00880751 -0.00165492 -0.00016385 -0.00018646 -0.00018712
  -0.00018714 -0.00018477  0.01007863 -0.00018705 -0.00007023  0.00335093
  -0.00018705  0.00840138 -0.03263849  0.00309968  0.00021202  0.00329929
  -0.00018513 -0.00018817 -0.00018769 -0.00018693 -0.00014187  0.00008803
  -0.00018766 -0.00022682 -0.01620963  0.00924369 -0.0002081  -0.00053422
  -0.00018777 -0.00018767  0.05196318 -0.00018521 -0.00018798 -0.00018316
  -0.00795514 -0.00018835 -0.00361338 -0.0015154  -0.00018813 -0.00018595
  -0.00150668 -0.00383069 -0.00018486 -0.00018769 -0.00017186 -0.00018703
  -0.00445835 -0.00018583 -0.0135402  -0.00018679 -0.00018656 -0.02133617
  -0.00018774 -0.00018611 -0.00018425  0.00010114 -0.00018712  0.05431378
  -0.00018754 -0.00018768 -0.00018683 -0.00027758 -0.0001874  -0.00011801
  -0.00018544  0.00400299 -0.00018691 -0.00018716 -0.00018199  0.00040526
  -0.00018763  0.00008334 -0.00018623 -0.00018803 -0.00018774  0.00035703
  -0.00063765 -0.00018505 -0.00019359 -0.00018769 -0.00018798 -0.00048966
  -0.00018792 -0.07800473  0.00181749 -0.00018362 -0.00040763 -0.00018759
  -0.00018763  0.0038645  -0.00030638 -0.0047597  -0.00018761 -0.00016208
   0.00939845 -0.00018824 -0.0053014  -0.00018709 -0.00018757  0.00000298
  -0.00018792  0.01130161 -0.00018402 -0.00018544 -0.00018492 -0.00018752
  -0.00018729 -0.00017654  0.00274699 -0.00018727 -0.00018818 -0.00120158
  -0.00018773 -0.00091927 -0.00010801 -0.00018385 -0.00018696 -0.00018763
  -0.02011258 -0.03096049  0.00141257 -0.00018599 -0.0091867   0.00180198
  -0.00048871 -0.00018718 -0.00018756 -0.00016246 -0.00018797 -0.00018678
  -0.00018636 -0.00018766 -0.01184913 -0.00018758 -0.00030071 -0.00018813
  -0.0001665  -0.00018586 -0.00942658 -0.00018642 -0.00018798 -0.00080687
  -0.00018303 -0.00018663 -0.00017767  0.04301513 -0.00018773  0.00227765
  -0.00018757 -0.00030438 -0.00936074 -0.01721165 -0.00018706 -0.00016726
   0.00011743 -0.0001877   0.00005829  0.0241892  -0.00018476 -0.00045057
  -0.00371342 -0.00000102 -0.00018657 -0.00018592 -0.00018627 -0.03013126
  -0.00806584 -0.00018551 -0.00017586 -0.00018765 -0.00016725  0.04541152
   0.05566794 -0.00018743 -0.01255504 -0.00017792 -0.00018728 -0.00018618
  -0.00018656 -0.00772638 -0.00018599 -0.00018715 -0.00018394 -0.00018527]
 [-0.00929612  0.00011306 -0.01085347  0.00009935  0.00011104  0.00010572
   0.00011738  0.03816964  0.00008572  0.00009877  0.00643219  0.00013142
   0.00009378  0.00010906  0.00013543 -0.01126747  0.00010915  0.00026823
   0.00009087  0.00011491  0.00008596  0.00011     0.0001149  -0.00465151
   0.00010196 -0.05230103  0.00006299  0.00011416 -0.00116509 -0.01560318
   0.00007511  0.00013419  0.01843872  0.00011058  0.00011461  0.00012766
   0.00010398  0.00010075 -0.01097422  0.00010026  0.00013121  0.00010173
   0.02037488  0.00853201  0.00010151  0.00028001  0.00387332 -0.01145454
   0.00011796  0.00011362 -0.00793197  0.05626843  0.00011003 -0.07830943
   0.00009391 -0.05638064  0.00013164  0.00009665  0.00011947  0.00009251
   0.00009812 -0.05941976  0.00007189  0.00011451 -0.01309328  0.00476575
   0.00464599  0.00013436  0.00009923  0.00009028  0.0433257   0.00010195
   0.00801375  0.0000874   0.00011749  0.00011512  0.00009482  0.00012333
  -0.00001009 -0.01607688 -0.00161472  0.00011142  0.00011781  0.00009685
   0.0001002   0.01526271  0.00009062  0.00010204  0.00012355  0.02178602
  -0.019925   -0.00365672  0.0001111   0.00009545  0.00012989  0.00010089
   0.00009042  0.0000932  -0.06859497  0.00010716  0.00010099  0.00011718
   0.00009205  0.00031798  0.00011541  0.00555569  0.00009259  0.00010576
   0.00009759 -0.00554485  0.00011604  0.00011192  0.0000863   0.00012446
   0.00011837 -0.00430841 -0.00800825  0.00013243  0.00009342  0.00010024
   0.00009777  0.00008836 -0.00387181  0.00011341  0.00014689  0.01613075
   0.00009678 -0.00117911 -0.02994967 -0.00957241  0.00031188 -0.01019184
   0.00011781  0.00010931  0.00010264  0.00009593  0.00013661  0.00028912
   0.0001024   0.00010765 -0.01479754  0.01076475  0.00011152  0.00104924
   0.00010609  0.00010238  0.03204531  0.00009019  0.0001126   0.00008692
   0.00293542  0.00011621 -0.00791801 -0.00520132  0.00011108  0.00011747
  -0.00181309 -0.00666873  0.0000883   0.00010248  0.0001275   0.00009636
   0.00563465  0.00008979 -0.01175725  0.00011553  0.00009317 -0.04079861
   0.00010328  0.00011391  0.00011516  0.00026465  0.00011494  0.0516548
   0.00009965  0.0001027   0.00009449  0.00024786  0.00011405  0.00014868
   0.00008947  0.00532573  0.00009578  0.00009867  0.00012089  0.00054165
   0.00010119  0.00030373  0.000091    0.00010911  0.00010329  0.00056241
   0.00112002  0.00008828  0.00011607  0.00010242  0.00011222 -0.00000162
   0.00010643 -0.07214713  0.00314023  0.00011872  0.0000506   0.00010152
   0.00010183 -0.01348269  0.0001083   0.00411391  0.00010119  0.0001302
  -0.00035126  0.00011063 -0.00523567  0.00009694  0.00010016  0.00013811
   0.0001088  -0.00018713  0.00011923  0.00011776  0.00011834  0.00011404
   0.0000989   0.00012076 -0.00353312  0.00009849  0.00011159 -0.00157963
   0.00011358  0.00151278  0.00029587  0.00008682  0.00011478  0.00010137
  -0.03838084 -0.03231228 -0.00597939  0.00009094  0.00224513 -0.0058883
  -0.0000033   0.0001004   0.00009991  0.00012863  0.000108    0.00009795
   0.00009206  0.00010207 -0.02864813  0.00010134  0.00011193  0.00011127
   0.00013097  0.00009029 -0.00073686  0.00009249  0.00011227 -0.00886583
   0.00008546  0.00011539  0.00012421  0.04422171  0.00010331  0.01260083
   0.00010169  0.00011012 -0.0007127  -0.03529073  0.00011159  0.00012926
   0.00031423  0.00010336  0.0002106   0.03215476  0.00011797  0.00002423
  -0.00761548  0.00012212  0.00009352  0.00009087  0.00009145 -0.03114296
  -0.00056206  0.00008918  0.00012447  0.00010179  0.00012869  0.0441698
   0.05283692  0.00010002 -0.01038083  0.00012379  0.00011466  0.00009136
   0.00009309 -0.01057291  0.0000909   0.00011365  0.0000874   0.00008898]
 [-0.00972793  0.00001049 -0.00971448 -0.00002217  0.00004661 -0.0000057
   0.00001627  0.02490627 -0.00006892 -0.00002376 -0.00198792 -0.00001214
  -0.00003805  0.00000237  0.00004145 -0.00978511  0.0000029  -0.00022455
  -0.00004764  0.00001207 -0.00006887  0.00000467  0.0000125  -0.00163422
  -0.00001509 -0.03159246  0.00010835  0.00001107 -0.00438444 -0.0134375
   0.00011842 -0.00000691  0.00824797  0.00000357  0.00001229  0.00003657
  -0.00001038 -0.00001816 -0.00980841 -0.00001996  0.00003404 -0.00001606
   0.00934137  0.01334513 -0.00001636  0.00022837 -0.005303   -0.01068842
   0.0000136   0.00000867 -0.00835452  0.04509192  0.00000347 -0.04724437
  -0.00003762 -0.05538754  0.00003744 -0.00002982  0.00001927 -0.00004452
  -0.00002556 -0.03685564  0.00011318  0.00001149 -0.00500564 -0.00262917
  -0.0046476  -0.00000709 -0.00002263 -0.00005005  0.04744351 -0.00001602
  -0.00006393 -0.00006008  0.00001563  0.00001256 -0.00003497  0.00003574
  -0.00009667 -0.01378594  0.00047319  0.0000074   0.00001698 -0.0000292
  -0.00002018  0.00640666 -0.00004831 -0.00001496  0.00002474  0.01060714
  -0.01703039  0.00191334  0.00000375 -0.00003577  0.00017506 -0.00001803
  -0.00004926 -0.00003979 -0.04204338 -0.00000243 -0.00001778  0.00002161
  -0.0000457   0.00028171  0.00001323  0.00359806 -0.00004227 -0.00000554
  -0.00002751 -0.00108643  0.00001454  0.00000839 -0.00006882  0.00002182
   0.00001742 -0.00146741 -0.0026268   0.00003819 -0.00003968 -0.00002125
  -0.00002684 -0.00005765  0.00244939  0.00000857  0.00021584  0.00098602
  -0.00002953 -0.00712687 -0.01046441  0.00698826  0.00041081 -0.00276971
   0.00001655  0.00000307 -0.00001339 -0.000032   -0.00000298  0.00021186
  -0.00001405  0.00005553 -0.00767982  0.01187024  0.00004258 -0.00023333
  -0.00000587 -0.00001408  0.01955352 -0.0000517   0.00000939 -0.00006629
  -0.00327862  0.00001925 -0.00389343 -0.00984386  0.00000651  0.00001685
  -0.00006478 -0.00578509 -0.0000575  -0.00001375  0.0000341  -0.00003062
  -0.00127741 -0.00005076 -0.0104765   0.00001338 -0.00003998 -0.01981121
  -0.00001174  0.0000078   0.00000825  0.00025246  0.00001262  0.04496278
  -0.00002094 -0.0000133  -0.00003589 -0.00036488  0.00001111  0.00003163
  -0.00005276  0.00909651 -0.00003243 -0.00002461  0.00002124  0.00045889
  -0.000017    0.00024298 -0.0000465   0.00000176 -0.00001169  0.00045148
  -0.00037857 -0.00005697  0.0000371  -0.0000139   0.00000851  0.00005037
  -0.00000414 -0.05741305  0.00762885  0.00001718  0.00010274 -0.00001636
  -0.00001548 -0.00273033  0.00013673 -0.00282921 -0.00001704  0.00003082
   0.00212708  0.0000062  -0.0067811  -0.00002902 -0.00001964  0.00020096
   0.0000005   0.00182574  0.000019    0.00001684  0.00001769  0.00001139
  -0.00002362 -0.00002949 -0.00676814 -0.00002468  0.00000794  0.00051143
   0.00001088 -0.00075629  0.00002813 -0.00006436  0.00001183 -0.00001653
  -0.01865153 -0.02492648 -0.00072351 -0.00004736 -0.00376492 -0.0007439
   0.00004559 -0.00002063 -0.00002025 -0.00001733 -0.00000087 -0.00002779
  -0.00004342 -0.00001482 -0.01124934 -0.00001681  0.00013869  0.00000696
   0.00003627 -0.00004941  0.00536943 -0.00004214  0.00000862  0.00414984
  -0.00007029  0.00001266  0.00002581  0.03552375 -0.00001171  0.0015801
  -0.00001604  0.00013906  0.00524217 -0.01550502  0.00000405  0.00003078
   0.00026975 -0.00001173  0.00027441  0.02469391  0.00001649  0.00008682
  -0.01272754  0.00015196 -0.0000391  -0.00004777 -0.00004522 -0.02411867
   0.00523235 -0.00005328  0.00002476 -0.00001552  0.00002919  0.03952062
   0.04571363 -0.00002045 -0.00935083  0.00002491  0.0000123  -0.00004571
  -0.00004018 -0.00497857 -0.00004748  0.00000946 -0.00006263 -0.00005452]
 [-0.0048071   0.00013375 -0.00596123  0.00008875  0.00030112  0.00011398
   0.00013023  0.01462062 -0.00000586  0.00008613  0.00192606 -0.00001491
   0.00006137  0.0001253   0.00006568 -0.0041909   0.00012646 -0.00091155
   0.00004247  0.00012997 -0.0000067   0.0001285   0.00013146  0.00616352
   0.00010015 -0.02108377  0.00066193  0.00013047 -0.00155545 -0.00783884
   0.00063158 -0.00002381  0.007464    0.00012316  0.00013226  0.00011491
   0.00010664  0.00009555 -0.00600664  0.00009193  0.0000802   0.00009809
   0.00838363 -0.00419898  0.00009806 -0.00020412  0.00076666 -0.00565054
   0.00011375  0.00012525 -0.00230163  0.03939951  0.00012504 -0.03151459
   0.00006223 -0.07304697  0.0000905   0.00007573  0.00012641  0.00004564
   0.00008311 -0.02991264  0.00062616  0.00013011  0.00127162 -0.00475021
   0.00073412 -0.00002821  0.00008777  0.00003704  0.0537275   0.00009737
  -0.00383799  0.00001635  0.00012679  0.00013048  0.00006691  0.00013843
   0.00057752 -0.00805071 -0.0024193   0.00013116  0.00013001  0.00007689
   0.00009147  0.00611014  0.00004141  0.00010023  0.00011472  0.0097416
  -0.01059863 -0.00205971  0.00012144  0.00006169  0.0001015   0.00009537
   0.00003908  0.0000582  -0.03222674  0.00011831  0.00009577  0.00014968
   0.00004374 -0.0002721   0.00013121 -0.00517079  0.00005267  0.0001143
   0.0000791   0.00923695  0.0001322   0.00013213 -0.00000796  0.00009146
   0.00012749 -0.01896108  0.00307803  0.00008554  0.00005756  0.00008807
   0.00008055  0.0000202   0.00407175  0.000126    0.00020589  0.00193574
   0.00007611 -0.00642021 -0.00714021  0.00506688 -0.00010999  0.00442266
   0.00012819  0.00012642  0.00010266  0.00007176 -0.00004145 -0.00025175
   0.00010158  0.00037614 -0.00296959 -0.00007427  0.0002754   0.0000592
   0.00011233  0.00010158  0.00824569  0.00003198  0.00013235 -0.0000022
  -0.00326757  0.00014676  0.00060804 -0.01106043  0.00012988  0.00013187
  -0.00286577 -0.00701586  0.00002094  0.00010219  0.0001084   0.00007438
  -0.00044964  0.00003692 -0.00622566  0.00013103  0.00005768 -0.01071575
   0.00010517  0.00012052  0.00011359 -0.00013929  0.00013163  0.03530193
   0.00009139  0.00010271  0.00006537 -0.00082631  0.00013114 -0.0000564
   0.00003161  0.00011831  0.00007099  0.00008382  0.0001229   0.00019482
   0.00009738 -0.00031704  0.00004575  0.00012347  0.00010528  0.00021333
   0.00004503  0.00002282  0.00020415  0.00010198  0.00013127  0.00083016
   0.00011597 -0.06057709  0.00006576  0.0001234   0.00071277  0.00009802
   0.00009949  0.00529438  0.00049693  0.00147062  0.00009726  0.00007031
  -0.00635844  0.0001306  -0.00231396  0.00007706  0.00009337  0.0001086
   0.00012104 -0.00665857  0.00012729  0.00012977  0.00012891  0.00013213
   0.00008602  0.00001212 -0.00901859  0.00008438  0.00013206 -0.00248361
   0.00013267  0.00015122 -0.00062987  0.00000457  0.0001298   0.00009807
  -0.01156245 -0.01514062 -0.01429236  0.0000431  -0.00423063 -0.01382243
   0.0008194   0.0000893   0.00009249 -0.00000855  0.00011991  0.0000768
   0.00005125  0.00010056 -0.00718832  0.00009734  0.00048444  0.00013044
   0.00009143  0.00003921 -0.01104683  0.00005358  0.00013141 -0.00343625
  -0.00000933  0.00012935  0.00011366  0.02405161  0.00010516  0.00415293
   0.0000983   0.00049579 -0.01120468 -0.00947494  0.0001201   0.00008584
  -0.00027993  0.0001049   0.00002883  0.01061644  0.00012671  0.00079597
  -0.01253901  0.00011133  0.00005904  0.00004206  0.000048   -0.01467069
  -0.00950491  0.00003117  0.00010605  0.00009953  0.0000837   0.03279284
   0.03556718  0.00009137 -0.00578578  0.00011335  0.00013202  0.00004674
   0.00005738 -0.0130789   0.00004289  0.00012771  0.00000778  0.00002791]
 [-0.00927628  0.00031741 -0.00945057  0.00027555  0.00035691  0.00029616
   0.00032502  0.01419475  0.00021666  0.00027357  0.00441117  0.00029225
   0.00025582  0.00030648  0.00033185 -0.01852004  0.00030696 -0.00008046
   0.00024386  0.00032011  0.00021678  0.00030938  0.00032055  0.01327504
   0.00028429 -0.0389281   0.0004586   0.00031876  0.01585605 -0.0090116
   0.00046809  0.00029139  0.0068153   0.00030921  0.0003202   0.00033659
   0.0002904   0.00028044 -0.00947869  0.00027836  0.00033065  0.00028322
   0.00688757  0.00688075  0.00028275  0.00041356  0.00294959 -0.00836258
   0.00032016  0.00031606  0.00467907  0.03654128  0.00030855 -0.03558296
   0.00025635 -0.06949791  0.00033545  0.00026608  0.00032754  0.00024814
   0.00027134 -0.02724335  0.00046267  0.00031935  0.00540171 -0.01022916
   0.00377526  0.0002893   0.000275    0.00024087  0.04625181  0.00028348
  -0.01101735  0.00022806  0.00032405  0.00032069  0.00025966  0.00033596
   0.00038728 -0.00900681 -0.00507129  0.00031319  0.00032576  0.00026684
   0.00027811  0.00581007  0.00024301  0.00028449  0.00033061  0.00896179
  -0.01147998 -0.00654171  0.0003098   0.00025926  0.00028716  0.00028068
   0.00024184  0.00025364 -0.02373594  0.00030048  0.00028099  0.00033059
   0.00024658  0.0004746   0.0003215   0.01214092  0.00025064  0.00029633
   0.00026903  0.00997025  0.00032308  0.00031453  0.00021695  0.00032324
   0.00032592 -0.01113939  0.01788236  0.00033488  0.00025387  0.00027719
   0.00026983  0.00023127  0.01000346  0.00031587  0.00039609  0.01542956
   0.00026646  0.01463211 -0.00069201 -0.00837138  0.00052948  0.00822368
   0.00032514  0.0003073   0.00028643  0.0002634   0.00028552  0.00040571
   0.00028564  0.00036586  0.01251713  0.00390819  0.00035155 -0.00075009
   0.00029656  0.00028559  0.00862479  0.00023895  0.00031604  0.00022031
  -0.00854864  0.00032771  0.01636769  0.00694348  0.00031211  0.00032576
  -0.00447561 -0.00855805  0.00023143  0.00028597  0.00033418  0.00026509
  -0.00389456  0.00023988 -0.00946645  0.00032169  0.00025342 -0.0364428
   0.00028851  0.00031514  0.0003151   0.00041481  0.0003207   0.06089009
   0.00027696  0.00028658  0.0002585  -0.00002989  0.00031873  0.00029802
   0.00023743 -0.00085914  0.00026287  0.00027268  0.00032882  0.00009359
   0.00028188  0.00046257  0.00024523  0.00030612  0.00028855  0.00001348
  -0.00080426  0.00023206  0.00034166  0.00028578  0.00031495  0.0004166
   0.00029826 -0.04044481 -0.00174882  0.0003251   0.00045284  0.00028276
   0.00028383  0.00167189  0.00048324  0.00199586  0.00028184  0.00032459
  -0.00928978  0.00031131 -0.00654663  0.00026708  0.00027857  0.00030729
   0.0003048  -0.00974743  0.00032742  0.00032559  0.00032636  0.000319
   0.0002738   0.00029144  0.01236112  0.00027247  0.0003138  -0.0043892
   0.00031819 -0.00092089  0.0001608   0.00022265  0.00031981  0.00028247
  -0.03645705 -0.03861153 -0.01451372  0.00024421 -0.01005315 -0.01447929
   0.00041245  0.0002779   0.00027781  0.00029177  0.00030274  0.00026907
   0.00024912  0.00028463 -0.02924085  0.00028219  0.00048555  0.00031268
   0.00033462  0.00024162 -0.00973399  0.00025074  0.00031509  0.00001053
   0.00021484  0.00032087  0.0003314   0.05265967  0.00028856  0.00968911
   0.0002832   0.00048529 -0.00980008 -0.03479376  0.0003104   0.00032953
   0.00046636  0.0002886   0.00040442  0.03427672  0.0003249   0.00043572
   0.00160199  0.00027669  0.00025455  0.00024372  0.00024685 -0.03702198
  -0.00428689  0.00023672  0.00032897  0.00028376  0.00032765  0.06102807
   0.06061691  0.00027771 -0.00930642  0.00033052  0.00032024  0.00024626
   0.00025317 -0.00606575  0.00024406  0.00031689  0.00022494  0.00023519]
 [-0.00720144  0.00024216 -0.00656866  0.00022905  0.00016822  0.00023342
   0.00025329  0.00137689  0.0002341   0.00022878  0.00550603  0.00033915
   0.00022724  0.00023648  0.00031254 -0.017648    0.00023622  0.0008187
   0.00022795  0.0002478   0.00023488  0.00023734  0.0002472   0.01127253
   0.00023043 -0.04282138  0.00001848  0.00024592  0.01306205 -0.00554862
   0.00004834  0.00034631  0.00735332  0.00024069  0.00024624  0.00028072
   0.00023239  0.00022952 -0.00659747  0.00022983  0.00030032  0.00023071
   0.00669681 -0.00147093  0.00023024  0.0005444   0.0019392  -0.0058154
   0.00026082  0.00024671 -0.00276662  0.02241203  0.00023874 -0.03180493
   0.00022719 -0.06439792  0.00029771  0.00022809  0.00025945  0.00023031
   0.00022851 -0.02011077  0.00004546  0.00024684  0.01019976 -0.01234196
   0.00312882  0.00034752  0.00022916  0.00022866  0.02850795  0.00023147
  -0.01108056  0.00022992  0.00025485  0.00024807  0.00022743  0.00026245
  -0.0000303  -0.00539263 -0.00680167  0.00023947  0.00025434  0.00022807
   0.00022988  0.00683911  0.00022779  0.00023058  0.00027284  0.00906624
  -0.00626959 -0.00984919  0.00024252  0.00023073  0.00022184  0.00022991
   0.00022822  0.00022716 -0.01380702  0.00023495  0.00022996  0.0002453
   0.00023     0.00059613  0.00024845  0.01187362  0.00022791  0.00023338
   0.00022887  0.01236218  0.0002495   0.00024022  0.00023601  0.00028289
   0.00025656 -0.01763116  0.02059553  0.00030084  0.00022788  0.00023125
   0.0002287   0.0002306   0.01791228  0.00024595  0.00024627  0.01782681
   0.00022822  0.0100949   0.00521479 -0.01028448  0.00054015  0.01112594
   0.00025505  0.00023659  0.00023096  0.00022801  0.00035377  0.0005667
   0.00023086  0.00012438  0.01902952 -0.00376076  0.0001808   0.00034882
   0.00023487  0.00023081 -0.00388638  0.0002303   0.00024166  0.00023536
  -0.00845829  0.00024422  0.01941113  0.00437923  0.0002392   0.00025287
  -0.00736481 -0.01310675  0.00023022  0.00023079  0.00028287  0.00022797
  -0.00286965  0.00022766 -0.00662939  0.0002488   0.0002273  -0.04252762
   0.00023142  0.0002492   0.00025466  0.00050112  0.00024723  0.05482279
   0.00022871  0.00023107  0.00022728  0.00078333  0.00024541  0.00037231
   0.0002289  -0.00155683  0.00022799  0.00022945  0.00026393  0.00026669
   0.00022979  0.00059775  0.00022702  0.00023729  0.00023139  0.00026364
   0.00040022  0.0002295   0.00022133  0.00023074  0.00024124 -0.0001335
   0.00023423 -0.0258855  -0.0006978   0.00025891 -0.00001913  0.00023027
   0.00023039  0.01700934  0.00015149  0.00303432  0.00022983  0.00030098
  -0.01382109  0.00023793 -0.00464261  0.00022821  0.00022906  0.00024213
   0.00023752 -0.0150997   0.00025858  0.00025432  0.00025596  0.000245
   0.0002291   0.0003091   0.00944294  0.00022883  0.00023952 -0.00649301
   0.00024374  0.00063952  0.00073261  0.00023283  0.00024758  0.00022993
  -0.04277056 -0.04216609 -0.01888233  0.00022786 -0.01072725 -0.01866606
  -0.00013226  0.00023115  0.00022885  0.00033199  0.00023618  0.00023051
   0.00022727  0.00023051 -0.03388432  0.00023015  0.00016229  0.00023943
   0.00029606  0.00022788 -0.00980441  0.00022735  0.00024129  0.00091913
   0.00023473  0.00024912  0.00027465  0.0555409   0.00023148  0.01168618
   0.00023055  0.00015479 -0.00996252 -0.04110998  0.00024414  0.00029467
   0.00059452  0.0002317   0.00038864  0.0402911   0.00025596 -0.00008757
  -0.0028224   0.00020018  0.00022755  0.00022809  0.00022716 -0.04009053
  -0.00786358  0.00022843  0.00027791  0.0002303   0.00029418  0.05563711
   0.05449984  0.00022953 -0.0064225   0.00027384  0.00024645  0.00022743
   0.00022724 -0.00496322  0.00022784  0.00024584  0.00023295  0.00022918]
 [-0.00983336  0.00018614 -0.00912894  0.00016449  0.00008539  0.00017236
   0.00020238  0.00397461  0.0001667   0.00016394  0.00413286  0.00031222
   0.00016029  0.00017748  0.00029858 -0.01705872  0.00017723  0.00062392
   0.00016027  0.00019406  0.00016776  0.00017893  0.00019329  0.00920347
   0.00016719 -0.0425991  -0.00015753  0.00019133  0.00278703 -0.00848676
  -0.0001093   0.00032582  0.00596674  0.00018317  0.00019193  0.00024903
   0.00017038  0.00016561 -0.00915322  0.00016579  0.00027689  0.00016745
   0.00640882 -0.00354874  0.00016678  0.00070136  0.00119654 -0.00840885
   0.00021317  0.00019209 -0.00137662  0.0196744   0.00018057 -0.03014795
   0.00016027 -0.05854769  0.00027323  0.00016231  0.0002118   0.00016375
   0.00016337 -0.02004805 -0.00011448  0.00019266  0.00896249 -0.0115233
   0.00235837  0.00032822  0.00016458  0.00016101  0.02616081  0.00016845
  -0.00933364  0.0001618   0.00020457  0.00019451  0.00016087  0.00022371
  -0.00029542 -0.0084185  -0.0019348   0.00018212  0.00020399  0.00016237
   0.00016583  0.00499365  0.00015999  0.00016742  0.00023252  0.00813645
  -0.01003739  0.00035967  0.00018567  0.00016519  0.00032135  0.00016614
   0.00016049  0.00016    -0.01213594  0.0001748   0.00016625  0.00019205
   0.00016323  0.00082922  0.00019513 -0.00167886  0.00016075  0.00017234
   0.00016362  0.01439494  0.00019678  0.00018326  0.00016928  0.00024764
   0.0002073  -0.01492124  0.01657958  0.00027839  0.00016099  0.00016751
   0.00016348  0.00016292  0.01669718  0.00019102  0.00035578  0.0133546
   0.00016252 -0.00083723  0.00103206 -0.00781182  0.00084056  0.01032015
   0.00020497  0.00017773  0.00016811  0.00016197  0.00034102  0.00072611
   0.0001679   0.00002128  0.0157415  -0.00154915  0.00010385 -0.00099459
   0.0001742   0.00016783 -0.00020166  0.00016305  0.00018531  0.00016861
  -0.00798759  0.00019024  0.01322661  0.00512002  0.00018163  0.00020186
  -0.00195731 -0.00551602  0.00016243  0.00016785  0.00025117  0.00016207
  -0.00292031  0.00015958 -0.00916322  0.00019564  0.00016017 -0.0373407
   0.00016894  0.00019545  0.00020337  0.0006654   0.00019335  0.0583086
   0.00016418  0.00016828  0.00016057  0.00063365  0.00019063  0.00038326
   0.00016107  0.00018886  0.0001619   0.00016473  0.00021873 -0.00003945
   0.0001661   0.00081296  0.00015913  0.00017843  0.0001689  -0.00014861
  -0.00105024  0.00016151  0.00016375  0.00016776  0.00018462 -0.00040988
   0.00017363 -0.01448837  0.00105812  0.00021075 -0.00021766  0.00016683
   0.0001671   0.01860266  0.00005176  0.00177294  0.00016616  0.00027802
  -0.00690846  0.00017993 -0.0076372   0.00016257  0.00016481  0.00034008
   0.00017854 -0.00814317  0.00021048  0.00020394  0.00020644  0.00019012
   0.00016438  0.00026069 -0.00015324  0.00016391  0.00018226 -0.00152646
   0.00018833 -0.00118874  0.00063417  0.00016536  0.00019373  0.00016636
  -0.03641457 -0.04216161 -0.01350458  0.00016018 -0.01014504 -0.01310602
  -0.00040804  0.00016745  0.00016446  0.00029926  0.00017661  0.00016578
   0.00015978  0.00016733 -0.02389287  0.00016661  0.00006794  0.00018199
   0.00027048  0.00016001 -0.00115372  0.00016001  0.00018471  0.00384927
   0.00016746  0.00019599  0.00023539  0.05552468  0.00016901  0.00924041
   0.00016724  0.0000576  -0.00152673 -0.03452876  0.00018791  0.00026729
   0.00082162  0.0001693   0.00052476  0.02769403  0.0002063  -0.00032847
   0.00219843  0.00028772  0.00016059  0.00016046  0.00015945 -0.04018659
  -0.00853543  0.00016039  0.00024025  0.00016697  0.00026635  0.06309554
   0.05726347  0.00016533 -0.00900378  0.00023406  0.00019222  0.00015977
   0.00016007 -0.01120796  0.00016015  0.000191    0.00016566  0.00016129]
 [-0.00768032  0.00058906 -0.00579198  0.00054806  0.00061124  0.00056719
   0.00059912  0.00313022  0.00050438  0.00054632  0.00732558  0.00059878
   0.00053128  0.00057734  0.00061099 -0.01210834  0.00057763  0.00080918
   0.00052215  0.00059329  0.00050482  0.00058019  0.0005935   0.00736463
   0.00055591 -0.04391994  0.0007772   0.00059152  0.00150496 -0.00618127
   0.00078334  0.00059751  0.00900653  0.0005814   0.00059289  0.00061139
   0.00056188  0.00055232 -0.00583248  0.00055071  0.00061036  0.00055514
   0.01025541 -0.00524915  0.00055454  0.00055683  0.00487439 -0.00589282
   0.0005963   0.00058941  0.00013052  0.01534607  0.00058007 -0.0283492
   0.00053168 -0.07504676  0.00061386  0.0005399   0.00060264  0.00052649
   0.00054437 -0.02288534  0.0007783   0.00059233  0.00659818 -0.00776449
   0.00580677  0.00059561  0.00054765  0.00052013  0.02361735  0.00055567
  -0.00504676  0.00051094  0.0005986   0.00059389  0.00053443  0.00060647
   0.00076977 -0.00616936 -0.00129016  0.00058436  0.00060002  0.00054051
   0.00055052  0.00761594  0.00052142  0.00055615  0.00060763  0.01149591
  -0.00761911 -0.002015    0.00058257  0.00053551  0.0003334   0.00055268
   0.0005207   0.00052951 -0.01295508  0.00057154  0.00055296  0.00060178
   0.00052514  0.00055693  0.00059471 -0.00473294  0.00052744  0.00056732
   0.00054262  0.01038239  0.00059641  0.00058583  0.00050546  0.00060249
   0.00060063 -0.01815799  0.01792152  0.00061355  0.00052999  0.00055035
   0.0005432   0.00051364  0.01080427  0.000589    0.00053037  0.01569755
   0.00054025 -0.00255515 -0.00803741 -0.01094691  0.00050215  0.00706412
   0.00059962  0.00057809  0.00055793  0.00053768  0.00059115  0.00056444
   0.00055722  0.00061611  0.01374958 -0.00166924  0.00060729  0.00081292
   0.00056819  0.00055716 -0.00047765  0.00051935  0.00058768  0.00050763
  -0.00375157  0.00059885  0.01035614  0.00210375  0.00058332  0.00059968
  -0.00119468 -0.00497421  0.0005136   0.00055747  0.00061007  0.00053904
   0.00135845  0.00051895 -0.00604717  0.00059498  0.00052939 -0.03884733
   0.00055987  0.00058933  0.00059063  0.00052384  0.00059363  0.05086888
   0.00054909  0.0005581   0.00053344  0.00091022  0.00059133  0.00059138
   0.00051759 -0.00121218  0.00053725  0.00054585  0.00060458  0.00027389
   0.00055363  0.00055876  0.00052283  0.00057738  0.00055989  0.00031667
   0.00085786  0.00051376  0.00060391  0.00055729  0.00058657  0.00076026
   0.00056933 -0.01780744 -0.00016546  0.00060034  0.00077505  0.00055456
   0.00055551  0.00918403  0.00078794  0.0054053   0.00055362  0.00060437
  -0.01140429  0.0005821  -0.00645612  0.00054076  0.00055058  0.00036348
   0.00057635 -0.01223523  0.00060237  0.00059986  0.00060091  0.00059144
   0.00054663  0.00059574 -0.00364036  0.00054543  0.00058491 -0.00095657
   0.0005903   0.00104622  0.00069219  0.0005082   0.00059296  0.00055418
  -0.03734605 -0.02939598 -0.0181835   0.00052238 -0.00605927 -0.01782829
   0.00075611  0.00055089  0.00054986  0.00059838  0.00057402  0.00054335
   0.00052598  0.00055623 -0.02419249  0.00055404  0.0007897   0.00058391
   0.00061297  0.00052038 -0.00867996  0.00052729  0.00058672 -0.00209597
   0.00050335  0.00059435  0.00060861  0.04050474  0.00055993  0.01168334
   0.00055505  0.00078956 -0.00886321 -0.03574076  0.00058364  0.00060914
   0.00055536  0.00056006  0.00049236  0.01241289  0.0005996   0.00076454
  -0.00041623  0.0003148   0.00053039  0.0005221   0.00052415 -0.02798648
  -0.01352167  0.00051685  0.00060691  0.00055541  0.00060744  0.05977632
   0.04904893  0.00055005 -0.00561798  0.0006077   0.00059299  0.0005238
   0.00052917 -0.02477094  0.00052226  0.00058986  0.00050995  0.000516  ]
 [-0.00918999  0.00038027 -0.00809912  0.00036339  0.00034752  0.00037087
   0.00038658  0.00701943  0.00034654  0.00036271  0.0068933   0.00040506
   0.00035688  0.00037492  0.00039923 -0.01399287  0.00037489  0.00078957
   0.00035342  0.00038337  0.00034685  0.00037604  0.00038323  0.00187733
   0.00036638 -0.0497415   0.00018299  0.00038227 -0.00106231 -0.0101629
   0.00021986  0.00040453  0.01125055  0.00037767  0.00038275  0.00039433
   0.00036891  0.00036494 -0.00816741  0.0003645   0.00039809  0.00036623
   0.01391331 -0.00349483  0.00036588  0.00038592  0.00340669 -0.00827176
   0.00038734  0.00038194 -0.00206844  0.01967943  0.00037658 -0.04069592
   0.00035702 -0.07346407  0.00039873  0.00036028  0.00038902  0.00035567
   0.00036197 -0.03439673  0.00022264  0.0003828  -0.00154792 -0.00384783
   0.00470141  0.00040359  0.00036328  0.00035273  0.02873642  0.00036664
  -0.000622    0.00034897  0.00038682  0.00038362  0.00035811  0.00038797
   0.00029157 -0.01039683 -0.00055054  0.00037801  0.00038711  0.00036049
   0.00036445  0.00887214  0.00035309  0.00036651  0.00039319  0.01478187
  -0.01319452  0.00159634  0.00037864  0.00035932  0.00015683  0.00036518
   0.00035288  0.00035619 -0.02616996  0.00037271  0.00036529  0.00038464
   0.00035506  0.0004656   0.00038396 -0.01289056  0.00035554  0.00037089
   0.00036145  0.00573815  0.00038476  0.00037869  0.00034731  0.00039312
   0.0003878  -0.01132548  0.01597702  0.00039901  0.00035653  0.00036482
   0.00036161  0.00035028  0.00341315  0.00038158  0.00028399  0.01491135
   0.00036044 -0.00487008 -0.02038074 -0.01297507  0.00034515  0.00030557
   0.00038716  0.00037517  0.00036719  0.00035945  0.00040121  0.00040536
   0.00036694  0.00031146  0.01137321  0.00127438  0.00035511  0.0008288
   0.00037173  0.0003669   0.00376205  0.0003527   0.00037973  0.00034826
  -0.00220126  0.00038352  0.00734401  0.000709    0.00037763  0.00038663
  -0.0003189  -0.00408388  0.0003502   0.000367    0.0003946   0.00035994
   0.00213425  0.00035205 -0.00857181  0.00038415  0.00035617 -0.03838949
   0.00036795  0.00038265  0.00038435  0.00034594  0.00038328  0.05982481
   0.00036364  0.00036729  0.00035771  0.00068441  0.00038205  0.00039877
   0.0003517  -0.00105966  0.00035929  0.00036274  0.00039052  0.00040406
   0.00036545  0.00050947  0.00035352  0.00037527  0.00036795  0.00049917
   0.00078616  0.00035015  0.00037394  0.00036692  0.00037928 -0.00002986
   0.0003718  -0.02181891 -0.00061656  0.00038822  0.00012059  0.0003659
   0.00036624 -0.00253421  0.00033971  0.00433659  0.00036546  0.0003956
  -0.00429902  0.00037678 -0.00748347  0.00036062  0.00036423  0.00017189
   0.00037508 -0.00467104  0.00038876  0.00038706  0.00038775  0.00038194
   0.00036291  0.00040191 -0.00453311  0.00036243  0.00037817 -0.00013404
   0.00038119  0.00075348  0.00077017  0.00034816  0.00038321  0.00036567
  -0.0355043  -0.0330564  -0.00869698  0.0003535  -0.00381362 -0.00844415
  -0.00001787  0.00036496  0.00036393  0.00040463  0.0003739   0.00036216
   0.00035483  0.00036651 -0.0183812   0.00036569  0.0003493   0.00037787
   0.00039818  0.00035268  0.00095619  0.00035536  0.00037933  0.00434275
   0.00034613  0.00038407  0.00039384  0.04497955  0.00036799  0.01193474
   0.00036615  0.00034161  0.00069706 -0.03318529  0.00037948  0.00039704
   0.00047189  0.00036811  0.00027967  0.00262127  0.00038736  0.00000479
  -0.00136414  0.0001401   0.00035661  0.00035343  0.00035408 -0.03176816
  -0.00928947  0.0003513   0.00039385  0.00036618  0.00039636  0.07018497
   0.05769288  0.00036419 -0.00782184  0.00039339  0.00038284  0.00035399
   0.00035607 -0.02503144  0.00035345  0.00038179  0.00034899  0.00035107]
 [-0.01444384 -0.00075949 -0.01059421 -0.00076305 -0.00071484 -0.00076078
  -0.00075965  0.00500613 -0.00076402 -0.00076326  0.0116632  -0.00075997
  -0.00076475 -0.00075974 -0.00071959 -0.0223     -0.00075939 -0.00061687
  -0.00076532 -0.00076058 -0.00076405 -0.00075937 -0.00076032 -0.00015668
  -0.00076201 -0.04768674 -0.00058    -0.00076051  0.00058437 -0.01279449
  -0.0005874  -0.00074562  0.01176285 -0.00076139 -0.00076017 -0.00073865
  -0.00076164 -0.00076239 -0.01071235 -0.00076287 -0.00073368 -0.00076235
   0.01512755  0.00474355 -0.00076224 -0.00023185  0.00802929 -0.01197775
  -0.00075844 -0.00076147 -0.00821376  0.01627897 -0.00076056 -0.03349896
  -0.00076471 -0.06319216 -0.00073467 -0.00076403 -0.00075771 -0.00076569
  -0.00076349 -0.03003165 -0.00059355 -0.00076059 -0.00129689 -0.00142221
   0.00947526 -0.00074193 -0.00076317 -0.00076542  0.0243041  -0.00076265
  -0.00079933 -0.00076505 -0.00075963 -0.00076047 -0.0007645  -0.00073925
  -0.00095927 -0.01292694  0.00744556 -0.00075946 -0.00075935 -0.00076394
  -0.00076293  0.00929847 -0.00076531 -0.00076204 -0.00075219  0.01547329
  -0.01461047  0.00282659 -0.00076198 -0.00076541  0.00006858 -0.00076249
  -0.00076537 -0.00076487 -0.02227212 -0.00076057 -0.00076246 -0.00075624
  -0.00076564 -0.00010043 -0.00076032 -0.00071013 -0.00076515 -0.00076072
  -0.0007639  -0.00313651 -0.00076005 -0.00075944 -0.00076412 -0.0007475
  -0.00075886  0.00118216  0.00444959 -0.00073208 -0.00076499 -0.00076367
  -0.00076375 -0.0007653   0.00097527 -0.00076135 -0.00025723  0.02318748
  -0.00076402 -0.00016449 -0.01936869 -0.02305038  0.00006326  0.00023154
  -0.00075936 -0.00075954 -0.0007618  -0.00076429 -0.00072433 -0.00023447
  -0.00076193 -0.00067978  0.00296481  0.0054008  -0.00072301  0.00094129
  -0.00076166 -0.00076191  0.00239811 -0.0007656  -0.0007597  -0.00076459
   0.00178444 -0.00075681  0.0033486   0.01194564 -0.00075967 -0.0007595
   0.00721709  0.00362089 -0.00076528 -0.00076183 -0.00074007 -0.00076411
   0.00632867 -0.0007653  -0.01155697 -0.00076033 -0.00076491 -0.04504296
  -0.00076157 -0.00076205 -0.00076139 -0.00019105 -0.00076029  0.06067774
  -0.00076271 -0.00076183 -0.00076456 -0.00089325 -0.00076037 -0.00066417
  -0.00076539  0.0051734  -0.00076434 -0.00076361 -0.00075594  0.0002229
  -0.00076223 -0.00007955 -0.00076518 -0.00076043 -0.00076154  0.00032532
   0.00091449 -0.00076525 -0.00073706 -0.00076184 -0.00075985 -0.00059018
  -0.00076073 -0.01902233  0.00676152 -0.00075831 -0.00055823 -0.00076225
  -0.00076209 -0.00218724 -0.00063002  0.00912638 -0.00076225 -0.00073126
