Bias:
[0. 0. 0. 0. 0. 0. 0. 0. 0. 0. 0. 0. 0. 0. 0. 0. 0. 0. 0. 0. 0. 0. 0. 0.
 0. 0. 0. 0. 0. 0. 0. 0. 0. 0. 0. 0. 0. 0. 0. 0. 0. 0. 0. 0. 0. 0. 0. 0.
 0. 0. 0. 0. 0. 0. 0. 0. 0. 0. 0. 0. 0. 0. 0. 0. 0. 0. 0. 0. 0. 0. 0. 0.
 0. 0. 0. 0. 0. 0. 0. 0. 0. 0. 0. 0. 0. 0. 0. 0. 0. 0. 0. 0. 0. 0. 0. 0.
 0. 0. 0. 0. 0. 0. 0. 0. 0. 0. 0. 0. 0. 0. 0. 0. 0. 0. 0. 0. 0. 0. 0. 0.
 0. 0. 0. 0. 0. 0. 0. 0. 0. 0. 0. 0. 0. 0. 0. 0. 0. 0. 0. 0. 0. 0. 0. 0.
 0. 0. 0. 0. 0. 0. 0. 0. 0. 0. 0. 0. 0. 0. 0. 0. 0. 0. 0. 0. 0. 0. 0. 0.
 0. 0. 0. 0. 0. 0. 0. 0. 0. 0. 0. 0. 0. 0. 0. 0. 0. 0. 0. 0. 0. 0. 0. 0.
 0. 0. 0. 0. 0. 0. 0. 0. 0. 0. 0. 0. 0. 0. 0. 0. 0. 0. 0. 0. 0. 0. 0. 0.
 0. 0. 0. 0. 0. 0. 0. 0. 0. 0. 0. 0. 0. 0. 0. 0. 0. 0. 0. 0. 0. 0. 0. 0.
 0. 0. 0. 0. 0. 0. 0. 0. 0. 0. 0. 0. 0. 0. 0. 0. 0. 0. 0. 0. 0. 0. 0. 0.
 0. 0. 0. 0. 0. 0. 0. 0. 0. 0. 0. 0. 0. 0. 0. 0. 0. 0. 0. 0. 0. 0. 0. 0.
 0. 0. 0. 0. 0. 0. 0. 0. 0. 0. 0. 0.]
Weights:
[[-0.00341191  0.01139121 -0.02822267 -0.03655262  0.03565766  0.04168531
  -0.0867697   0.04115525 -0.03920878  0.00646192 -0.0113728  -0.02969451
  -0.02424068 -0.05393849 -0.03170959 -0.06702247  0.05622002  0.07953401
  -0.01240527  0.02826792  0.03754902  0.0007171  -0.01984445  0.00381111
  -0.00144035 -0.01180858 -0.02748807  0.00176128  0.02120065 -0.03018855
  -0.08049358  0.04128982  0.0333036  -0.02532114  0.0130799  -0.03346613
   0.01602688  0.06070515  0.00774394 -0.09055335 -0.05089622 -0.03783661
   0.08485392  0.00645989  0.01912076 -0.05609288  0.01907456 -0.03711207
  -0.01418319 -0.0131256  -0.06836005  0.01907542  0.02023599 -0.00388958
  -0.03607487  0.03314055 -0.01800776 -0.01098978  0.00942803 -0.05736756
  -0.04007619 -0.08306641 -0.02761126 -0.00379523  0.00164823  0.04932093
  -0.01043175 -0.08662485  0.0566827   0.0662637   0.02215026 -0.01225113
   0.01473517 -0.01947997 -0.0699907   0.04826408  0.03669297 -0.04200776
  -0.02441559  0.01925866 -0.0468449   0.00660924  0.05398742  0.05466608
  -0.06311627  0.00511596 -0.00416742 -0.03664204 -0.01058694 -0.01786026
  -0.01471682 -0.03740775  0.02199957  0.00480497  0.03167166 -0.03463451
   0.0212673   0.03586934 -0.02026439 -0.0180109   0.07881933  0.0472514
   0.00114812 -0.01971507  0.0630058   0.03854998  0.04571599 -0.0111819
  -0.05403785  0.00122065  0.07867395  0.01416345  0.01387225 -0.03232084
   0.0399973   0.02043453  0.0332964   0.06720031 -0.05583882  0.00380327
   0.08698221  0.08860066  0.05661193  0.02498488 -0.07676654  0.03130607
  -0.01252182 -0.0317269   0.02092133  0.02934098 -0.08362885 -0.00251403
   0.0071103  -0.09216069  0.00218676 -0.01889281 -0.03815697  0.03525492
  -0.0291722   0.05681182  0.03150832 -0.04785256  0.00796433  0.08704863
  -0.00823023 -0.02172852 -0.01874107  0.01582843  0.01069939  0.05086098
  -0.05852791 -0.00166822 -0.07597662  0.07025106  0.05099658  0.02456001
  -0.01423963 -0.00089723 -0.01429427  0.01468609 -0.01295453  0.05244034
  -0.0192017   0.08017249 -0.01079109  0.03795284 -0.05481774 -0.01305784
   0.02075989  0.04052472 -0.00956753 -0.05784165 -0.02687127 -0.01235373
   0.0158915   0.02659425 -0.06404299 -0.07222509  0.03385826  0.04908958
  -0.03716236 -0.05339387  0.06698855 -0.05730137  0.00985972 -0.02580493
   0.00576942 -0.08596823 -0.05465288  0.06540345 -0.02426508  0.04768122
  -0.00258284 -0.02961818  0.0292983  -0.04957858  0.02405611  0.03351066
   0.0703246  -0.02968775  0.04155783 -0.08029302 -0.01686896 -0.01231575
  -0.00868581  0.05067362  0.06869276  0.06158785  0.04735981  0.036978
  -0.00448418 -0.01588015  0.02814967 -0.01247469  0.01894088  0.08250932
   0.01164092 -0.03786372  0.00130146 -0.02213878  0.0942043  -0.00029692
   0.09615045  0.0611787  -0.01958774 -0.07981984  0.02359741 -0.02211426
   0.08424007  0.02187764 -0.03114763 -0.00727935  0.03145091  0.05854337
  -0.01254703 -0.04116381 -0.01072891 -0.06287342 -0.01644026 -0.00539201
  -0.04237415  0.04068193 -0.08801352  0.07029806  0.01292158 -0.05800846
  -0.03688798 -0.08606652  0.02445795  0.03759087 -0.04259431 -0.01771695
   0.08737314  0.01061497 -0.05597603 -0.04531483 -0.05292479 -0.01437691
   0.08643751 -0.05862118  0.05422848 -0.04481782  0.00208185  0.0402735
   0.04227385  0.09164848  0.04948794 -0.00705026 -0.00078545  0.01692434
   0.01222601  0.03481512  0.01808115  0.02215691  0.00338037 -0.01752785
   0.03428365  0.01815919 -0.01279744 -0.02125946  0.02051833 -0.07657548
   0.03332588  0.01781177 -0.08216449 -0.09616542  0.01475228 -0.04492303
  -0.01241227 -0.06674095  0.06411468  0.01745533 -0.04439237  0.01081785
   0.01093628 -0.06758559  0.06896075  0.01814034  0.0508345  -0.00379003]
 [-0.03788378  0.09834948  0.00424242  0.00713024 -0.00671925  0.03446736
   0.05998807  0.04553251 -0.04959676  0.04928969  0.0308605   0.02864202
  -0.04639384  0.05288537  0.01805466 -0.05555782  0.02151887 -0.04644358
  -0.02491745 -0.01125255  0.01727268 -0.02740016  0.01866825  0.0260691
   0.05194915  0.03144161 -0.00152825 -0.08860531 -0.01336011  0.00919737
  -0.04843106 -0.05777433 -0.02649031 -0.07843044  0.06012634 -0.07922133
   0.01437513  0.01804148 -0.02510839 -0.02697615  0.01188785 -0.02543397
  -0.01497063  0.03832727  0.06532143  0.00909508  0.03487688 -0.08321112
  -0.09004816 -0.06346023  0.01679643 -0.01597492 -0.02693286  0.02417353
   0.04705701  0.02225954  0.05070717 -0.04782886 -0.0906819   0.0417603
   0.01682778 -0.01161352  0.02090908 -0.00402044 -0.06975669 -0.09378076
  -0.05167269 -0.05467049  0.03670971 -0.01342041 -0.00547859 -0.03392993
   0.07465499 -0.02356927  0.01225446 -0.04501737  0.02850327  0.06188284
   0.04358723 -0.05820153 -0.04072205  0.09901623 -0.03279046  0.01965017
  -0.07672227 -0.03737181  0.0079595   0.00660483  0.04661645  0.07933302
   0.01246607 -0.02754001  0.02363238 -0.08467211 -0.01718402 -0.07332555
  -0.08206668  0.07653486 -0.07315806  0.0386969   0.04979255  0.06883515
  -0.05810189 -0.04043025 -0.0029805   0.04559378  0.03533782  0.01161207
  -0.04094929 -0.04191943 -0.01506521 -0.03581504 -0.00841879 -0.0072209
   0.09616236 -0.00404133 -0.04374718  0.0348904  -0.07999372  0.04408802
  -0.06402142 -0.06048176  0.03171655 -0.05844207 -0.01537787 -0.0453007
  -0.08346438 -0.06231024  0.00096978  0.04984443  0.00417205 -0.06213405
   0.00692886 -0.0542104   0.01296679 -0.08277663 -0.01235383 -0.03092579
   0.004195   -0.07507362  0.09772871  0.00240973  0.0283589  -0.00682893
   0.04027426  0.01474198 -0.04498693 -0.00900097  0.0351569  -0.02895562
  -0.07868632 -0.00306179 -0.01339157  0.00838046 -0.01424665  0.03370004
  -0.01750013  0.0339778  -0.02342956 -0.00081303  0.04950311 -0.06871491
  -0.00395347 -0.02510914 -0.03899299  0.05092609  0.03199489  0.09462812
   0.01517077  0.00768422 -0.0280143  -0.00530701 -0.00045168 -0.00298928
  -0.07239174 -0.03559016 -0.01646162 -0.03423399  0.00016177  0.00322722
   0.08930292 -0.03929022 -0.07691161 -0.09010871 -0.00126327 -0.09863
   0.02257402  0.01270407 -0.06329827 -0.0224245  -0.0242395   0.01587565
   0.01841799  0.09289746  0.03167247 -0.0484654  -0.04959163 -0.01489326
  -0.08663139 -0.014877    0.05913426 -0.0468583   0.04684877  0.04978602
   0.03763162 -0.01519966 -0.05619154 -0.04159293 -0.0164947   0.06446796
   0.00348376 -0.05283071 -0.05456835  0.07183626  0.00296123 -0.03239134
  -0.04549183 -0.00246249  0.04884336  0.02088616 -0.07754814 -0.04968523
  -0.01220507 -0.07759894  0.02537379  0.00168896  0.03214845 -0.02276058
  -0.04284636 -0.07116798 -0.06293302  0.03111079  0.01510891  0.00686118
  -0.04060913  0.01805063  0.04336844 -0.00453026 -0.03810385 -0.02872763
   0.00995805 -0.03550904 -0.01328481 -0.01791676 -0.00229175 -0.02503291
  -0.05170813 -0.05573781 -0.04393949 -0.02185906 -0.03367174 -0.02638304
  -0.00439957 -0.02347202 -0.08045003  0.01655774 -0.03072785 -0.00689023
  -0.01053518 -0.01498509  0.06362088 -0.06389968  0.07913694  0.00439801
   0.02716905  0.0148273  -0.05928584  0.03030344  0.00201386  0.09849801
   0.03275378 -0.05936969 -0.08258843  0.03996519 -0.06102762  0.05496937
   0.06729894  0.00575024  0.03233149 -0.03800051 -0.07139061 -0.05406013
  -0.03938093 -0.05481747  0.08093288  0.04550757  0.0146716  -0.00112424
   0.0660235  -0.00868257 -0.05526487 -0.00428075 -0.02955131 -0.01152306
  -0.00961856 -0.03687926  0.07730708 -0.07312562 -0.04087511 -0.08228553]
 [ 0.03776347 -0.01638997 -0.00696976 -0.00130776  0.08773228 -0.01715564
  -0.01896685 -0.06141577  0.01138644  0.01514062  0.04470874 -0.06916275
  -0.0040598   0.01151321  0.01272802  0.00852784 -0.00922495 -0.02085718
   0.02270841 -0.09785749 -0.07036378  0.01509295 -0.01448822  0.00749351
  -0.08190168  0.01723695  0.09094345  0.00840099  0.01314473 -0.00341609
  -0.00569337  0.02354802  0.09029233 -0.02792346  0.01197052 -0.02233818
  -0.01125753  0.04545389 -0.02412464 -0.04919398  0.09641368  0.02570721
   0.00296938  0.03670568 -0.04931109  0.03390438 -0.03561252  0.01741676
  -0.0681808  -0.02318813 -0.00092371 -0.01465356  0.03773454  0.02894044
   0.01699378  0.01133596  0.0023155  -0.02260997 -0.00857583  0.0108917
   0.03064242 -0.01005225 -0.00823962  0.02880551  0.01167818  0.05939034
   0.03512842 -0.0107399   0.01419629  0.01324868 -0.0412331   0.00696801
   0.05651453 -0.0487573  -0.03247516  0.05919164 -0.01218746 -0.00437358
   0.02343563  0.06476758  0.06602427 -0.0281178   0.05485649  0.04907845
   0.0436288   0.01200158  0.02774197  0.01677281 -0.05179482  0.00877587
  -0.08537333  0.09956054  0.05452251  0.05293638  0.03479173 -0.05657439
  -0.00966656  0.0113108  -0.00743982  0.08305898 -0.01104089  0.01360568
   0.01161726 -0.04100829 -0.04830012 -0.0491757  -0.08655165 -0.00001238
  -0.07323792 -0.07893203 -0.0068111   0.02899395 -0.04284431 -0.07705181
  -0.0234039   0.02381082 -0.01370075 -0.04195565  0.02422496 -0.02697991
   0.02700061 -0.0116949   0.05211043  0.0240384  -0.02222261  0.02095894
  -0.04938246 -0.02642706  0.06719498 -0.02952559  0.07467496  0.04897143
  -0.03656292 -0.06072664  0.02659057 -0.02162645  0.08636599 -0.08021953
   0.06400388 -0.0721126   0.03669711 -0.01686873 -0.06581878 -0.0604332
   0.01457123 -0.01225353  0.01655326 -0.05184678 -0.04125389  0.0119996
   0.00709517  0.00920346 -0.07820471 -0.00266192  0.04024976 -0.09479994
  -0.02008309  0.03798373  0.04294459 -0.0029399  -0.05707908  0.0052385
   0.04336126  0.0120441   0.02051482  0.0598808  -0.00365526 -0.00122586
   0.05142817  0.07265603  0.03470085 -0.00283718  0.04188854 -0.04389572
  -0.00255686  0.07380014  0.05475212 -0.01062832 -0.03349036 -0.01792814
   0.08219857  0.01389111 -0.02351542  0.02734498 -0.0111334   0.04807144
  -0.08129597 -0.03841042  0.01165664  0.0019563  -0.03758374  0.05033275
   0.0162585  -0.03671518  0.09407432  0.07429304 -0.04674199 -0.00865596
   0.02956251 -0.04805458 -0.05981794  0.0208657   0.02292982  0.01358361
   0.04526668  0.07747384  0.02640802 -0.00517446  0.04439662 -0.04954148
   0.05654421  0.03122497 -0.02338984  0.02678785 -0.0284319   0.06830501
   0.08858876  0.04704891 -0.01493436  0.0714514  -0.03953412  0.03920439
  -0.06972492  0.03793473  0.00415616 -0.05956851  0.02765836  0.03956323
   0.0155652   0.07357156  0.02692539  0.04709666  0.0461232   0.02707164
  -0.0120129   0.0593312   0.00813297  0.00028201 -0.0485713   0.02426607
  -0.06745721 -0.01175961  0.00891202  0.05789904  0.00605956  0.02890509
   0.0472368   0.02290143 -0.04569149 -0.0473368  -0.01837604 -0.02316044
   0.02753108  0.01052174 -0.03186904  0.02594984  0.01707257  0.00019551
   0.01838416 -0.07644327  0.0360724  -0.03559087 -0.08198593 -0.00507963
  -0.03620599  0.01078     0.00862694 -0.07069933  0.00094493 -0.06168261
   0.0753279   0.02978903  0.07435068  0.07668596  0.06461923 -0.02232941
  -0.01515337 -0.03522516 -0.04200844  0.01527527 -0.0242813  -0.01961948
  -0.0280518   0.0738878  -0.05314303  0.01513493 -0.03376566  0.02321759
  -0.0205236   0.03341892 -0.05284992  0.01965141  0.0576056   0.01017331
   0.02426312 -0.07527929  0.00004034 -0.06690982  0.05432847  0.00950349]
 [ 0.00453502 -0.04413078  0.01523937  0.05189398  0.03766151 -0.00381526
   0.0144302   0.01463149 -0.07029816 -0.01592909 -0.03853358  0.075199
   0.04996983 -0.00850582  0.04638239 -0.04118896 -0.09671678  0.08259385
  -0.0442962  -0.05817827  0.00604167 -0.09405424 -0.08112898 -0.01491919
  -0.07781174  0.04325494 -0.00814025  0.02441985  0.08981522 -0.00027179
  -0.05226163 -0.08723163 -0.02466734  0.02191961 -0.0305935  -0.00577921
  -0.06847232  0.00530773 -0.04697753  0.02872437 -0.02230903  0.00002407
  -0.01463757 -0.03224062  0.00116803  0.07370444  0.06157858  0.02302573
   0.01368878 -0.03621104  0.00629436 -0.05455768  0.0211059   0.02241557
   0.06091574 -0.05754016  0.03154778 -0.01500669 -0.01259947  0.01739298
  -0.00988242  0.00411858  0.06139615 -0.02484839 -0.02620741 -0.05012161
  -0.03052569  0.02670338 -0.09367041  0.03362191 -0.03778261  0.0342137
  -0.06061945  0.07079908 -0.04443394 -0.0188829   0.05748228  0.01805077
  -0.01368525 -0.05114793 -0.00863865  0.08713283 -0.03141503  0.05991548
   0.05480232  0.05651987  0.02640646  0.02197219  0.03289087  0.01498595
   0.03947631 -0.05226591 -0.01760783  0.07373149 -0.05441092 -0.09963491
   0.02154746 -0.00086524 -0.01251536  0.02187095 -0.01444858 -0.02072369
   0.03453897  0.06770748  0.03416103  0.04177724  0.04861438  0.0218228
   0.04488168  0.02527484 -0.03190525  0.06018535 -0.0479109   0.00819272
  -0.07721312  0.07078301  0.04242834 -0.02309096 -0.03987897 -0.05011586
  -0.03156082  0.04499666 -0.0119281  -0.02890738  0.00192177  0.00480729
   0.01350159 -0.09833726 -0.03541045  0.04472864  0.04014371 -0.06043154
   0.04247227  0.03857658  0.07360008  0.03983654  0.00309005 -0.08688173
   0.03415014 -0.04568682  0.01749748 -0.00957407  0.02755117 -0.08628523
  -0.01841333  0.02228103  0.016668    0.00384086  0.01131079  0.02651948
  -0.00915711  0.08231006  0.0345578   0.03784657  0.02500302  0.02352322
  -0.01417083  0.01794752  0.05001324 -0.0448323  -0.02994805 -0.04885503
   0.01285187 -0.05108244 -0.03816492  0.04498745  0.01740973  0.07383842
   0.05550582  0.0536518   0.02556588  0.03450422 -0.03859436  0.01288502
  -0.03021502  0.00684128  0.02967285 -0.06477685  0.02367748  0.07242637
   0.00820858 -0.08126288 -0.06075686  0.04520012 -0.05492792  0.0411243
   0.02637983 -0.03993365  0.06819294 -0.07448813 -0.03307116 -0.03603697
   0.02824283  0.0303019  -0.05315935  0.02941136  0.01625188  0.01428369
   0.07448016 -0.04584825  0.01713125  0.04481881 -0.00816497 -0.06627215
  -0.00339665 -0.06850068 -0.04202672 -0.0429961  -0.03218896 -0.04347942
  -0.06616756  0.03941061 -0.02753398 -0.04626586 -0.04376809 -0.02070839
  -0.01698545  0.00326972  0.06775486 -0.05648166 -0.02460306 -0.01596033
   0.00462106 -0.03517838 -0.03634177 -0.06208846 -0.05764169  0.03255595
   0.01872442  0.00165456  0.09739298 -0.06543741 -0.08225819 -0.0865026
   0.06860121 -0.08080401 -0.01585327 -0.02213647  0.01161428  0.03294335
  -0.05372233  0.03066198  0.00580507 -0.01198961 -0.05184012 -0.07669699
   0.00999442  0.01929758  0.00929462 -0.04436102 -0.00021403  0.0221651
   0.08317373 -0.0037325  -0.02314077 -0.03599263 -0.06259057  0.08525439
   0.03183799 -0.0078549   0.04556558 -0.00850084  0.04443756  0.03886044
  -0.0196356   0.03118016  0.01580665 -0.0182614  -0.00846558 -0.06183883
   0.0315794   0.01736362  0.01251358 -0.05511459 -0.00804936 -0.01110121
   0.08411816  0.00394585  0.05821644 -0.01377318 -0.05403532 -0.05078535
   0.04499305 -0.01149234  0.03274326 -0.04472759 -0.02677197  0.0294682
   0.03534001  0.02278174 -0.01514669  0.06133022  0.06317396 -0.0530726
   0.01927609 -0.0047166   0.04348607 -0.06910316 -0.02603013  0.02069292]
 [ 0.08499035 -0.0280927   0.02202692  0.0158465  -0.00306321  0.00433945
   0.04563988  0.03018207 -0.06659656 -0.0561064  -0.09334947  0.00429809
  -0.01766677 -0.0201768   0.06595309  0.03681151 -0.00138494  0.03203234
  -0.05712351 -0.03186201 -0.00353082 -0.03544538 -0.06841985 -0.02163478
   0.01182245 -0.07333142 -0.02020539  0.06561831  0.00377141 -0.03534695
   0.0829886   0.08472193  0.03127462  0.0184605  -0.05007276 -0.07862071
  -0.02757057  0.00496591 -0.01856419 -0.05200177  0.01457265 -0.06085004
  -0.02266952 -0.01918521 -0.00672455  0.07979762 -0.09949964  0.0037928
  -0.01311988 -0.06621101  0.09801961 -0.00295663  0.05358544  0.06425143
   0.04427543  0.0528638  -0.08281015 -0.04096162 -0.09248515 -0.06232782
  -0.02708003 -0.06086341 -0.0723861  -0.02772076  0.00512598  0.04639539
   0.05228956  0.06664614  0.02909888 -0.0234755  -0.05483096 -0.07530948
  -0.05024624  0.03145141 -0.00458837 -0.01329257 -0.08531442 -0.02519924
  -0.01541498  0.00728539 -0.01513221  0.09070744 -0.03694762 -0.05342391
  -0.0579305  -0.06137427  0.00312188  0.03138149  0.0707851   0.01036927
  -0.0472116  -0.00811838 -0.0172738  -0.02351799  0.0070951  -0.00197611
  -0.02072508  0.01781819  0.06749911 -0.02721179 -0.02318463 -0.03305284
  -0.05440762  0.07912764  0.00988552  0.00890894  0.03393456  0.05546604
   0.02259543 -0.01652334 -0.03191143 -0.0868066   0.0609602  -0.02009853
  -0.02408674  0.01551331  0.0113002  -0.01993328 -0.00061638  0.06330538
   0.01589115  0.01366412  0.02834857  0.01838682  0.06459995  0.08124774
  -0.01434293 -0.03050001 -0.05811118  0.00290399  0.07420139 -0.00542146
  -0.06254523 -0.03715533  0.05909703 -0.05575109 -0.03775989  0.04334787
  -0.00742445  0.0290721  -0.0142833  -0.03834302  0.0005932   0.05732547
  -0.07011748  0.06264221  0.02206155 -0.05921439  0.01358202  0.03262575
  -0.0208694  -0.00054691  0.01160338  0.05320255 -0.02764383 -0.07384972
  -0.03793357  0.02253714  0.05858156  0.03792914 -0.04761168 -0.0473744
  -0.02628753  0.04739119  0.00876382  0.06638746 -0.04048298 -0.01911216
   0.03252645 -0.04042309  0.00645574 -0.06515151  0.01758572 -0.07434912
   0.02944009  0.08735076 -0.02706156 -0.02983729  0.00833169 -0.04359595
   0.02608746  0.0379611   0.03134074 -0.03279822 -0.06355418  0.02819687
   0.03622529 -0.09394255  0.03726446 -0.03669419  0.09520923 -0.00869838
   0.02740185  0.0089535   0.02277634  0.07421718 -0.06782875  0.0105911
  -0.05280777  0.01656509 -0.03977266 -0.03070358 -0.00597707 -0.00126859
  -0.07507212  0.03759987 -0.05136492 -0.01727493 -0.0382142  -0.03972734
   0.03739764  0.01718987  0.08316479 -0.03549783  0.00716663  0.08522733
   0.05883165  0.01101023 -0.03303387  0.04190913 -0.08882686 -0.00665935
   0.01061088  0.01203369 -0.01043881  0.00572749 -0.04994169 -0.04358922
  -0.04413082  0.00977698  0.02939126 -0.08512083  0.01404777  0.0358205
  -0.00431531  0.02401434 -0.02858584  0.08068383  0.00072251 -0.04396219
   0.01096697  0.06057228  0.05789711  0.06532692  0.03742383 -0.01462214
   0.03493654  0.0214527   0.08923628  0.07925944 -0.01097689 -0.01657644
  -0.06318834  0.02028818  0.0168808   0.00040874 -0.01308403 -0.03251235
   0.01422296  0.03833148  0.01333268  0.04659522  0.00471919 -0.09045827
   0.0230101  -0.05508788 -0.02626915  0.02282046  0.03304777  0.06255829
   0.05689991  0.03623445 -0.02643288 -0.06795498 -0.02000802 -0.01261231
   0.00927126  0.03900602  0.02296179  0.07836596  0.01882199  0.0202063
   0.03458932 -0.02553772 -0.07268778  0.04778956 -0.05489916 -0.00732959
   0.05542179 -0.02395898 -0.04015734 -0.05041767 -0.06590738  0.00903058
   0.02995138  0.00409501  0.08449547  0.04518053 -0.0841582  -0.02828329]
 [ 0.01866704  0.05500924  0.01322595  0.03314158  0.04968869  0.01608217
  -0.00367758 -0.01323025  0.01693998 -0.08133541 -0.04726425  0.0790103
   0.00053658 -0.08289474  0.0383462   0.05534942  0.03550712 -0.0539378
   0.05462566 -0.01749831 -0.01540075  0.06016932  0.06201598 -0.00915672
  -0.00203704 -0.0127608  -0.02125128  0.06553305 -0.00925921  0.03695241
  -0.03103731 -0.0015694  -0.00813895 -0.02707173  0.00461197  0.00464959
   0.01660532 -0.04718107  0.00515921 -0.01670693  0.02101806 -0.029077
  -0.04434408  0.09845775  0.04910043 -0.02221265  0.00721531  0.01635313
  -0.0075567  -0.04692272  0.02812347  0.0114332  -0.0464958  -0.0881575
   0.06673674 -0.00912804  0.01694839  0.01341481  0.01531669 -0.06856605
   0.00731628  0.01739622 -0.04544161 -0.0266935  -0.02472373 -0.0526801
   0.03957783 -0.01944149 -0.01868295  0.09878275 -0.0547582   0.03320195
  -0.06520111 -0.04543345  0.06872486  0.05190958 -0.01747519 -0.01524096
   0.02316965  0.07148635  0.03604741  0.01062609  0.03952859 -0.01625418
  -0.05825427  0.03916683 -0.05315311  0.0040609   0.01833477  0.00192341
   0.03210872 -0.03690237 -0.06620264  0.02400216 -0.05034184  0.03573729
   0.0227076   0.02225879 -0.03051217 -0.03362742 -0.02425011 -0.04118929
   0.0042593  -0.03048934 -0.05953335  0.0923237  -0.03666596 -0.0185682
   0.05678534 -0.01263837 -0.00530261 -0.0012997  -0.05922187  0.09857472
   0.07105798  0.08193035 -0.08863416  0.04534152 -0.03258523  0.00169629
   0.00329751 -0.00323867  0.02288352  0.05020607 -0.04360536 -0.05360577
   0.03660016  0.0218561  -0.05888732  0.02307833  0.07221522 -0.01099675
  -0.043235    0.04621515 -0.01358743 -0.03901274 -0.07564498  0.06285521
   0.04985977  0.03015621 -0.00772729 -0.08634263 -0.00360163 -0.03148007
   0.06395984  0.04660188  0.06859186  0.0094681  -0.01474956 -0.03156349
  -0.05447725  0.00393652  0.04328392 -0.03203807 -0.06056268  0.092381
   0.02346259 -0.00789481 -0.04686778  0.04899579 -0.03304791  0.00451475
  -0.0492282   0.01250338  0.00759916 -0.0183282  -0.00288162  0.04346693
  -0.05120229  0.05386243  0.00598631  0.03017114  0.0047796  -0.02980836
  -0.00681603 -0.01609454  0.0201415   0.09061061  0.09169314 -0.03411222
  -0.04221231 -0.0416114   0.01258299 -0.074829   -0.05394641  0.06675962
  -0.02639194  0.00384238 -0.0077421   0.00506474  0.04879064  0.00514521
  -0.03607388 -0.07990164 -0.04640349  0.04477111  0.0586829   0.04177817
   0.01788406  0.05315345  0.08615347  0.03757354  0.02279293 -0.04456323
   0.01960426  0.02987571 -0.0871764   0.02587717  0.04916978  0.06392404
  -0.01330909  0.05319494 -0.08903515 -0.00373081 -0.08562305  0.0452364
  -0.07688455 -0.01462883 -0.01441321  0.06965072 -0.04679669 -0.0479751
   0.01419835 -0.05554264  0.02750504  0.02428938  0.04334266 -0.02833505
   0.07741155  0.05133883  0.03266181  0.05931189  0.01351024  0.00302407
  -0.08754992  0.00480808 -0.06741047  0.00201512 -0.05801631  0.01695678
   0.03832003 -0.03558642 -0.07014927  0.0835875  -0.02158336 -0.08475103
   0.03220145 -0.05096745 -0.06305365  0.021383   -0.09603311  0.01354614
  -0.01845861  0.00911875 -0.01496066  0.00044461  0.01756271  0.08127248
   0.01327386 -0.00786991  0.03107085 -0.00971942 -0.0231144   0.00552717
  -0.02354927  0.03520953  0.00755943  0.02543802  0.05119258  0.02041969
   0.02886317  0.08470385  0.02692961  0.02315     0.01768198  0.07455467
   0.07258461  0.02217311 -0.00581853  0.02528382 -0.029914    0.0563894
   0.03807663  0.01534018  0.04575234 -0.02135147  0.04751904  0.05174217
  -0.03088263 -0.05215517 -0.09143631 -0.03644169  0.03565371  0.01416391
  -0.06552028  0.02205803 -0.0388683  -0.09045891 -0.00811811  0.01368992]
 [ 0.02999351  0.04318901 -0.03790075  0.01002031  0.04937996  0.06205231
  -0.04353934  0.03417458  0.01428086  0.06785496  0.09859162  0.07611611
  -0.09181314 -0.03662112  0.02766453  0.00875787 -0.04307646  0.09067055
   0.00294074 -0.02037474  0.02445053 -0.04666867 -0.05575242  0.01233588
  -0.0473709   0.03613348  0.04113484  0.0766466  -0.02963321  0.01801129
  -0.00394337 -0.03509589 -0.06147198 -0.00375712 -0.03515418  0.01988901
   0.02680796 -0.02691988 -0.0794287  -0.02593695 -0.06670124 -0.00444302
   0.02813785  0.04151692  0.04390167 -0.01456492 -0.05613756  0.05151738
   0.03429866 -0.01714054  0.01590925 -0.01720086  0.01163578  0.00247095
  -0.06439462 -0.06516045  0.02848454  0.03686699 -0.03863891  0.07918372
   0.04762858 -0.03007827  0.08434997 -0.07768782  0.01429946  0.07695664
  -0.05040289 -0.03140016  0.00787189 -0.01161137 -0.01563598  0.00854262
  -0.01425533  0.07825746  0.01387169  0.09688416  0.06038701 -0.00709245
  -0.02553275  0.02612226  0.0900573  -0.03014398 -0.04256589  0.00436376
  -0.03901022  0.0672337  -0.06675825 -0.01413008 -0.04405067  0.02399361
   0.06331707 -0.03035883  0.01035137  0.03199699 -0.0555825  -0.02969492
   0.01993665  0.06525803  0.0017612   0.03534822 -0.00907394 -0.00181148
  -0.01559749  0.07627137 -0.03132648 -0.03127355 -0.04628144 -0.0276176
  -0.00523725  0.05200296  0.0594948  -0.04938818  0.05828805  0.01785059
   0.00223131 -0.01150442  0.01598381 -0.03734803 -0.01170803  0.0523623
   0.00685367  0.04823221 -0.08077932  0.09111733  0.06573242 -0.00727274
   0.0148271  -0.01007444 -0.03420157 -0.01715265  0.03729888  0.01520039
  -0.02590153  0.04856461 -0.02306539 -0.02997838  0.03111514 -0.05663195
  -0.01400527 -0.03892405 -0.00121758 -0.03687713 -0.03834205  0.01303078
  -0.07837198  0.08536419  0.01221338 -0.01232021  0.06116175  0.0049514
  -0.03890312  0.08245596  0.05359765 -0.03232419 -0.04635402 -0.03133095
  -0.05427651  0.03187481  0.06916287  0.01917581 -0.01551135  0.01819637
  -0.01356491  0.09273358 -0.06533348 -0.05613538  0.03532125 -0.02909053
  -0.01748049 -0.06134515 -0.01519596  0.02464757  0.03834477  0.04135353
   0.01497981 -0.07992436  0.0397527   0.07482482  0.01843494 -0.05178764
  -0.02090421 -0.0050594   0.02980906  0.0308874   0.03020009  0.02900411
  -0.06336548  0.04515296  0.04807974 -0.04077719  0.01730272  0.00186267
   0.01235789  0.01007052  0.03590776 -0.01185364 -0.04969713 -0.05648622
  -0.02220131  0.08129857  0.05905082 -0.03864562  0.04387284  0.04728458
   0.04014233 -0.02253566 -0.08664067  0.019777    0.01769474 -0.00848159
  -0.0846412   0.01862991  0.0589128   0.04126262 -0.06929575  0.00246385
   0.00133405 -0.06344174 -0.02742624  0.06196165 -0.03142944 -0.01735589
  -0.0856429  -0.02545696  0.05872926 -0.04168922 -0.03685962  0.06240871
   0.03395175  0.00228814  0.01671434 -0.06424777  0.05949616  0.01130321
   0.02942665 -0.03370342 -0.00747728  0.07079952  0.08109381  0.05848394
   0.0043397   0.06985614 -0.04184038  0.0413117  -0.00330101 -0.04843946
   0.07130323  0.03143328  0.02971864 -0.00234308  0.07407512  0.03157237
  -0.05841515 -0.04298116  0.03108717 -0.0490541   0.03228175 -0.02051673
   0.06269384  0.030735    0.03507266  0.03108633  0.01190858 -0.01797428
  -0.05315393 -0.06103583 -0.00107101  0.03049823  0.06103186  0.04578311
  -0.04241031 -0.05572748  0.03934235 -0.08666365 -0.03774149 -0.05864109
   0.00106564 -0.02939849 -0.09235379 -0.0758863   0.02012379  0.00908
   0.07821693  0.03449343  0.05158251 -0.01547613 -0.01823193  0.0213843
   0.03436041 -0.00134531 -0.00763156  0.010779    0.03349831  0.02496404
   0.07851531 -0.03789776 -0.03740772 -0.0267362  -0.02132375 -0.01206904]
 [ 0.03728493 -0.06469165 -0.00764426  0.0242327  -0.02105119  0.09720721
  -0.00502426 -0.05458201  0.0563779   0.01009254 -0.02364379 -0.00282682
  -0.05381661  0.02848976  0.04308235 -0.01024335 -0.0376141   0.01378953
   0.08433282  0.02887923 -0.01690716  0.06232028 -0.02455788  0.08351441
  -0.05163225  0.06084162  0.00245689 -0.00809621  0.07164412 -0.06182919
  -0.0336759  -0.01380123  0.01867388  0.0831513  -0.00725213  0.00088775
  -0.01705604  0.08025984 -0.02743315  0.01186297 -0.09572292  0.01017492
  -0.05026836  0.09736487 -0.01972527  0.0263758  -0.0893512   0.01263794
   0.00216084 -0.06239634 -0.03692514  0.01931528 -0.00733155 -0.0497857
  -0.07915494 -0.03417068  0.0006884  -0.00282602 -0.02015783 -0.05157381
  -0.00685567 -0.01236289  0.02674229  0.00208815  0.01293878  0.04251915
  -0.00720532 -0.0353961   0.08154722  0.02969316  0.06960813 -0.00192317
   0.01947109 -0.09826744 -0.02515964  0.04597557 -0.02350694 -0.01275239
  -0.00487283  0.01830037  0.06253199  0.00267966  0.06324054 -0.0841907
  -0.05193864  0.02546436  0.01728549 -0.06250071 -0.01088729  0.0608968
   0.03314931  0.00540234 -0.0332165   0.02068505  0.03933938  0.0592781
   0.03339479 -0.0530901  -0.07193736  0.02822047 -0.00064358 -0.02022512
  -0.02642633 -0.0079737  -0.04644264 -0.0035464   0.04422491  0.06075868
   0.02152323 -0.0798803   0.08610343 -0.04446841 -0.0660908   0.0876992
   0.01782857  0.00059493 -0.08667745  0.09649097 -0.04251003 -0.00220866
  -0.05156516  0.07052591 -0.06224122 -0.03917703  0.07116474  0.05352196
  -0.02363597 -0.01957021  0.03138903  0.06067013 -0.00027026  0.00381307
   0.01359565  0.09983467  0.0421572   0.0099766  -0.00457608  0.00061444
  -0.0178442   0.0732936   0.09365918  0.01355122 -0.00314316  0.04375234
   0.09241915  0.02497704 -0.00108215  0.09454895  0.09588545  0.08271125
   0.06540649  0.00931619 -0.02470215 -0.08222246  0.05343881 -0.01545701
   0.0937325   0.02940079  0.04595931  0.05705069  0.04108414  0.03484971
   0.01377519  0.03386817 -0.00907996 -0.06366291  0.03894315  0.07788726
  -0.03608545  0.04111681  0.02892253  0.03036444 -0.01278405  0.03407944
  -0.08518267  0.03620068  0.04015987 -0.00501696  0.00092263 -0.078339
   0.04971674  0.0728962   0.0490649  -0.0670815  -0.00514063 -0.07716452
   0.01871674 -0.00471647  0.05090564  0.03220835  0.02947651 -0.02474763
   0.050825   -0.03020482 -0.02004809 -0.00176059  0.08331052 -0.00547746
  -0.04366424 -0.03649168 -0.04215003  0.00085825 -0.04414224  0.05357741
  -0.05461445 -0.0622035   0.0167126  -0.0003149  -0.07714501 -0.03094138
  -0.04215899  0.05762879  0.02393685  0.02591245 -0.04168098 -0.08879239
  -0.02233693 -0.03633141  0.03410395  0.04686929  0.02117714  0.02239834
  -0.07990708 -0.0542909  -0.0209485  -0.00236345 -0.02987273  0.01457775
   0.01423082 -0.00357814 -0.00018596 -0.00838156 -0.03914842  0.06579438
   0.04109188  0.03758753 -0.0114925   0.04339479  0.07154595 -0.03431379
  -0.0253664  -0.01970251  0.02643083  0.08682563  0.02636877 -0.05952189
  -0.06786885 -0.04905677  0.00831635 -0.07132772 -0.03611953 -0.017621
   0.01262869 -0.08472686  0.00472244  0.00100525  0.05884389  0.02376965
   0.01588961  0.03184297 -0.0305088  -0.0182305  -0.00842795 -0.03231331
   0.02058855  0.05893341  0.02291349 -0.05048167 -0.02778781  0.05861282
   0.02835344  0.03576625  0.02931857  0.07779476 -0.03203811 -0.06490781
  -0.04957969  0.06423046 -0.04016049  0.02124639  0.02640056  0.01698202
   0.05664664  0.05415204  0.00928689  0.05743891  0.02090815  0.05920679
  -0.032967   -0.02762431  0.00768346  0.09593393 -0.06388738 -0.02484803
   0.02272276  0.08108085 -0.03121398  0.06940555  0.05688254 -0.0536334 ]
 [ 0.01888005  0.01546712  0.01033436  0.06760365  0.07402941 -0.05025136
  -0.09858758  0.00578465  0.04918232 -0.04202764 -0.02930181  0.02168221
  -0.00600731 -0.0010966   0.0875657   0.01391905  0.0426704  -0.04850082
   0.02962344  0.02090464  0.03758706  0.00614238  0.06592897  0.05012335
  -0.01050141  0.00147198  0.02793049 -0.09813019  0.02401012  0.05995545
  -0.09273948 -0.01546313 -0.00312853  0.01358445 -0.01442139 -0.04923426
  -0.01428155  0.04594239 -0.03016981  0.00810525  0.00425271  0.08324371
   0.02122239 -0.04299281  0.0086363  -0.05891324  0.03821691  0.01317005
  -0.03927898 -0.00769099 -0.00842084 -0.0279599  -0.00261278 -0.06531
  -0.07069188 -0.00709216  0.04143935 -0.05360378  0.00909181  0.00138103
   0.00310128  0.06242293  0.05182043 -0.02491993 -0.0038457  -0.06577297
  -0.068751   -0.01325819  0.0495432  -0.06779861  0.03494319 -0.0016985
  -0.01468629 -0.04687698 -0.09103185 -0.03794787  0.03253448 -0.04664234
  -0.01286891 -0.03429338  0.01264227 -0.00701233 -0.00078746 -0.01341458
   0.05740185  0.08158638 -0.01352982  0.01141042 -0.02517837 -0.03272137
   0.07437889  0.0135819   0.05501707 -0.04124042  0.021529   -0.04552967
   0.02316676 -0.00348243  0.01512535 -0.02642455 -0.04066786  0.03280046
   0.00647345 -0.05374403  0.0795311   0.02470805  0.05054985 -0.02013452
   0.02207335  0.05741466 -0.00396602 -0.00371701  0.01085958 -0.06574191
  -0.00378398 -0.08827502  0.00078893 -0.04732836  0.00652336 -0.00739057
  -0.0301566  -0.04228877 -0.01756223  0.09117373  0.03632748 -0.04430351
   0.00251349  0.02879006  0.01646553 -0.03588076  0.06798739  0.0175561
  -0.07196193 -0.08330988  0.03991993 -0.07851535 -0.02867666  0.02343496
   0.04515056  0.04538581  0.05654982 -0.0667546  -0.01970029  0.03310719
   0.02153713  0.02866506  0.01143531 -0.02120323 -0.03375838 -0.02037106
   0.03306609 -0.00325313 -0.00510365 -0.06314761 -0.00543477  0.07322278
   0.08964991  0.01263457 -0.03568793 -0.00696066  0.00458405 -0.00736556
  -0.02847159  0.02348132 -0.00019832  0.07723906 -0.00901095 -0.00880443
  -0.06598332  0.00276331  0.00915416  0.09724598 -0.08188261 -0.06611814
   0.05760782  0.04414884  0.05910587  0.01812317 -0.04609278 -0.01199393
  -0.00867398  0.00363304 -0.00324125  0.00459815  0.04407883 -0.0044685
  -0.06271217 -0.00690739 -0.01914762 -0.01077546  0.02707349 -0.05204761
  -0.00431087  0.05770328  0.02966098 -0.0753962   0.00371973 -0.00517419
  -0.01190794  0.02816647 -0.03057355 -0.07068898  0.05414399 -0.05372481
   0.02888239 -0.02149845 -0.02960638  0.0202243  -0.0319842  -0.05008269
   0.06289013 -0.06082639  0.02213466 -0.0207313   0.00261329 -0.06455767
  -0.05937431  0.01416014  0.05831527  0.02602988  0.03592404  0.00674724
  -0.065921    0.01613379 -0.04223987  0.03256506 -0.00770417 -0.08783587
  -0.034816    0.01376972 -0.05471179 -0.03961876 -0.04751445  0.0225885
  -0.06127432  0.01077737  0.04595646 -0.03602367 -0.0245606   0.06502184
  -0.01362535  0.01502592 -0.06513741  0.04750274 -0.02797822 -0.01052371
  -0.02838247  0.0352203  -0.00075112 -0.02464977 -0.00551105 -0.05567204
  -0.01947031  0.01854345  0.06433854 -0.05623922 -0.02704329 -0.04104496
   0.01994466  0.0776135  -0.03160371  0.0110065  -0.05751915 -0.03881958
   0.02062684  0.00270224  0.00510153 -0.03093808 -0.07962678  0.02551799
  -0.00004347  0.0002222  -0.00320298 -0.01892     0.09564482 -0.03345111
  -0.02832201 -0.01401272  0.01269936  0.00533209 -0.06360277 -0.07264086
   0.06932689 -0.02916547 -0.00432329 -0.02615938  0.07087176 -0.00048408
  -0.02823379  0.09248148 -0.03714652  0.05921144  0.02201285  0.0373088
   0.05035371 -0.00186435  0.05378564  0.00969444  0.00455866 -0.04411644]
 [-0.05129402 -0.00282744 -0.08549917  0.07013264  0.09353993 -0.0840601
   0.00066446 -0.01682106 -0.02903086  0.04479849 -0.02054667 -0.00494419
   0.02888672  0.05525776 -0.02956612 -0.0362004   0.03846665 -0.0376038
   0.05200721 -0.05092547  0.08548591  0.04276412 -0.02289678  0.03031684
   0.03640528 -0.03969778 -0.05458971 -0.00821822 -0.00499451 -0.02684017
  -0.01111267  0.02807542  0.03244643 -0.0305351  -0.04978396 -0.03652545
  -0.02364988 -0.03536925 -0.08314704 -0.01945005  0.01172393  0.03154542
  -0.0185158  -0.01971564 -0.04762439  0.04060964  0.02375358  0.06515911
  -0.09253721  0.06643882 -0.02345915  0.00229233 -0.03757707  0.02693457
   0.03152187 -0.05383146 -0.03250164  0.01579817 -0.00348478 -0.00939324
   0.01448722 -0.04160419  0.03830938 -0.01306534 -0.01851591 -0.03957021
  -0.03413423 -0.00489683 -0.01571262 -0.09587911  0.08319314  0.00705821
   0.01430685 -0.0263733  -0.01198415  0.02270964 -0.01514309  0.01913614
   0.03955488 -0.01618691  0.07321037  0.06703172 -0.02588454 -0.08141437
  -0.03348249 -0.06378717 -0.00669938  0.00499059 -0.00179195  0.06090326
  -0.01734515  0.08510442 -0.09498166 -0.00818341 -0.00290477 -0.00983596
   0.06002988 -0.04547658  0.03976744  0.01863423  0.00294473 -0.05495144
   0.0493907  -0.03381949  0.0559755   0.01584401  0.02714062  0.01648096
  -0.04150511 -0.0905503   0.03608306  0.01634744  0.00417309  0.00960012
  -0.02159668 -0.05287697  0.02337213  0.08349232  0.01974302  0.04342346
   0.00359538 -0.07053357  0.03656254  0.0614996  -0.05238397 -0.01551582
   0.01809056 -0.05807986 -0.03180047  0.0972215  -0.03020802 -0.03797506
  -0.03175214 -0.0641312   0.03978307  0.02648477 -0.06337173 -0.07415312
   0.00300619  0.06443186  0.0474327   0.0016033   0.00005133 -0.06082062
   0.00071004 -0.02301714 -0.03468515  0.08618908 -0.01452922 -0.01633172
  -0.02031962  0.08257688  0.06075414  0.01047187  0.00402205  0.06971563
   0.04603075 -0.04430613 -0.03431053 -0.01719683 -0.02676116  0.05592635
   0.04878597 -0.00433228  0.05753468 -0.07298122 -0.02658163  0.05670098
  -0.01880215 -0.02829514  0.00277504  0.00665845  0.04518086 -0.00993664
  -0.02412224  0.080859    0.06587279 -0.03298404  0.02277814 -0.01683863
  -0.09138375 -0.07437152  0.06226278 -0.01245074  0.05377884  0.01023869
  -0.0925924   0.03283028 -0.00888348  0.04732116 -0.05310001 -0.01261046
  -0.01639212  0.00040196 -0.0379713   0.05488509 -0.03577054  0.01564113
  -0.08681566 -0.04378933  0.0154466   0.03454219 -0.0600462  -0.00785369
   0.03797038  0.03786722 -0.02927735  0.00383441 -0.02396297  0.07588601
  -0.03233059 -0.00918038 -0.04136656 -0.01499827 -0.09025796 -0.00506433
  -0.01095325 -0.00017531 -0.0028841   0.03483201 -0.04428809  0.03424287
  -0.05923791 -0.00144124  0.02106317 -0.0468413   0.02233273  0.02807733
  -0.02033274  0.03687314 -0.00084733 -0.06986211 -0.02595215 -0.02015688
  -0.02088091 -0.00883439  0.02374457 -0.04146764  0.0762741   0.08364681
  -0.00777466 -0.05161217  0.01705031  0.00396891 -0.04388144  0.07099841
  -0.07885762  0.00860801  0.00477172  0.02422996 -0.05938973 -0.03643879
   0.0327612  -0.02402055  0.02362063  0.01014074  0.02749361 -0.00880981
   0.03567044 -0.01929439  0.06303242  0.04511192 -0.00913263 -0.08418557
   0.02185432  0.03674226  0.02910046 -0.02854433 -0.00991487  0.05007515
  -0.09486468  0.00168767 -0.00761198  0.01503207  0.0680085  -0.05935698
  -0.06043033  0.04205957  0.04055051 -0.02753955  0.02584384  0.02494359
  -0.03139821 -0.02741384 -0.05353804 -0.04265708 -0.01895517  0.04618264
   0.05461032 -0.04242686  0.03128296 -0.02960301  0.01679484 -0.01455409
  -0.06648242 -0.07464396  0.00365788 -0.00036665  0.01112121  0.03881278]
 [ 0.00516247  0.01876616  0.03267701 -0.06070825 -0.02313668 -0.04632839
   0.02929478 -0.04334582  0.07156982  0.0115076   0.01594288  0.01139138
  -0.06997269 -0.03934556  0.03481036  0.048967   -0.08447494 -0.01785967
   0.00700605  0.03785345  0.02211553  0.00120786  0.03654981 -0.02896996
   0.04813255 -0.01739636 -0.01718209 -0.00369043  0.03728308 -0.07848778
   0.00474616 -0.01867203 -0.01244642 -0.01624759  0.02100337 -0.01153509
   0.05371237  0.05485921 -0.02165403 -0.03804068  0.07569886  0.04656975
   0.04311337  0.00444456  0.09212976 -0.00543752 -0.00585761  0.0322501
  -0.02588916  0.01943264  0.04852761  0.03143995  0.01343083  0.08779799
  -0.03449526 -0.01793449 -0.02129511  0.02316459 -0.07493206  0.05977675
  -0.04141229 -0.01591871  0.03744    -0.09769686  0.00907009  0.03723175
  -0.04070912  0.06659314 -0.02882152 -0.01426287 -0.00582775 -0.02023663
  -0.01121555 -0.0105295   0.01933376  0.01597795  0.02494049  0.05673887
  -0.01416618 -0.03501111  0.04486567  0.02310721  0.0431609   0.06803218
  -0.07508221 -0.01176737  0.01694467  0.00212538 -0.04782829  0.03154772
  -0.01867919  0.09081741 -0.04893733  0.00418944  0.01542846  0.00515552
  -0.0112426  -0.01612657 -0.00825667 -0.02580223 -0.01129671  0.01697723
  -0.00129758 -0.06360746  0.00815036 -0.02648736 -0.01484116 -0.0702977
  -0.03900247  0.0300387   0.02249705  0.06740942  0.05104244 -0.06751382
  -0.01506079 -0.06911546  0.01757781  0.04265919  0.03772318  0.03172823
  -0.09425495 -0.05440924 -0.00647538 -0.03251437 -0.02559097  0.07804623
  -0.05434079  0.02253363 -0.07704059 -0.07845891  0.04667929 -0.05758091
   0.05389155 -0.08108241  0.08487943 -0.03025343  0.04342714  0.04993449
   0.0230973  -0.02170796 -0.08303523  0.07114487 -0.01978169 -0.04520573
   0.00080821 -0.08849961 -0.0681916   0.02746508 -0.01573263  0.0460121
   0.036333    0.00013743  0.00039566 -0.06205668  0.04711043 -0.03407304
  -0.00934645  0.02272714  0.08224024 -0.07716731 -0.02544631  0.07329321
  -0.01274377 -0.03959589 -0.00691971  0.06207922  0.02039076 -0.05299411
   0.02824482 -0.01916757 -0.00626822 -0.06329788  0.00731768 -0.07901409
  -0.0684521  -0.01870284 -0.0488171  -0.01918492 -0.0520489  -0.02302199
  -0.04489906 -0.00897314 -0.01128485  0.0361702   0.01238913 -0.09377676
  -0.07827198  0.03504571  0.05440024 -0.05729438  0.01139787  0.01556727
   0.04533996 -0.01688341  0.05335754 -0.07734948  0.0003968   0.09026325
   0.05117293 -0.0972961  -0.0160232  -0.01905111 -0.04132505 -0.05993788
  -0.03580126 -0.03334179 -0.03154291  0.02037632 -0.04525767 -0.0225316
   0.0731433   0.01694268 -0.00244621 -0.03284895  0.01598385 -0.024603
  -0.01857574 -0.01014146  0.07595366  0.00079604  0.08464985  0.02169733
  -0.07768424  0.0068433   0.07817173 -0.01471183  0.04014169  0.00053775
  -0.00360183  0.03359229  0.03761644 -0.03971572  0.06125063  0.09353166
   0.07144418  0.04580748  0.06328128 -0.0053565   0.05720164 -0.02501921
  -0.00516605  0.02627978 -0.03642139 -0.04903691  0.04383644 -0.04442302
   0.06298447  0.05905702 -0.0733098   0.04078457 -0.03237104  0.03380838
  -0.01896513  0.06645209  0.00753352  0.00528203  0.00625979 -0.06173815
  -0.06401456  0.01245932 -0.00971718  0.09090286  0.09921949 -0.04395591
   0.02224118  0.0540237   0.02038307  0.04275148  0.08378457 -0.01119843
  -0.068475   -0.01912957  0.03170895  0.04250573  0.09157457 -0.00442651
  -0.05283644 -0.04137278  0.02661936 -0.02090964  0.01647262  0.00379378
   0.0144425  -0.08943443 -0.01932951  0.04232562 -0.05599984  0.0089026
  -0.00919734 -0.00440861  0.028995   -0.03181583 -0.0242021   0.09173924
  -0.01148475  0.0182773  -0.07969167 -0.06493571 -0.00784027 -0.02542133]
 [-0.07078638 -0.0643953   0.00372103  0.02281274 -0.01978984  0.04886957
  -0.03286423  0.03522826  0.04393492 -0.00183093 -0.00963328  0.01672397
  -0.01234706 -0.04101949 -0.03706061  0.02052405  0.02069501  0.07076601
  -0.03070361 -0.01388744 -0.00151036  0.01578195  0.00487299  0.01076457
  -0.02225088 -0.04271389 -0.00561459 -0.00840712 -0.01030979 -0.03989887
   0.00804631  0.02424916 -0.01067859  0.09071328 -0.04650033 -0.01019874
  -0.01532697 -0.01328218 -0.00792096  0.02763005 -0.02377036  0.08764186
   0.02466775 -0.05940152  0.03985013  0.01072001  0.02331806 -0.04094524
   0.01644439 -0.03589594 -0.05399844  0.03788514  0.00408456 -0.02086288
  -0.0097105   0.06755193  0.0690231   0.04621142 -0.03273268 -0.05512035
   0.00354391  0.03192266 -0.05063416 -0.07638577 -0.00272562  0.04525326
   0.02636084 -0.04898549 -0.00962678  0.00602358  0.01580071 -0.07172079
  -0.02767127 -0.00949862  0.02654     0.03051915 -0.06000909 -0.06151847
  -0.00948678 -0.04725065 -0.0232759  -0.01292253  0.00628181  0.04241535
  -0.04109104  0.05087211 -0.04180409 -0.04967812 -0.00491988  0.00889279
  -0.03836381  0.01720682  0.07278197 -0.0776049   0.08612721  0.07326951
  -0.09480711 -0.04986813 -0.01665898  0.04211279 -0.04013614 -0.02079764
   0.03961962 -0.05774723 -0.00926067  0.00982764 -0.00089507  0.04001195
   0.08828593 -0.02512164  0.0691413  -0.0593338   0.05790782 -0.05399436
  -0.00195625 -0.05707055 -0.02112336 -0.07251899 -0.02507306 -0.01285533
   0.02662899  0.01004059 -0.09124936 -0.0432277  -0.0250972   0.04561634
   0.07842924 -0.01212544  0.01910937 -0.00559158  0.02120802  0.05042043
   0.02453015 -0.00685482  0.01260142 -0.06300091 -0.02946016 -0.04758516
  -0.04023601  0.04280951  0.06426411 -0.07771301 -0.04014436 -0.02763071
  -0.08649459 -0.01974448 -0.00842079  0.02903524  0.05477486 -0.03988782
   0.03887416 -0.04447349  0.08287205  0.02338228 -0.03253542 -0.00550893
   0.00267464  0.00424884 -0.01826777  0.04826971 -0.02460841 -0.06638506
   0.00668637  0.05096641  0.08202039 -0.00260945 -0.01510747 -0.00807405
  -0.04090543  0.01288805  0.06524272 -0.02383278  0.07086297 -0.03103719
  -0.05511303  0.03520387 -0.05055236 -0.04969775 -0.0141376  -0.01598549
   0.01433736  0.05869023  0.05088712  0.04288262  0.04915712  0.0201232
  -0.09453788 -0.03754399  0.06449378  0.01503139  0.00052184 -0.08740433
   0.04149108 -0.00703904  0.007779    0.03118064  0.02303164 -0.01175782
   0.02129086  0.00273354 -0.00508244 -0.03421678  0.07817651  0.02570867
  -0.02903751 -0.03019894 -0.00041075 -0.00160321 -0.00090941 -0.04069692
   0.00386661 -0.04196365  0.01458651  0.03591878  0.07972973  0.03416477
   0.0048325   0.00857117 -0.00033765 -0.02484936 -0.09816704  0.07641944
   0.00664921  0.05803966  0.01659515  0.08408031 -0.00047767  0.03936457
   0.05199514  0.07670682  0.01695214  0.01331213 -0.04038341 -0.03882408
  -0.07807676 -0.02407495  0.03530831 -0.03080567 -0.07661944  0.03006177
  -0.05902347 -0.08482652  0.03615133  0.07267585 -0.00580897 -0.04353892
  -0.01702091  0.08286726 -0.01369658 -0.03034752  0.04531146 -0.02074273
  -0.02692442  0.01380865  0.0574731  -0.0478969   0.06899124  0.03933621
   0.08616515 -0.02447828 -0.00533779 -0.00113173 -0.0595658   0.06241255
   0.04658992  0.07724798  0.06284993 -0.02489938 -0.02792437  0.06131941
   0.01198446 -0.06296443  0.00991461  0.01831003  0.02685139  0.00453255
   0.03102121 -0.00391914  0.03007513 -0.08649778  0.0058206   0.03104859
   0.02651704 -0.03125567 -0.04346852  0.03027336  0.0471353  -0.0403856
   0.00305279  0.04571107 -0.03484476 -0.00989416 -0.07403838  0.08460782
   0.02633528 -0.02037951  0.00107976  0.03756989  0.029985    0.00669899]
 [-0.08578921 -0.04253158  0.02769534 -0.00487512 -0.04667569 -0.00623442
   0.02832423  0.00763157 -0.03429616 -0.05892116  0.04411761 -0.05814236
  -0.04558627 -0.02221402 -0.00131977  0.08726396  0.03365117 -0.02546169
   0.04017602  0.09962431  0.01408675 -0.0517291   0.04416878 -0.06448989
  -0.01357475 -0.01772022  0.02297389 -0.03458337 -0.04791072 -0.01969049
  -0.06596221 -0.04350852 -0.00202931 -0.05885294  0.08339266 -0.01336103
  -0.00382422  0.02785183 -0.02938328 -0.01340621 -0.02848393  0.00358774
  -0.0807353  -0.07999562 -0.06353651 -0.00942583 -0.02619145  0.07486267
   0.03955543  0.08296823 -0.0751358  -0.01663673 -0.07312176  0.02155576
  -0.00724206 -0.01472408 -0.0563612  -0.02298976  0.07095663  0.04415474
   0.02207572 -0.0307754   0.06212099  0.02203963  0.02231223 -0.00735545
   0.03638128  0.0032164   0.02275771  0.08617628  0.09035277  0.07579762
   0.0539052  -0.01012947 -0.06240458  0.08340844  0.09058943 -0.03098068
  -0.04749821 -0.01236727 -0.07198869 -0.04968968 -0.0457733   0.03462532
  -0.01694914 -0.01749974  0.00990384  0.01322709  0.02864609  0.02261479
   0.02682319 -0.02620721  0.02335057  0.033507   -0.06471638 -0.01022388
   0.00023663 -0.03317676 -0.01911356 -0.02431401  0.00975495 -0.03972884
   0.00535149  0.01726511 -0.03916022  0.05520711  0.00045758  0.07392261
  -0.02038459  0.00753756 -0.02686724 -0.00365208 -0.01369688 -0.05408631
   0.01069401  0.01627594  0.07048114  0.01124803 -0.00127428  0.04381937
   0.00070498 -0.01571351 -0.03447738 -0.00724667  0.04699276 -0.01691011
   0.05565283  0.01210011  0.07973459 -0.08855821 -0.01677041 -0.06275183
   0.02679923  0.04179815 -0.08256339  0.0328204   0.0381217  -0.01211606
   0.05239324 -0.0243228  -0.01413091 -0.01119395 -0.01742315  0.02083159
  -0.0031728  -0.03342901  0.0124536   0.06866786  0.04438271 -0.02688478
  -0.02199748 -0.03522188 -0.02805755  0.03039282 -0.02189551 -0.09310772
  -0.06127952 -0.06337849  0.00576604  0.02730741 -0.02260828 -0.06029185
   0.04796327  0.01190008 -0.03074288 -0.01058202 -0.01042338  0.05109804
   0.02890353  0.07576142 -0.02929355 -0.00206845 -0.02475459  0.04104557
  -0.02435359  0.06391237 -0.08117852  0.01179739 -0.00690421 -0.01731036
   0.06359229  0.04816769 -0.04425902  0.04560265 -0.00698308 -0.04998937
  -0.00861119  0.08961355 -0.05615606 -0.01605792  0.01474383  0.01137476
   0.05860062  0.06661284 -0.06470348  0.05299486 -0.00283287  0.0179088
  -0.04357172  0.0604513  -0.06153643 -0.02027535  0.01138106 -0.06632541
  -0.06492823 -0.01802903 -0.03087157  0.03325018  0.01038897  0.03424525
  -0.06717455 -0.04881777 -0.01358993  0.05597867 -0.01558023  0.07142948
  -0.09747881 -0.00963021  0.06047239 -0.03532346  0.02626615  0.0802349
  -0.05719373 -0.01290613  0.01943759  0.03973279 -0.01336871 -0.01014897
  -0.02774999 -0.01797337  0.00142225 -0.0401727   0.03063801 -0.05294887
   0.00502186 -0.02868475 -0.04587283 -0.02182224  0.01849172 -0.05244195
  -0.05021768 -0.00266804  0.06140813 -0.07143158  0.02638501  0.04884779
  -0.04070087  0.01211829  0.04200378  0.00279597  0.00439104  0.04662938
  -0.0378219  -0.05856496  0.05536072  0.02075968  0.04770978  0.0255929
  -0.06059152  0.04378202 -0.07009822  0.08417026 -0.01586941  0.00034234
   0.07084967  0.05790393  0.04860669  0.00540428 -0.00866042  0.00944053
  -0.0453016   0.05442163  0.00844348  0.00886585  0.04289759 -0.02923109
  -0.00545368  0.02110723  0.01967176  0.03067679  0.05974885 -0.01465303
  -0.02777832 -0.01863221  0.01891655  0.05038759  0.02031583  0.05215992
   0.09004712 -0.03218552 -0.00749158  0.01918912  0.00371466  0.08489039
   0.00740058  0.06971792 -0.02724043 -0.08770642 -0.00314031 -0.04683054]
 [ 0.06648079  0.05324952  0.01031754  0.01549334  0.0117324   0.02782886
   0.03621966  0.0614861  -0.01160549  0.08421927 -0.00090894 -0.02441439
   0.07413094  0.04353379 -0.02408039 -0.08714288 -0.04532001  0.03004063
  -0.03489836  0.07054197 -0.07165693  0.01128617 -0.05693228 -0.04074577
  -0.06402578  0.011404   -0.02007248  0.0116447   0.02398065 -0.01477369
   0.04506458  0.01530765  0.05986987 -0.07427784  0.02212178 -0.00040565
  -0.08688362 -0.00008572 -0.06426181  0.01379777 -0.01242043 -0.02025343
  -0.0373865   0.05309743 -0.00803613  0.00028801  0.02177253  0.00175032
   0.00519853 -0.05255792 -0.02532282  0.04578697 -0.03168066 -0.07089826
  -0.07964248 -0.02620826  0.06407455  0.05726015 -0.09063724  0.02680472
   0.08881307 -0.02498968  0.05317229 -0.04161225  0.04987392 -0.08063146
   0.0281647   0.02623091 -0.03356563  0.00233542  0.00406291 -0.01118363
   0.01989429  0.04610334  0.03022149  0.03374244 -0.02205421 -0.0287669
   0.00859069 -0.09021927 -0.00127759  0.06239958 -0.05509918  0.01487186
  -0.05890597 -0.03096041  0.0213244   0.0195856   0.04762965  0.00195103
  -0.05213528  0.00323683  0.01928377 -0.04354679 -0.04160418 -0.05288199
  -0.03460336 -0.04049783  0.05515848 -0.01326406 -0.00446795  0.00431747
  -0.06831283  0.04468846  0.01288605 -0.01392805 -0.00902766  0.02189757
   0.02764847 -0.01044893 -0.03856636  0.00214636 -0.03494284 -0.0801424
   0.0497658   0.0434644   0.02356964  0.05074669  0.07923798 -0.07412367
   0.05482702  0.09826713 -0.01021133 -0.00609843  0.013183   -0.01215529
   0.02364649  0.01779985 -0.00401044  0.02008722 -0.02324053 -0.02933545
   0.01450064 -0.01155724  0.09372145  0.08548801  0.0219723   0.05405101
   0.07000201 -0.04741988 -0.08635199 -0.08655026  0.04080905  0.04537995
   0.05399992  0.04416504 -0.08187381 -0.04225347 -0.00085144  0.0310502
  -0.02619152 -0.00476912 -0.02226274  0.03007913  0.05305518  0.02538357
   0.03165777  0.06678531 -0.05988769 -0.04229987 -0.07078572 -0.0067527
   0.06130713 -0.04014265 -0.04094141 -0.04454755  0.00241761 -0.00733341
   0.00497964  0.03347823 -0.02473652 -0.01143562  0.07337438  0.04113911
  -0.01750388 -0.02574045  0.00863467 -0.03538447 -0.09679864 -0.05077119
   0.01240524 -0.01524378  0.02060243  0.0793208  -0.0946034  -0.04246726
   0.00486539  0.00564127 -0.02954572  0.00620553  0.00784672  0.04225473
  -0.08074829  0.01934031 -0.02933994  0.07910202  0.01279228  0.0118349
   0.00814458 -0.06911182  0.01087025  0.05676141 -0.03333124  0.0033805
  -0.01277454 -0.07936437 -0.02344982 -0.04922705  0.02534548  0.01959926
  -0.07640699 -0.06916334  0.09238961 -0.02879027  0.06220242  0.02884707
  -0.04850389  0.04970802 -0.01041553 -0.05777642  0.00757071 -0.02454974
  -0.06885035  0.02576416  0.04761334  0.030648   -0.09827089  0.01158449
   0.04891212  0.05958466  0.0118263  -0.03077078 -0.02034868  0.03603535
  -0.00029252 -0.06977739  0.03147255 -0.05668964  0.0475206   0.01119167
   0.02621474  0.05873377 -0.04535167  0.01854035 -0.00611899 -0.07359904
   0.06593021 -0.01107944 -0.02244131 -0.07810296  0.06201718  0.03255698
   0.05825281  0.07526527 -0.00266821  0.06256402 -0.0597861  -0.02177851
  -0.05046538  0.00412898 -0.07653374 -0.01780408  0.03427234  0.04972586
  -0.06792174 -0.03712218  0.0865827   0.01373534  0.0271641   0.04868081
  -0.00784419  0.02779154  0.03378974 -0.07114448 -0.07791229  0.00095091
  -0.01273824  0.00503593 -0.00683151  0.05192588  0.01983864  0.05979938
   0.03621843  0.04558926  0.01709442 -0.04996927  0.04720964  0.00479403
   0.08517852 -0.02845137  0.04103055  0.07865627  0.0298494   0.03531839
   0.00650938 -0.06057236 -0.03508846 -0.00876315 -0.06276502  0.03404338]
 [-0.01442947 -0.0011018  -0.05867958  0.01914198 -0.07333755  0.01088107
  -0.05227211 -0.00489126 -0.07275639 -0.03081909 -0.00348572 -0.03821524
  -0.0142821  -0.07199086  0.07746273 -0.0358366  -0.03954701  0.04155387
  -0.02659625  0.02838512  0.05884245  0.01059461  0.0154704   0.04416854
   0.07036444  0.01105982 -0.03114211  0.00145432 -0.08377431  0.08430534
   0.03899682 -0.00977465  0.04344419  0.01487326  0.0043774   0.06480407
   0.05081636  0.02559178 -0.01518531 -0.01801401 -0.027455    0.02384151
  -0.01091431  0.03564407 -0.02367915  0.03476298  0.0379722  -0.07883742
   0.00988344  0.04034228  0.00009278  0.05471452  0.03617661 -0.03393745
  -0.02732164  0.0377275   0.00927736  0.03393536 -0.08521356  0.03847747
  -0.06365605  0.05950186 -0.07656377  0.0068413   0.0052248   0.05009467
  -0.05200898  0.01448336 -0.08646987 -0.01145913 -0.00597646 -0.05762399
  -0.00279049  0.04994889  0.07849596 -0.03073178 -0.05067452 -0.04103682
  -0.00730437 -0.02812496 -0.03403386 -0.03564154 -0.01688475  0.04725353
  -0.02160312  0.05632449  0.01324741  0.00519133  0.03400343  0.00598404
   0.01798043 -0.0055923  -0.0539056  -0.04706281  0.00032774 -0.01665605
   0.01434263 -0.00938798  0.0321572   0.04924079 -0.01113965 -0.02521093
   0.01751258  0.02937713  0.02810591  0.02970389 -0.01916299 -0.0040569
   0.07688489  0.00810281 -0.01475578  0.04490821  0.02559528  0.02710545
  -0.07299672 -0.01141211  0.07088847  0.04479104  0.00339262 -0.02904754
   0.02698164 -0.06765577  0.01604177  0.08099739  0.02812721 -0.03206086
   0.04439507  0.03650365  0.00192338  0.05407307  0.04672905  0.05600616
  -0.01090839 -0.00336666  0.07470288 -0.00381599  0.00773339  0.05175627
   0.05832912 -0.07933462 -0.06028252  0.02066946  0.07342767  0.02691001
   0.04038249  0.02579176  0.03883465  0.03693652  0.05872605 -0.0025144
  -0.07318547  0.02350751  0.0444748   0.03918022  0.02923665 -0.01930489
   0.03343044 -0.00482451  0.00726508  0.02844668 -0.01662022  0.03717197
   0.06558713  0.04549965 -0.06724682 -0.03898246 -0.07372391  0.00301028
   0.02958505  0.00264277 -0.0559589   0.06821883  0.04403319  0.00169704
  -0.04928796  0.03141709  0.07420092  0.01357462  0.02946796 -0.0179723
   0.00383749 -0.02832819 -0.08316836 -0.09582859  0.01763156  0.00397617
   0.03642858  0.05606665  0.05755073  0.04883901 -0.02453481 -0.0568199
   0.012025    0.00738639 -0.04160362 -0.04436365  0.03980541 -0.0139477
  -0.00599871  0.03678842  0.03515887 -0.02524596  0.0644877   0.0235831
   0.03143523 -0.04614028 -0.00702131 -0.03467788 -0.00433815  0.0297173
   0.0406088  -0.02509553 -0.00615369  0.04000079 -0.01322731 -0.03513774
   0.07869793  0.00625104 -0.08402266  0.01330309 -0.02136112 -0.03588334
   0.03425684 -0.00143913  0.04836422 -0.0157391  -0.03714628  0.03043771
   0.03679691 -0.06645074  0.06853697  0.0142713   0.01363803 -0.06776875
  -0.05859934  0.07556377 -0.07650682  0.00295415 -0.02253322 -0.0494664
  -0.07712587 -0.00988128  0.02897586  0.02403706 -0.00164621  0.06267395
  -0.06511527  0.04449857  0.05583769 -0.00370111  0.01659703  0.00782208
  -0.00540925 -0.05500552  0.02220276 -0.06012077 -0.0272319  -0.03938226
  -0.03096451 -0.03912854 -0.04859127  0.00456036 -0.01712754 -0.06046205
  -0.03858283 -0.01467757  0.02720394  0.03885671  0.02257261 -0.00243494
  -0.03741515  0.00031349 -0.01034862  0.05752856 -0.03937969 -0.00719787
  -0.04344467 -0.06484917  0.06864705  0.09819353  0.03100696 -0.00261263
   0.03651838  0.00945365 -0.0309411  -0.06842252 -0.09840833  0.04309797
  -0.03493582  0.00451416  0.02961212  0.04090416  0.03492045  0.01586392
  -0.09476431 -0.07341578 -0.07895565  0.00059419 -0.03370372 -0.02720703]
 [-0.00963346  0.04839633 -0.05702801  0.06971389 -0.04344723 -0.03380216
  -0.08835917  0.0276081  -0.00434724 -0.03888346  0.00441421  0.04484572
   0.05225983 -0.05784434 -0.08896527  0.00375402 -0.01002756 -0.04584546
  -0.07390586 -0.02892761 -0.04070947 -0.01790932 -0.00819743 -0.0250498
  -0.05331324 -0.0072567   0.01640268  0.08446404 -0.05675125 -0.01039091
   0.01448362  0.05129967 -0.01791385  0.08091828 -0.00788276  0.00710572
   0.03778456 -0.03289035  0.04273229 -0.01567546  0.08080437 -0.078454
   0.09408831  0.03853084  0.04523176 -0.0482482   0.00216897 -0.05563507
  -0.03325105  0.07237831 -0.04554498  0.07147377 -0.01418282 -0.05506722
  -0.02487557 -0.03159492  0.01081936  0.04145038  0.03499185 -0.0313107
  -0.01016677 -0.01619027  0.01705159  0.00508311  0.01353324 -0.0142021
  -0.04887908 -0.0086518   0.06662019  0.00560807  0.07467675 -0.01187253
   0.09885705 -0.02794736 -0.02312363 -0.03690128 -0.00954007  0.04972298
   0.02027027 -0.08634657  0.05801823 -0.05602348  0.05164534  0.07086535
   0.04025307 -0.00400173 -0.03938001 -0.03615902 -0.02219512 -0.03393296
  -0.08799845 -0.03068753 -0.02476295 -0.04061664 -0.01670307 -0.01568917
  -0.00072481 -0.0911951  -0.07090688 -0.01550383  0.02228804  0.04710822
   0.00479018 -0.0221209  -0.02550643  0.0904584   0.04115282  0.09279346
  -0.00090569  0.03614212  0.01760786  0.03667373  0.0355417  -0.01047253
   0.04219725 -0.0521189  -0.04258014  0.01442199  0.00532642 -0.04625678
   0.02415192  0.05838158 -0.04386874 -0.0398524  -0.02031349  0.00854597
  -0.05580824 -0.05744642  0.0294881  -0.00422642 -0.04732975  0.00251997
  -0.05426524  0.0265003   0.05031536  0.0722345   0.0680657  -0.0886585
  -0.00680554  0.05202882 -0.04190885 -0.01260254  0.05149614 -0.04857216
   0.00391787  0.0755095   0.05005051 -0.00576813 -0.00678856  0.06682264
   0.01378074 -0.08593524 -0.0223319  -0.05282093  0.02866801  0.07624897
   0.07249812 -0.02601826  0.08883747 -0.01862143 -0.0782876  -0.01982517
   0.00527897  0.05771051 -0.00236751  0.01099237 -0.06783049  0.06413033
   0.0921163  -0.00345295 -0.03191687 -0.0193799   0.04689626 -0.03200849
   0.02582034  0.00125302  0.04391705  0.00150554 -0.02592791 -0.08409569
   0.00524753 -0.0395855  -0.05688617 -0.00026103  0.06462941 -0.00397336
  -0.02474523  0.05628023  0.02388696  0.00905098 -0.04641747 -0.01306672
  -0.06128345  0.04589907 -0.0351911   0.03801969 -0.03591502  0.03103483
   0.06573381  0.05090351 -0.01441089 -0.03071031  0.0972086   0.06560177
  -0.01867476 -0.04008596  0.02977683  0.01166655 -0.065425   -0.03703459
   0.03423319  0.03910175 -0.01298469 -0.07442882  0.01351333 -0.00090331
  -0.02344242 -0.03141633 -0.08522283 -0.06547961 -0.02180929  0.0144862
  -0.05300544  0.02209581 -0.01743626  0.05684795  0.01773846  0.07148134
   0.01671595  0.0139619  -0.01346843  0.02940752  0.00727682 -0.06612267
  -0.08540364 -0.06026554  0.01581629  0.00226258 -0.00411907 -0.00773044
   0.01441824 -0.07211071 -0.0123876  -0.03260736 -0.03073935  0.0100627
  -0.03450673  0.02496399  0.05577407  0.07168161  0.0321406  -0.07068421
   0.06196554 -0.00952376  0.00592908 -0.00410379  0.09724521 -0.07192885
  -0.02615149  0.09839883  0.05153012 -0.01925657 -0.07481058 -0.01657086
   0.02154704 -0.0022422   0.03115385 -0.01034648 -0.04620126 -0.03219878
   0.04565376  0.00769706 -0.01714622  0.00235592  0.01216608  0.00302786
  -0.04330121  0.02358968 -0.02499634  0.04230212 -0.08627558  0.05392855
  -0.03887179  0.04113526 -0.05391188  0.05531296 -0.05043464 -0.01340116
   0.02052986  0.06048969 -0.00734054  0.04053568  0.01174902 -0.03234309
  -0.06444588  0.01184827 -0.03832021 -0.05593372  0.04326037  0.00766293]
 [ 0.00233343  0.02524574 -0.0847733   0.06772778 -0.09480904  0.07648768
  -0.02465744 -0.03512968  0.0403882   0.00269986 -0.05690908  0.00936509
  -0.00872945  0.07219047  0.00733665  0.02962658  0.06648123 -0.07486721
  -0.00830159 -0.02394982 -0.05029106  0.0611736  -0.05075465  0.0168479
  -0.00018821  0.0278894   0.07688262 -0.01745455 -0.05648823 -0.03338747
  -0.02666719  0.02555904 -0.00272379 -0.05305349  0.02392535  0.01674969
  -0.03300695 -0.08722644 -0.03813794 -0.03379567 -0.04889111  0.04613512
  -0.00342481  0.06965259 -0.08130292 -0.04030321 -0.01288411  0.02624415
  -0.02931541 -0.06526294  0.00911883  0.06827375  0.02844894 -0.05280451
   0.02235081  0.01771921  0.02594297 -0.04279039  0.05980159 -0.05139669
   0.04138654  0.03691359 -0.03359284  0.00638838  0.01923228 -0.00884238
   0.02806726 -0.0071945   0.00670163 -0.01673499 -0.01724634  0.0209062
   0.01504882 -0.03270967 -0.03393087  0.04923765 -0.00127609  0.00583784
  -0.02730922  0.06599465  0.00364109 -0.08051214  0.08104428  0.03513144
  -0.0332236   0.03716926 -0.02353322  0.09781969 -0.00162108 -0.02266064
  -0.0279973  -0.04633367  0.00003231  0.01582435  0.06951543  0.05437531
  -0.07212637  0.01766779  0.04241034  0.0611133   0.06589578 -0.02763318
   0.04664826  0.00350106  0.0852819  -0.0421861   0.01171887  0.03009851
   0.0115575   0.01210798 -0.01893365 -0.08715873  0.03070425  0.09898362
  -0.01676877 -0.04267235  0.01390143  0.02361003  0.00203993  0.05398933
  -0.0176649  -0.02651699 -0.08517572 -0.00215472 -0.07543283 -0.01050481
   0.08739706 -0.01353883  0.00559197  0.07292942 -0.02964524 -0.05650553
  -0.01514995 -0.00810139 -0.0031812  -0.03397816 -0.08717141  0.05995207
  -0.0142471  -0.04044685 -0.05509785  0.02687717 -0.02161623  0.00267964
  -0.04103019  0.07376284 -0.0062881   0.03434937  0.00337971 -0.03499144
   0.043779    0.03604889  0.00945081  0.020455   -0.0205914   0.09560362
  -0.0061873   0.01527058 -0.02602176  0.0456891   0.02919175 -0.02769556
   0.07173853  0.05931653 -0.01254634 -0.03716741 -0.06862086  0.01143981
   0.00635688 -0.08521315 -0.02267062 -0.07649639  0.0755643  -0.01110892
   0.00194785  0.03600151  0.0141362   0.03991852 -0.01075965  0.04808776
   0.05157266 -0.0475127  -0.03735889  0.03314929  0.05721497 -0.09430115
   0.03929024 -0.02824467 -0.02835886  0.01140461 -0.01393801 -0.06317052
   0.04645157 -0.01179986 -0.01257641 -0.02352969  0.00599973 -0.00581289
  -0.04193967 -0.02570959  0.02912679  0.0328788   0.0418046   0.02828907
  -0.00093294  0.09832632 -0.00808975  0.06191194  0.0517354   0.05346922
   0.0088923  -0.05493835 -0.00363574 -0.02400151  0.04927384 -0.0773402
   0.05221772  0.04165156  0.025552   -0.02233842  0.03351329  0.0505787
  -0.05535496  0.04790125 -0.05144464  0.07065339  0.01601398  0.08885767
  -0.06576607 -0.03169864  0.00847698  0.03868575 -0.03308839 -0.01463713
  -0.01258596  0.03300874 -0.04484146  0.02454922 -0.03992912  0.03143134
   0.00972556  0.03263812  0.04851377  0.07633846  0.00088657 -0.01627839
  -0.02701779 -0.04774176 -0.05540934 -0.03500699  0.08985077  0.06572577
  -0.00587793 -0.0586744  -0.01011389  0.07902283 -0.03592375  0.00075295
  -0.05937995 -0.03692838 -0.06398632  0.07917707  0.01186397  0.04815169
  -0.06605835  0.0193768   0.03721418 -0.04231799  0.00140076  0.06693888
   0.00917277  0.00211512  0.04132482  0.06648707  0.05417657  0.04056153
   0.03399297 -0.02923716  0.00935806 -0.01265363 -0.06440462 -0.05042731
  -0.01253977 -0.01585675  0.04053069 -0.0662966   0.01525475  0.00440951
  -0.02569541  0.01269852 -0.0262291  -0.05570919 -0.00288345 -0.06298888
   0.05108336  0.01834869  0.0400993  -0.00344483  0.01357189  0.05160599]
 [-0.04713698 -0.05456557 -0.01738321 -0.00465265  0.02687555 -0.05052223
  -0.04019431  0.04595784 -0.02923293  0.02116049 -0.00176829 -0.03856274
   0.03001529 -0.05357906 -0.02595175  0.02218126  0.02982409 -0.0670362
  -0.03441266 -0.05294603  0.043132    0.00897586  0.00437164 -0.00990048
  -0.02809331  0.00154608  0.0239055  -0.0187169  -0.03769847 -0.04055739
  -0.03073827  0.03063025 -0.05478662  0.03443675 -0.02354343 -0.00250556
  -0.06728586 -0.0789858  -0.03100728 -0.0698654  -0.03874544  0.02408528
   0.01881532 -0.01983553 -0.01385818 -0.02065894 -0.06999728  0.06222612
  -0.02323294 -0.00360964  0.02744068  0.02663157 -0.00601472  0.01917187
  -0.01901553  0.06366003 -0.09899392  0.01336028 -0.04994713  0.01451677
  -0.02029747 -0.01271141  0.08941158 -0.0760525  -0.0081374   0.02573557
   0.04541315 -0.06673721 -0.01577566 -0.01195161 -0.04379503  0.01850552
   0.03248156  0.04335506 -0.0077179  -0.02338436 -0.05634719  0.00491704
   0.02496289 -0.02651086 -0.01204464  0.0239685   0.04722512 -0.00105367
  -0.03604625 -0.02701735  0.01088291  0.05956476 -0.034213    0.03898197
   0.00149544  0.01191235 -0.00723779 -0.01000282  0.04838145 -0.02174101
  -0.08431946 -0.0359118   0.00706741  0.01860187 -0.0216201  -0.01253043
   0.08093125  0.04416147  0.00585014 -0.00949803  0.02693627 -0.03234082
   0.00868777  0.0306783  -0.03783398 -0.05140227 -0.07448628  0.00527488
   0.03137753 -0.00839491  0.01284987  0.04195243  0.04232622  0.00839898
  -0.09845458  0.00518254  0.00194278  0.03731709 -0.06089144  0.09532545
   0.0411054  -0.06422488  0.03499388  0.00241478  0.01833191  0.05089521
   0.05712591  0.02439909 -0.01487552  0.00147392 -0.00358078  0.01621783
  -0.04054634  0.01611292  0.00242903 -0.04637727 -0.08883894 -0.07275447
  -0.03381924  0.01158904 -0.03449861 -0.02253313 -0.0092255   0.04955368
   0.0116173  -0.09402417  0.03777254  0.05303938  0.05630639 -0.01002984
   0.03924445  0.01162963 -0.01335587 -0.0214187   0.00251068  0.03680099
   0.05952692 -0.08543956 -0.04335766  0.00066732 -0.06662469  0.0248459
   0.07805705  0.04543937 -0.00769682  0.05031875  0.0270193  -0.035381
   0.04811876 -0.03845938 -0.0986845  -0.06796887  0.01487119  0.04970664
   0.01918248  0.0127826   0.04078278 -0.01766361  0.03455071  0.0240482
   0.05259455  0.0266589   0.00587747 -0.04358647 -0.05945861 -0.05397895
   0.04336387 -0.00724168  0.08426763  0.00373039 -0.01548101  0.03807051
  -0.02944477 -0.01441945  0.06954589 -0.00720961 -0.06614521 -0.02000397
   0.00260745 -0.02248585 -0.05302531  0.04094748 -0.04774496  0.07315239
   0.03817962  0.0464735   0.03085148  0.06868272 -0.01984691  0.07661453
   0.03770676 -0.03904271 -0.00463122 -0.00707402 -0.01327105 -0.03936882
   0.04924281  0.05366528  0.00032484  0.00527471  0.01268476  0.05929966
   0.01206244 -0.06203369 -0.05190393 -0.03583128 -0.02420207  0.01434635
  -0.08510531  0.0107946   0.09056958 -0.02399579 -0.01010248 -0.05194411
  -0.03280598 -0.00536697  0.08390483  0.02801371  0.01184362 -0.03041401
  -0.08470105  0.0192902  -0.00137708  0.03871692  0.05682085 -0.08069762
  -0.00627812 -0.04700501 -0.02679835  0.0622826  -0.00873304  0.04719947
   0.01490994  0.01477453  0.04740814  0.0205497   0.04503992  0.04444967
  -0.01996107  0.02574369 -0.02853825  0.04644839  0.01430211  0.01907694
  -0.00434863 -0.03761494 -0.03801198  0.04447151  0.05402037 -0.02715197
   0.03384521 -0.02581323 -0.01272596 -0.03772305  0.01362066 -0.03662968
  -0.02137978 -0.02264938  0.01436857  0.00257862  0.05612851  0.07370096
  -0.01180377 -0.0125979  -0.03126947  0.05962583 -0.08454698  0.00546428
   0.02836148 -0.02691293 -0.05093724 -0.01800426  0.00057743 -0.00554972]
 [ 0.05360639  0.06554412  0.03027633  0.01622487 -0.08630726  0.05085805
  -0.03653838  0.08114775  0.04879009  0.04170738 -0.09150891 -0.06767715
   0.04744991  0.03682638  0.02606744 -0.01665465  0.00737409 -0.01329104
   0.02682246  0.00264324 -0.0776981   0.01156033  0.06348357 -0.0213246
  -0.01583496 -0.02564315  0.03965266 -0.03803638  0.04557225 -0.00167504
   0.0568107  -0.07429633  0.06847256  0.02698128 -0.00962205 -0.07315554
   0.05691697  0.04157958  0.02200555  0.0084906  -0.01088008 -0.00179787
   0.0390901  -0.00736914 -0.03530347 -0.01382277  0.08346465  0.01137445
   0.06788018  0.00827536 -0.05158513  0.02777305 -0.0419009   0.02934724
   0.02538781  0.04380473  0.04605205  0.00627778 -0.00144293 -0.02316063
   0.09385671 -0.04802438  0.00150627  0.01204021 -0.00371305  0.01316252
  -0.04676996  0.03224697 -0.0680241   0.03125433  0.00503507 -0.01021645
   0.06713474  0.06954084 -0.01910529  0.01869423 -0.04586243 -0.03055437
   0.00266798 -0.02334587 -0.06726212 -0.02860163  0.0061226  -0.08303091
  -0.04846705  0.03387114  0.02033377  0.00242598  0.04170997  0.06191131
  -0.01475126  0.04918216 -0.07503981  0.01020507 -0.05368407 -0.03054055
   0.05307725  0.01957878 -0.01738734  0.02712348 -0.01849887 -0.00447738
   0.0156253  -0.03220104 -0.03835193  0.05603951 -0.02186606  0.07578384
   0.00658996 -0.03777425  0.0250184   0.0650064  -0.07403087 -0.07036453
  -0.02947985 -0.00676669 -0.041078    0.03129701  0.04595833  0.04862906
  -0.06477082 -0.09470709  0.02599551  0.07042839  0.01092302  0.07899017
   0.02589101  0.02964504 -0.05460801  0.02884912 -0.04687053  0.00710963
   0.06300234 -0.05976354  0.01273598 -0.00089868  0.06586001  0.09515727
   0.01268383  0.09158644 -0.06887187  0.05704713 -0.04841975  0.02936815
  -0.02542352 -0.01740879 -0.06350677 -0.01053517  0.04164382 -0.02261437
  -0.01367641  0.0778398  -0.00898317  0.01841944  0.07365149 -0.02088223
  -0.00107019 -0.0013483   0.02690817  0.0428548   0.08629008 -0.02629104
  -0.01727367  0.05808568 -0.0295471   0.05176589  0.06308826  0.08466917
  -0.05483136 -0.02082424 -0.01235377 -0.01609466  0.07260504  0.04237597
   0.02635921  0.0319149   0.0116945   0.00981287  0.01518684 -0.00209108
   0.04154529  0.07356108  0.03593026 -0.00875018  0.01482014 -0.03970268
   0.00190064  0.01950856 -0.05711307  0.01220631  0.01954099 -0.02269053
   0.00750996  0.00749889  0.04050625  0.02490417 -0.02919378 -0.0598212
  -0.03997856 -0.03459791 -0.06291635 -0.02365382 -0.08833759 -0.01406195
  -0.0349378  -0.08326425  0.03576894 -0.03559298  0.01881883  0.00083953
   0.00734134 -0.05570263  0.04278382 -0.02135961  0.00737423 -0.08115485
   0.06570181 -0.03958445 -0.00683354  0.01052066 -0.01702853  0.02799088
   0.00939661 -0.05606979 -0.01638631  0.05917747  0.00835522 -0.01289436
  -0.00003391 -0.0702908   0.01939447  0.02401531  0.07127991 -0.0233868
  -0.0338379   0.01598587 -0.00212585 -0.02687885 -0.03426568  0.02688944
  -0.06341919  0.00462869  0.04260088 -0.01196501  0.06009164 -0.00418864
  -0.00676027  0.01668553 -0.0057181  -0.0085928   0.05885586  0.0989069
   0.04162498  0.03351061  0.0052654   0.02535159  0.03363054 -0.00194053
  -0.00815961  0.01347353 -0.00936419 -0.03291291  0.01382164 -0.03695397
  -0.02404657 -0.02239348  0.00972339  0.02967435  0.02353947  0.02304409
   0.05212901 -0.00612239 -0.01020982 -0.03555562  0.07888051  0.03827424
  -0.0364594   0.00566586 -0.03591638  0.02980231 -0.06829704  0.03296041
   0.07550109  0.02999644 -0.03540787 -0.02529867  0.06878304  0.05028802
   0.00468761  0.01399726  0.0185604  -0.00390505  0.01216767 -0.02066966
   0.00621265 -0.02221294  0.00837709  0.02498481 -0.00302402 -0.02061596]
 [ 0.0610396  -0.00055967 -0.05537983  0.03057694 -0.01840837  0.05199845
   0.04244917  0.0426      0.02244295 -0.03106965 -0.01883431  0.07461058
  -0.01455209 -0.07893354  0.01910351  0.03488927 -0.0440763   0.04249134
  -0.0917333  -0.02711891  0.0447355   0.04062408 -0.01262563  0.00922705
   0.04584901 -0.01084018  0.02921806  0.02320492  0.01758239 -0.00109493
   0.01819421 -0.00511001  0.03229013  0.04263774  0.01441837 -0.03610077
   0.01107277 -0.07280105  0.00879182 -0.00148327  0.03282287  0.05657805
  -0.02752853 -0.03263417 -0.03396945  0.00531108  0.09584103 -0.06250437
  -0.01120258  0.09540819 -0.00222109  0.02391989 -0.03083109  0.03762125
   0.03178118 -0.01162184 -0.03008907  0.01156688 -0.08136119 -0.00255614
   0.08905961  0.03967839  0.02248788  0.03338149 -0.04415649  0.0564831
  -0.04557718  0.03360165 -0.02253461  0.00864956  0.01109261  0.02784297
   0.01340013 -0.06683444  0.01433194 -0.03009799  0.00843533  0.00474667
  -0.08231176 -0.0192165  -0.04782231  0.02462214  0.03104554 -0.07731186
  -0.04759814  0.00512632 -0.0026689  -0.08483857 -0.00298631 -0.04218537
   0.0027707   0.05714913  0.00949737 -0.06556032  0.03901186  0.03969817
   0.02972084 -0.02537656 -0.00008015  0.09623609  0.00004927 -0.03364768
   0.02672364  0.00932233 -0.05753604  0.08241017  0.00127568  0.02777109
   0.03731614  0.04519038  0.00418274  0.03549091 -0.05678802  0.0665405
  -0.02234888  0.04298058  0.0493831   0.06247042  0.0219989   0.08102471
   0.08528756  0.01528866  0.01942264  0.03854811 -0.04951889  0.01014886
  -0.0479248   0.07756703 -0.00732418 -0.03318569  0.02136893 -0.06172197
   0.04584559  0.08926719  0.00652017 -0.01697519 -0.02053052  0.01520017
  -0.02436014 -0.04215638  0.00020537 -0.01269061 -0.05378312 -0.03450594
   0.06253882  0.05963243 -0.02893816 -0.00373645 -0.01463303 -0.06940443
   0.04596868  0.01947287  0.01419788 -0.01119727  0.00264791 -0.01707665
   0.02322908 -0.02229243  0.04852919 -0.02257498  0.08201772  0.01449659
   0.00977159 -0.02384121  0.0431701   0.09352557  0.00170182 -0.07247793
   0.01687469 -0.00957299  0.08330347  0.0385201   0.02950007 -0.03050293
   0.04835229 -0.04689306 -0.05539389 -0.01817126  0.03747798 -0.00186454
   0.04859135 -0.00066412  0.01707143  0.0428414   0.07217152  0.03040451
  -0.0157653   0.04154208 -0.06047609  0.04403641  0.02138215 -0.00100785
  -0.05991534 -0.04399323 -0.02856641  0.04977202  0.02571367 -0.0011303
   0.07855623  0.00773058 -0.02926677  0.01741944 -0.0610242  -0.00164255
  -0.0029434  -0.03292152  0.07280839 -0.0332691  -0.09466923  0.02268985
  -0.01071092 -0.01085947  0.05612827 -0.00168391 -0.00076396  0.04294993
  -0.08311686  0.09631895  0.04171383 -0.03625979  0.07333078  0.02072343
  -0.01811119  0.00585068 -0.06834833 -0.00394377  0.02153367  0.06554594
  -0.05649982  0.0985015   0.04836185 -0.06348331  0.01836163 -0.05087608
  -0.08664519  0.01520611 -0.04325611  0.01348431 -0.06808054  0.03430589
  -0.03443911 -0.03870293  0.06739572  0.02430003  0.07133945 -0.01345991
  -0.05188923  0.05234784 -0.0306263  -0.00078996 -0.05694565 -0.02235908
   0.03224752  0.00995679 -0.00841706  0.0360427  -0.01148241 -0.08119778
  -0.00563751  0.03396248  0.0380045  -0.06692885  0.00408173  0.06308046
   0.01763614  0.05875765 -0.07210955  0.05018071 -0.03836161 -0.05676335
  -0.02836631  0.03819508 -0.0207876   0.04404092 -0.05995711 -0.06665636
  -0.0228298   0.04979733 -0.01852628 -0.03624667 -0.05014746 -0.05859519
   0.05136163  0.02342035  0.01120399  0.00782758  0.02303628 -0.09005502
   0.01862812  0.01912358 -0.03540368 -0.00045563 -0.06928694  0.01941289
   0.04260244 -0.07310069  0.05834282 -0.02235208  0.00289602  0.05113153]
 [-0.00336295 -0.03128372 -0.01104741  0.04552899 -0.00724786 -0.01650203
  -0.00566777 -0.01409663  0.00145575 -0.05353576 -0.00253851 -0.0994891
  -0.04396887 -0.04036931 -0.09080734 -0.06755047  0.08169299 -0.09033727
  -0.06068028  0.03844504 -0.01704596  0.09046616 -0.00665545 -0.01496923
   0.03156535 -0.07324383  0.02221555 -0.06822224 -0.02213009  0.01285369
   0.01634744  0.03168825  0.07437776 -0.0350011   0.08187553 -0.00236931
   0.02486036 -0.02444023 -0.04845655 -0.01986883 -0.00373529 -0.01608961
  -0.01101158 -0.02191875 -0.01739895  0.01376109  0.01375215 -0.02080965
   0.04939597 -0.0226354   0.03219705  0.02818772  0.0114255   0.08540569
   0.02427722 -0.04855382 -0.03652683 -0.03051886 -0.00176069  0.03242522
   0.08618049 -0.02851387  0.03736512 -0.05482097  0.0236546  -0.0171159
  -0.03304983 -0.00700038 -0.01659054 -0.03357324 -0.00999244  0.04146236
   0.04900797 -0.0844778  -0.01033502  0.09871196  0.0219017  -0.07427096
   0.02039372 -0.0732232   0.07788148  0.0713351   0.00728023 -0.02328009
   0.06660303 -0.03256071 -0.01931185  0.04377944  0.03076169 -0.03798385
   0.0337173   0.05645856 -0.01571796 -0.00453255 -0.00783672  0.08903449
  -0.0381461  -0.0225035  -0.02526817  0.00269283  0.00758462 -0.09257521
   0.06610635 -0.00917971 -0.06297784  0.02129519 -0.00589247 -0.02894616
  -0.05989869 -0.04455121  0.03272186  0.06411915 -0.00164666 -0.00160958
   0.00254277  0.07500828 -0.04561941  0.00724677  0.04016977  0.01610867
   0.00147556  0.04766391  0.04962452  0.01433526 -0.05030531  0.02075522
   0.0053345  -0.01324057 -0.00592963 -0.0185371  -0.04137059  0.00640666
   0.00687568 -0.07582203 -0.02826026  0.05163021  0.00281094 -0.03009903
   0.01873384 -0.00144256  0.05717282 -0.06076739  0.0222103  -0.07128374
  -0.0833118  -0.03432055 -0.01422154 -0.01719799 -0.07054673  0.01689911
  -0.02011879  0.00454691  0.02156281 -0.06711745  0.04796278  0.00070586
   0.05957856 -0.05531656  0.02834998 -0.06223917  0.00338815 -0.02974886
  -0.02027199 -0.04221339 -0.02721371  0.01864034  0.06191936  0.04403774
   0.00719166 -0.07630139 -0.04682269 -0.04799105  0.04835846 -0.02997687
   0.0204581  -0.00592639  0.0110594  -0.09014414  0.0417256  -0.00623669
  -0.01172751 -0.03947692  0.03305006 -0.00241388 -0.02655271 -0.00300869
  -0.06241629  0.0778514  -0.05412871  0.00073831 -0.02346136  0.06183878
   0.01061668  0.02178004 -0.06504317  0.05812851  0.02166058  0.04219854
  -0.06614505  0.01225139  0.05080663  0.04736532 -0.04899363 -0.00883222
   0.01886534 -0.04980229 -0.02715716  0.08811732  0.0194871  -0.08009652
  -0.03407257 -0.05510258 -0.009815   -0.0421036   0.01680941 -0.02222504
  -0.01048765 -0.01722002  0.06014369  0.02398807  0.03884739 -0.0475739
  -0.04085437 -0.02612603 -0.0987337  -0.03494049 -0.04613609 -0.05610139
   0.02441242  0.02910455 -0.06733067 -0.05635595 -0.07045826  0.05349058
  -0.0261867   0.07631239 -0.09551949 -0.08991485 -0.00200234  0.01706619
   0.06675887 -0.01452564  0.01682059 -0.02150221  0.06776547  0.0097448
  -0.02939364 -0.01484508 -0.05168245 -0.03872702  0.03073125  0.03175868
   0.0966016   0.00626466  0.00757971 -0.01291663 -0.00402778 -0.04050956
   0.07758024  0.09665682 -0.0400154  -0.07516622  0.00635389  0.03515554
   0.03694608  0.03178132 -0.0422624  -0.05190021  0.02447192 -0.06077714
   0.02391376  0.05213255 -0.077803   -0.01455261  0.00888792 -0.00831403
   0.04540966  0.03872541  0.0584085   0.03463654  0.00442196 -0.04912721
  -0.05299596  0.04870304  0.0074807  -0.05755116 -0.0166401  -0.00897272
   0.02364156  0.01138419 -0.01358393 -0.02459793  0.04425204  0.00991039
   0.04391985  0.01120287  0.04334913  0.03904731 -0.01688928 -0.05889457]
 [ 0.01740123  0.06626461 -0.01971759  0.00015295 -0.05731092  0.02832101
   0.0808046  -0.00940375  0.00520934 -0.03376319 -0.06007002 -0.01280745
  -0.00237991  0.02521965 -0.00781652 -0.06252105 -0.0176691  -0.02235072
  -0.01525007  0.01320281  0.0206753   0.05549743  0.00947359 -0.01170306
   0.02231606  0.03544203  0.04123355 -0.01868664  0.0332985  -0.01858839
  -0.04459682 -0.0547474   0.04936804  0.06027361 -0.02447036  0.01555231
   0.00659837 -0.03189791 -0.06457683  0.0111368   0.01142506  0.01123903
   0.00204926  0.04524286 -0.01132087 -0.00174102 -0.03005995  0.04074372
  -0.0668756  -0.00229415 -0.01554795 -0.03710198  0.00428576  0.09908511
  -0.00372612 -0.07671458  0.02850642  0.04453441  0.01974406 -0.00136801
   0.05211685 -0.05414988  0.06180869  0.02904887  0.06227943 -0.01307591
   0.04214858 -0.03798398  0.02987051  0.07061595 -0.02705899  0.05820799
  -0.02460831 -0.05765352 -0.04947792  0.07270435  0.04194441 -0.00270942
  -0.0361441   0.01517774  0.02610704  0.04216171 -0.05776642  0.04828095
   0.01439606 -0.00838707  0.03970417  0.02219037  0.08399855  0.04324777
   0.05263278  0.01471152  0.00327804 -0.06896916 -0.01412727  0.03432506
   0.00193199  0.01856989  0.05446571  0.07773554  0.01370155 -0.02553058
   0.0068515  -0.09011029 -0.03113481  0.09278392 -0.09328382 -0.06933378
  -0.08802359  0.0211849  -0.04050794  0.03755602  0.02538594  0.00154164
   0.03356722  0.03873933 -0.05821488  0.02973079  0.08155745 -0.04302198
  -0.05076328 -0.02042    -0.00802913 -0.02728199 -0.01550211  0.09151056
  -0.03414516 -0.07419017 -0.01436843  0.04868286  0.0011355   0.05819695
  -0.03099565  0.05890572  0.03657917  0.00120328  0.04031604  0.05390875
   0.06185614  0.06488481 -0.00941987 -0.03927594 -0.02926322 -0.04871244
  -0.06997101 -0.056528   -0.00344739 -0.03665623  0.02671524  0.03949045
  -0.0602515  -0.02748782  0.03275406  0.05291802  0.04835026 -0.08544769
   0.01940626  0.01974637  0.00688349  0.03054847  0.05893013 -0.05160772
   0.0146056  -0.01572927 -0.06328661  0.01433254 -0.04351989 -0.06161893
   0.04496477  0.02722621 -0.05248409 -0.08132901 -0.06125271  0.01001056
   0.00815509 -0.02513981  0.01126475  0.04077315 -0.05997416 -0.04471795
   0.00344259 -0.03041487  0.06518294 -0.03103895 -0.08622546 -0.04378948
  -0.02412241 -0.07715034  0.01662785 -0.0020221  -0.04502166 -0.04629754
  -0.07206973  0.04217267  0.0278974  -0.0678455   0.05310547 -0.02605758
  -0.03376284 -0.06359151  0.02909746 -0.09290873  0.01555426  0.02587796
   0.03159275  0.01811335  0.01213218  0.09989653 -0.01468395 -0.01878182
   0.01757563  0.0451262  -0.02643467  0.0220613  -0.0090289  -0.01114089
  -0.03785333  0.06180502 -0.09997281  0.08442405  0.00437137  0.00505348
  -0.02192492  0.0464578  -0.03641055  0.00630086 -0.08097132  0.04781162
  -0.03244786  0.01182065  0.02240769  0.03496902  0.0102993  -0.01658479
  -0.02632568  0.01779214 -0.01405649  0.07116695  0.00369434  0.03477448
  -0.00232734 -0.00774917  0.05310854  0.01844265 -0.06947946  0.03568883
  -0.03023749  0.02556873 -0.05841985  0.00806905 -0.00045237  0.06260319
  -0.01212383  0.02036745 -0.01452682  0.02929297  0.07814665 -0.04445435
   0.0933712   0.03651651 -0.00628448 -0.079999    0.01092822  0.06975263
  -0.08994798  0.06657689  0.07403424  0.01239307  0.02818449  0.02883544
  -0.01645791  0.03174999 -0.00647684  0.03179741 -0.00901653 -0.04939941
  -0.01839362 -0.06216196 -0.01161086  0.03146067  0.06580194 -0.0103935
  -0.07129992 -0.02376948 -0.09382327 -0.0105568   0.01329267  0.03051975
  -0.05494753 -0.06391724 -0.00814436 -0.00679201 -0.08162874  0.02411856
   0.04415789  0.0926009   0.06053444  0.05672603  0.00590489 -0.04265641]
 [-0.01612762 -0.03350899  0.03882942 -0.02617726 -0.04271539  0.05424216
  -0.05249621  0.04659356 -0.08958466 -0.03278264 -0.08590069 -0.01548593
   0.04478869 -0.01866758 -0.01189148 -0.02706163 -0.02630331 -0.03074675
  -0.00139923  0.08266152  0.02147312 -0.08357856 -0.05461947 -0.07955839
  -0.01194569 -0.02139855  0.01905969 -0.01591385 -0.0056388  -0.05004996
  -0.03765601  0.00111964 -0.04110666 -0.04123018  0.08072206  0.08370729
   0.01970056 -0.0018684   0.01127173  0.02700155  0.03685166 -0.0329637
  -0.03175178  0.01062949  0.03301668  0.01613639  0.00868946  0.02256578
   0.00577406  0.09081984 -0.02876959  0.04616039  0.02598263 -0.03072481
   0.09686366  0.02033032  0.02003903 -0.0726543   0.01664457  0.09842975
  -0.03377327 -0.03678639 -0.00045182  0.06307238 -0.04926996 -0.0396848
   0.05971771 -0.07887924  0.03958971 -0.04999115  0.0165423  -0.0236741
   0.0350895   0.02013718 -0.05806615  0.04483254  0.01911301 -0.03315651
   0.09943139 -0.04030028  0.03214671 -0.00461258 -0.00696121  0.00012221
  -0.02560549  0.02426988  0.05640313 -0.04513027 -0.08280212 -0.08454054
   0.0717242  -0.04118012  0.05910304  0.05581292 -0.0640581   0.02820916
   0.05776426 -0.03987083 -0.02692637 -0.06625747  0.04939704 -0.01431272
   0.02704152 -0.02199876  0.07484519 -0.05391654  0.00400121  0.01270004
  -0.02621817  0.0160464   0.00891123  0.08153234 -0.01293564  0.00468636
  -0.03573421 -0.02178812  0.04158075 -0.01966502  0.06215292  0.0063763
   0.06006825 -0.06228174  0.02426409 -0.07286741  0.09936012  0.09254014
   0.0313723  -0.00680688  0.01285662 -0.04668839  0.03951333  0.0677502
  -0.04171408  0.01651944 -0.0675892   0.02831415 -0.01584048  0.02803799
   0.04918227  0.04972439 -0.04504028 -0.02969315  0.04089704 -0.03445585
   0.01065019  0.01822069  0.03080502  0.0224176   0.04028435 -0.00050181
  -0.03424005 -0.07349654 -0.02905633 -0.01978929 -0.07645259 -0.01846152
  -0.06026372  0.02835127 -0.02231545 -0.02440979  0.00850593  0.01994633
   0.07877683  0.04324105 -0.06493773 -0.02117822 -0.05580459 -0.03106475
   0.0463889  -0.05387846  0.05370002  0.036575   -0.03471399  0.01085305
   0.07954193  0.0431137   0.03108098 -0.01866817  0.03200411 -0.00740396
  -0.00775027 -0.02028931 -0.02163004 -0.01991976 -0.06709722 -0.04976432
  -0.03045304 -0.00841131  0.00555123 -0.02206991  0.08261313 -0.02762908
   0.01695099 -0.00675366 -0.01760662 -0.02602627 -0.05434769  0.03323841
   0.04600076  0.02468351  0.03537773  0.04203346  0.01452889 -0.0056791
   0.05581793  0.06549716 -0.02160471  0.02250204 -0.07009921 -0.01167606
  -0.07837065  0.07511885  0.03969992  0.01756771  0.00757583  0.00230885
  -0.04455801 -0.02952348 -0.00610927 -0.01769042 -0.02280347  0.02691421
   0.00561877 -0.01861639 -0.03991568 -0.00329344  0.03695559 -0.04468049
   0.05954021  0.04698982  0.00608651  0.01069209  0.05573491  0.01200856
   0.05205626  0.01256815  0.05864472  0.01477627 -0.03155585 -0.0020573
  -0.03443046  0.03901744  0.01071637 -0.02331781 -0.0481136  -0.05937776
  -0.05308742 -0.0397415  -0.06401557  0.02184888  0.00995089 -0.05662669
   0.01407484  0.03164863  0.01933783 -0.04986243 -0.01703364  0.09797131
  -0.00045936  0.00384906  0.00647919  0.00035808  0.04280731 -0.00263398
  -0.01305266  0.04511498  0.07333494 -0.0202757   0.01047823  0.02238885
  -0.00927729 -0.09303077 -0.031541   -0.01994292  0.08541913  0.02648854
   0.04631514 -0.01748157  0.09245084  0.04292089  0.01220142 -0.03566749
   0.01466198 -0.04986618 -0.01308232 -0.04122043 -0.02131165 -0.03170195
  -0.03169106  0.03933182 -0.06501132 -0.03608687 -0.0754966   0.00080973
   0.01107728 -0.0476149  -0.04273446 -0.05290376  0.05308857 -0.03452256]
 [-0.08190873  0.0585893  -0.04217938  0.02675046 -0.04553545 -0.00638016
  -0.00480124 -0.0731758  -0.00984971 -0.01143331  0.02335906  0.04497752
   0.00423698  0.05561526 -0.09771481  0.01019595  0.08762615  0.00879931
   0.06717607 -0.04401693 -0.07380202  0.03247327 -0.03877002  0.04464342
   0.01324607  0.02950947  0.0623464  -0.03378738  0.05005751  0.01587837
  -0.01126761 -0.025792   -0.01074487 -0.02210111 -0.00049152  0.01366264
  -0.00303314 -0.06990924 -0.07535466  0.06221455 -0.03393836 -0.02839324
  -0.02862831  0.06044219  0.02846645  0.01991727  0.0857     -0.0547954
   0.01138494  0.01375542 -0.01967509 -0.06286835 -0.03217229 -0.05016616
   0.01082799 -0.04575042  0.0656281  -0.00840229 -0.00694924 -0.00632992
  -0.01087551 -0.09671859 -0.01384547  0.02848356  0.0085908  -0.01389285
  -0.01811678  0.02268914 -0.01875014  0.06651881 -0.04935208  0.02239467
   0.03850276  0.01518939  0.0655156  -0.00429652 -0.07380763 -0.01404889
  -0.05843377 -0.02637834  0.03628759 -0.0706509   0.01234497  0.00496945
   0.00673199  0.09067546  0.03093763  0.03752747  0.06000581  0.0272966
  -0.03993869  0.0086108   0.00762062  0.0919207  -0.08263223  0.01557828
   0.03744527 -0.04536923  0.03633266  0.05891922  0.08992564  0.01917136
   0.09567662 -0.05998393  0.0129809  -0.03627919  0.02278299 -0.04515933
  -0.0099358   0.0148932  -0.06916302 -0.04764541 -0.04207922 -0.0759941
  -0.03502727 -0.08060326 -0.01537516 -0.08436564  0.00370301 -0.07226086
  -0.03778847 -0.03324692  0.0288435  -0.08862417 -0.00243802 -0.09279508
   0.01473165  0.02099949  0.07658249 -0.0570402   0.08135749  0.04861243
   0.01677506 -0.02102522  0.06641646  0.00260479  0.00072003  0.0303202
   0.01759373 -0.04547518 -0.05709484 -0.04267333  0.07075594 -0.00706749
  -0.00426067 -0.02192877  0.06531622 -0.08793171 -0.0425339  -0.01916817
  -0.07375856 -0.09651148 -0.05895531  0.01287589  0.02787063  0.04181049
   0.07458797 -0.04054252 -0.00014751  0.03463444  0.02448646  0.03596167
   0.03911389  0.03601327  0.07091522 -0.01299289 -0.02123413 -0.04265409
  -0.05875603 -0.08649208 -0.05110308 -0.02934879  0.01850791  0.01882558
  -0.07134268 -0.00501537  0.03391888 -0.02760114  0.0070014  -0.02514347
  -0.03541635 -0.05380861  0.04145765  0.04821158 -0.00514261 -0.00225573
   0.01793657 -0.00620748 -0.02038779  0.01408193 -0.05154334  0.00504805
   0.01205493 -0.00159664 -0.03839599  0.0187463  -0.04115399 -0.00556863
  -0.01687108 -0.02391641 -0.040996    0.03350105 -0.0039811   0.04821993
  -0.07091777  0.0122712  -0.00433035  0.03998839  0.05554652  0.0395357
   0.00644164  0.01023857  0.08562651 -0.03034981  0.01012066 -0.00196511
  -0.0566843   0.02834615  0.00297251 -0.03412953  0.01733791  0.02853082
  -0.02041668  0.04339276 -0.06441016  0.0066892   0.00022283  0.00740972
   0.00681897 -0.07064978 -0.01524233  0.00217232 -0.00579714 -0.02626333
  -0.04746584  0.0133085   0.02237708  0.0805568   0.0048756   0.01510546
   0.0606357  -0.05688613  0.00399901 -0.00264967 -0.05040897  0.01530806
  -0.09083993  0.014298   -0.02314486 -0.00944137 -0.01263559  0.00946194
   0.04336416  0.00328163  0.03523202  0.04136541  0.04829469  0.0212102
  -0.04508407 -0.01533944  0.06166598  0.00855699  0.00722962 -0.0725456
   0.03970398 -0.03823641  0.00357894 -0.015819    0.00781001 -0.04184175
   0.01344175 -0.01865628  0.01645376 -0.00446511 -0.04003348 -0.02183468
   0.0424855  -0.05214467 -0.04921984  0.01867989  0.03343645  0.08353419
   0.03198683  0.0535032   0.00309588 -0.05183212 -0.01292693  0.03424789
   0.00919408  0.02078187 -0.02404744  0.03000951  0.05487389  0.01059806
  -0.01113797  0.00997079 -0.05569365 -0.02668489  0.00291992 -0.00533754]
 [ 0.03018814 -0.06110598 -0.01340353  0.00366046 -0.0030334   0.02701002
   0.07217244  0.07627126  0.0341      0.05529841 -0.03017887  0.01747575
  -0.00307335  0.02444554 -0.02456946  0.01575749  0.08363715 -0.05639806
  -0.01779216  0.00124049  0.03442372  0.05826498 -0.06034648 -0.00678647
  -0.01288495 -0.03508709  0.00723116 -0.0482031  -0.03607757 -0.05361336
   0.05510249 -0.0446354  -0.02334267  0.07067993  0.00907668  0.05156558
   0.01027065  0.04577207 -0.03640988 -0.0372698  -0.017397   -0.06999835
  -0.00799109 -0.05329872 -0.00182762 -0.03879063  0.08275451 -0.00239767
   0.05912583  0.07731059 -0.00001304  0.03206335 -0.02000884 -0.04527967
   0.0891755  -0.07786707 -0.04502669  0.02641267  0.03817965 -0.02457369
   0.04059783  0.03269557 -0.03102287  0.03282302 -0.07939794 -0.05205766
   0.06630251 -0.04028408  0.03371321  0.00113135  0.00222592  0.05744619
  -0.00842911  0.0923972  -0.04912854 -0.02918009  0.02940123  0.06374552
  -0.0985262   0.03724548  0.03987949  0.04904446 -0.02895197 -0.03497558
  -0.0623322   0.0297979  -0.00425929 -0.03136702  0.03975069 -0.01281718
  -0.01393845  0.03216251 -0.01033691 -0.0812796  -0.01118734 -0.01577652
  -0.04765966 -0.005472   -0.03065977 -0.01865431  0.08457943 -0.01740315
  -0.03754228  0.07854017 -0.04213746  0.07296563  0.04870359 -0.00814849
   0.012639    0.0156463  -0.06264966 -0.03785763 -0.01355278  0.03499663
  -0.03614557  0.03804675  0.05403018  0.06462296  0.00874419 -0.00409378
  -0.02635472  0.00410403  0.05243232  0.00692628 -0.08450589 -0.03215128
   0.07087407  0.04666101  0.0179592  -0.02573306 -0.09748323  0.01137972
  -0.01876373  0.07683444 -0.01127294  0.07101351  0.01529393  0.02509769
   0.03880956 -0.01848074  0.00958024  0.00309334 -0.01015944  0.08886527
   0.04559828 -0.01805484 -0.04521404  0.04285247  0.03180318 -0.0200227
   0.05308444  0.00403594  0.02321449  0.01880131  0.04194082  0.0100732
  -0.01205003 -0.00196897  0.04811325 -0.08588754 -0.0439012  -0.07694601
   0.05573257 -0.08338331 -0.03576981 -0.03235827  0.01557586  0.09427013
  -0.09279271  0.08957699 -0.0144864   0.03916177  0.05739275  0.04331654
   0.03748506  0.03206632 -0.0766462  -0.030973   -0.06323548 -0.04149542
  -0.08558589 -0.00034803  0.03389797 -0.0018282   0.0129815  -0.01235064
   0.01677932 -0.01850748  0.04590114 -0.04386535  0.01795951  0.02950646
  -0.07865231  0.02615433  0.02602941  0.02895631 -0.01451446  0.0180795
  -0.03871914 -0.00415183 -0.01480775 -0.03281965 -0.02647527 -0.05780168
  -0.08724505 -0.00705794  0.05019678 -0.03303924  0.04510051  0.08732962
   0.0655589  -0.01523543 -0.00174874  0.04043861 -0.04414243  0.01562806
   0.06051236  0.02451155 -0.04358102 -0.02928735  0.02672122  0.01730367
   0.08002947 -0.05206992  0.05474818  0.03433552  0.0072804  -0.04180089
   0.07296916  0.03776566 -0.04792307 -0.05145868  0.03512957  0.00954891
  -0.0160573   0.03947399 -0.04272076  0.01748147  0.07256193  0.01304996
   0.01668499  0.05664621 -0.00469022 -0.04903082 -0.05685843 -0.08472766
   0.01615832 -0.00671703 -0.07849322 -0.02351414  0.08307793  0.05075541
  -0.04348686  0.07411132 -0.02233827 -0.06300616  0.06525866  0.00106753
  -0.03939774 -0.00415686 -0.05197618 -0.04025106 -0.03418876 -0.04765324
  -0.01581776  0.0458013  -0.00100477  0.07222041  0.00568982 -0.01397371
   0.00650543 -0.05432407  0.04740381  0.00528772  0.05190182  0.02596284
  -0.07059266 -0.02576779  0.04461649  0.0438257   0.03715264 -0.01821165
  -0.05595947 -0.01149518  0.00853318  0.03793855  0.02550669 -0.01226753
  -0.04771503  0.0492904   0.03144512  0.02292981 -0.01381746  0.0546762
  -0.00679999  0.01235164 -0.068542    0.01408905  0.07797717 -0.01440331]
 [ 0.00701388 -0.06223926 -0.02315017  0.04910535  0.00235445 -0.08709723
  -0.03863107  0.04033282  0.01850555 -0.06949095  0.0179509   0.05381219
   0.02139406  0.06138687  0.00406434  0.02336261 -0.00937484 -0.01430593
   0.06038741 -0.03780402  0.00824426 -0.04593442 -0.01464384 -0.02797732
  -0.01013379  0.01325922 -0.05765607  0.01856351  0.05922943  0.04030225
  -0.00640883  0.08345153  0.02151291  0.0116394   0.09365584 -0.01739861
  -0.02684467  0.05236775  0.01369316  0.04080316  0.06894947  0.00374348
   0.01930303  0.02982357 -0.00114579 -0.07374388  0.07865518  0.00389444
   0.01702656  0.00600987  0.06456672  0.0011195  -0.06970306  0.08164417
  -0.01096726  0.04140188 -0.00748666  0.06433555  0.00236284 -0.02807211
  -0.04804518 -0.00873998  0.03170968 -0.0714974   0.02378432 -0.02411194
   0.00245292  0.00019476 -0.09504315 -0.0354338   0.01763757  0.07466447
  -0.05876938 -0.02397654  0.07762872 -0.00715091 -0.00697725  0.04158588
   0.02478148 -0.07546734  0.00790979  0.01257424 -0.01258396 -0.00341362
  -0.0065356   0.05276718 -0.02240011  0.02838138  0.01350591  0.07496351
  -0.02801562  0.061035    0.00450468  0.00517231 -0.04595135 -0.06293627
  -0.03561569  0.05333352  0.04938282 -0.00172645 -0.01803552  0.01378111
   0.03812734 -0.01539756 -0.06783979  0.00959333  0.00600105  0.02514164
  -0.04882987  0.03175884 -0.00386972  0.01613477 -0.08948078  0.04412126
  -0.02067449  0.02985751  0.04501402 -0.00363855  0.00959329 -0.00332415
   0.05529957 -0.00775194  0.01699792 -0.04517679  0.03757881  0.07824017
  -0.00564216  0.0469722   0.01731899 -0.02283335 -0.06353401 -0.03698884
  -0.05367298  0.02016253 -0.03176833 -0.04099166  0.02911705  0.02541308
   0.01844295  0.01854402 -0.03874269  0.03999029  0.05570975  0.02302828
  -0.0523168  -0.05917144  0.0454798   0.0479233   0.03272734 -0.00717543
   0.00257567  0.00928318  0.00016997  0.07444983  0.01954305  0.00819184
  -0.01723765  0.00139949 -0.0018799   0.06007824 -0.03563179 -0.01279679
  -0.04392828 -0.02753836 -0.06064007  0.09532163 -0.02285036  0.0371388
   0.02938644  0.02206382  0.01919743  0.02366981  0.02684371 -0.01762832
  -0.0688918   0.00086164 -0.03000854 -0.00699377  0.00977976 -0.09136536
   0.05590636  0.0224837   0.03060935 -0.05728682 -0.00727428  0.00989016
   0.01412262 -0.0286912   0.00763436 -0.01036323  0.06662566 -0.01904034
   0.03450314  0.08086044  0.07116412  0.05207221  0.00124171  0.01678654
  -0.06758149  0.01574441 -0.01636315  0.05132587 -0.08937604  0.00108587
   0.09601357  0.00869567 -0.07476046 -0.00945531 -0.0025491   0.03545568
   0.01202958  0.07732034 -0.02273458 -0.00418096 -0.01370825  0.09284767
   0.08005913  0.06060437  0.06762452 -0.06660631  0.00448195 -0.05731825
   0.04027571 -0.08450624 -0.05500373  0.02203266  0.01134253 -0.05677603
  -0.03710081 -0.03282492 -0.00542822  0.0772319  -0.06173886  0.04601708
   0.00573017 -0.07178332  0.02405675 -0.01869105 -0.00229483 -0.04058817
  -0.03081314 -0.01865098 -0.00621915  0.03585079  0.03424492  0.01447192
  -0.06124275 -0.04683599  0.02495934  0.01551425 -0.04341095 -0.00202229
   0.00034627  0.06260773  0.04929532  0.05134815 -0.02821177  0.01012271
  -0.01663756 -0.07767017 -0.00555635  0.03295083  0.02575235 -0.02959245
   0.04671751  0.01019151  0.02886165  0.04078502 -0.01086546 -0.03506964
   0.03517669 -0.09627787  0.02548518  0.02825471 -0.00394037  0.07599168
  -0.02319527 -0.01902127 -0.07394924 -0.00138976 -0.03153336 -0.08621439
  -0.01654164 -0.03055613  0.04800945  0.00984287 -0.03278035  0.03412784
  -0.0627211  -0.05640301  0.03742652 -0.06242108 -0.03826523  0.00858811
   0.03431813  0.01526176  0.00231024 -0.00824752  0.00104787 -0.05199232]
 [-0.05221477 -0.04784575 -0.04273556  0.06844231  0.04861661 -0.02995512
   0.01161052  0.0424193  -0.04719348 -0.09611187  0.09814241 -0.06748369
   0.00621065  0.02548559 -0.02616847 -0.02602811  0.04481274 -0.03777011
   0.08362866  0.0202496   0.05956775 -0.0840213   0.02353071  0.08862407
   0.01274695  0.01509847 -0.07860228 -0.01270501 -0.07626254  0.00284752
  -0.00216143  0.0161716   0.04592801 -0.01819411 -0.01755048 -0.06327819
   0.07296162 -0.07022326 -0.01693142  0.0113924   0.02536396  0.07922287
   0.0009607  -0.00196353  0.0044035   0.00871406  0.03597036 -0.03912923
  -0.0252697  -0.0824129   0.03870995  0.07083493 -0.01808052 -0.01054794
   0.02017167  0.04019672  0.05917973 -0.0568738  -0.04710567  0.01881193
  -0.0387628   0.00307317  0.0132881   0.00680465 -0.06380203 -0.00202208
  -0.09259989 -0.04512948 -0.07771596  0.00139634 -0.06259816  0.00155848
  -0.00453926 -0.04311436  0.01794156 -0.04913768 -0.07120927 -0.0237416
   0.00029208  0.09597685 -0.05005304  0.01453459 -0.00761118  0.07678127
  -0.02455791  0.02304224  0.03344386  0.05720863  0.03158715 -0.00814114
   0.06907524 -0.05440005 -0.06071359 -0.04953027 -0.0358543   0.05056433
  -0.01865424  0.04498345  0.02653069  0.0051777  -0.02400878 -0.00004413
  -0.0156445  -0.03136658  0.0301922   0.00989007 -0.0542547  -0.00568856
   0.05822143 -0.05460738  0.08546009 -0.04243429 -0.00373026 -0.01887819
   0.05475476  0.01248511 -0.01396491 -0.0508313   0.09965605 -0.06038733
  -0.05231525 -0.01343741 -0.0228191  -0.01079545  0.03651221 -0.0077808
   0.04093513 -0.04814852 -0.05955349 -0.00840898 -0.08138343  0.01549038
